{
  "learner": {
    "attributes": { "scikit_learn": "{\"_estimator_type\": \"classifier\"}" },
    "feature_names": [],
    "feature_types": [],
    "gradient_booster": {
      "model": {
        "cats": { "enc": [], "feature_segments": [], "sorted_idx": [] },
        "gbtree_model_param": { "num_parallel_tree": "1", "num_trees": "100" },
        "iteration_indptr": [
          0, 1, 2, 3, 4, 5, 6, 7, 8, 9, 10, 11, 12, 13, 14, 15, 16, 17, 18, 19,
          20, 21, 22, 23, 24, 25, 26, 27, 28, 29, 30, 31, 32, 33, 34, 35, 36,
          37, 38, 39, 40, 41, 42, 43, 44, 45, 46, 47, 48, 49, 50, 51, 52, 53,
          54, 55, 56, 57, 58, 59, 60, 61, 62, 63, 64, 65, 66, 67, 68, 69, 70,
          71, 72, 73, 74, 75, 76, 77, 78, 79, 80, 81, 82, 83, 84, 85, 86, 87,
          88, 89, 90, 91, 92, 93, 94, 95, 96, 97, 98, 99, 100
        ],
        "tree_info": [
          0, 0, 0, 0, 0, 0, 0, 0, 0, 0, 0, 0, 0, 0, 0, 0, 0, 0, 0, 0, 0, 0, 0,
          0, 0, 0, 0, 0, 0, 0, 0, 0, 0, 0, 0, 0, 0, 0, 0, 0, 0, 0, 0, 0, 0, 0,
          0, 0, 0, 0, 0, 0, 0, 0, 0, 0, 0, 0, 0, 0, 0, 0, 0, 0, 0, 0, 0, 0, 0,
          0, 0, 0, 0, 0, 0, 0, 0, 0, 0, 0, 0, 0, 0, 0, 0, 0, 0, 0, 0, 0, 0, 0,
          0, 0, 0, 0, 0, 0, 0, 0
        ],
        "trees": [
          {
            "base_weights": [
              -0, -1.828877, 7.826087e-1, -1.8469945, -5e-2, 3.10559e-1,
              1.0428572, -1.8659218e-1, -5e-2, 6.76259e-1, -1.6923077e-1,
              -4.6153846e-1, 1.099631, 7.8125e-1, -4e-1, -6.666667e-2, -0,
              6.0240966e-1, 1.2916666, 8.6178863e-1, -6.666667e-2, -1e-1,
              1.818182e-2, 7.692308e-1, -1.1111112e-1, 3.529412e-1, 1.4567901,
              9.6551724e-2, -5.454546e-2, -3.3333335e-2, 9.142857e-2, 1e-1,
              -4.4444446e-2, 1.628866e-1, 1.1304348e-1
            ],
            "categories": [],
            "categories_nodes": [],
            "categories_segments": [],
            "categories_sizes": [],
            "default_left": [
              0, 0, 0, 0, 0, 0, 0, 0, 0, 0, 0, 0, 0, 0, 0, 0, 0, 0, 0, 0, 0, 0,
              0, 0, 0, 0, 0, 0, 0, 0, 0, 0, 0, 0, 0
            ],
            "id": 0,
            "left_children": [
              1, 3, 5, 7, -1, 9, 11, -1, -1, 13, -1, 15, 17, 19, 21, -1, -1, 23,
              25, 27, -1, -1, -1, 29, -1, 31, 33, -1, -1, -1, -1, -1, -1, -1, -1
            ],
            "loss_changes": [
              2.2328203e2, 2.0205688e-1, 1.3097519e1, 2.3342896e-1, 0,
              3.062548e1, 6.486244, 0, 0, 4.2391644, 0, 3.076923e-1, 5.6909485,
              4.3061485, 1.490909, 0, 0, 6.786119, 6.9261017, 5.0152664, 0, 0,
              0, 3.4234428, 0, 4.8300653, 4.3307495e-1, 0, 0, 0, 0, 0, 0, 0, 0
            ],
            "parents": [
              2147483647, 0, 0, 1, 1, 2, 2, 3, 3, 5, 5, 6, 6, 9, 9, 11, 11, 12,
              12, 13, 13, 14, 14, 17, 17, 18, 18, 19, 19, 23, 23, 25, 25, 26, 26
            ],
            "right_children": [
              2, 4, 6, 8, -1, 10, 12, -1, -1, 14, -1, 16, 18, 20, 22, -1, -1,
              24, 26, 28, -1, -1, -1, 30, -1, 32, 34, -1, -1, -1, -1, -1, -1,
              -1, -1
            ],
            "split_conditions": [
              1, 1.1417e4, 1, 5e3, -5e-2, 8.015744e-3, 1.4737117e3,
              -1.8659218e-1, -5e-2, 3.8670425e3, -1.6923077e-1, 2.275e3,
              8.858274e-1, 3.6641882e2, 2.121341e3, -6.666667e-2, -0,
              1.0800924e-2, 3.323582e2, 9.323e3, -6.666667e-2, -1e-1,
              1.818182e-2, 8.4672585e1, -1.1111112e-1, 1.1576754e2, 1.0250216,
              9.6551724e-2, -5.454546e-2, -3.3333335e-2, 9.142857e-2, 1e-1,
              -4.4444446e-2, 1.628866e-1, 1.1304348e-1
            ],
            "split_indices": [
              9, 5, 1, 6, 0, 1, 5, 0, 0, 6, 0, 6, 10, 8, 5, 0, 0, 10, 8, 5, 0,
              0, 0, 7, 0, 7, 10, 0, 0, 0, 0, 0, 0, 0, 0
            ],
            "split_type": [
              0, 0, 0, 0, 0, 0, 0, 0, 0, 0, 0, 0, 0, 0, 0, 0, 0, 0, 0, 0, 0, 0,
              0, 0, 0, 0, 0, 0, 0, 0, 0, 0, 0, 0, 0
            ],
            "sum_hessian": [
              1.54e2, 4.575e1, 1.0825e2, 4.475e1, 1, 3.925e1, 6.9e1, 4.375e1, 1,
              3.375e1, 5.5, 2.25, 6.675e1, 3.1e1, 2.75, 1.25, 1, 1.975e1, 4.7e1,
              2.975e1, 1.25, 1, 1.75, 1.85e1, 1.25, 7.5, 3.95e1, 2.8e1, 1.75, 2,
              1.65e1, 4, 3.5, 2.325e1, 1.625e1
            ],
            "tree_param": {
              "num_deleted": "0",
              "num_feature": "11",
              "num_nodes": "35",
              "size_leaf_vector": "1"
            }
          },
          {
            "base_weights": [
              -2.352524e-3, -1.666163, 7.0623785e-1, -7.38106e-1, -1.7017937e-1,
              2.733918e-1, 9.4523543e-1, -1.3450438e-2, -1.0126169e-1,
              6.068563e-1, -1.5588523e-1, -4.3609312e-1, 9.9771655e-1,
              7.039106e-1, -3.8210917e-1, -6.30032e-2, -0, 5.4066914e-1,
              1.1749401, 7.787262e-1, -6.30032e-2, -7.760797e-2, 2.2531426e-2,
              6.965904e-1, -1.0512451e-1, 3.2466647e-1, 1.3248961, 8.743316e-2,
              -5.1099427e-2, -3.1117082e-2, 8.297744e-2, 8.6800866e-2,
              -5.0319888e-2, 1.4142072e-1, 8.21828e-2
            ],
            "categories": [],
            "categories_nodes": [],
            "categories_segments": [],
            "categories_sizes": [],
            "default_left": [
              0, 0, 0, 0, 0, 0, 0, 0, 0, 0, 0, 0, 0, 0, 0, 0, 0, 0, 0, 0, 0, 0,
              0, 0, 0, 0, 0, 0, 0, 0, 0, 0, 0, 0, 0
            ],
            "id": 1,
            "left_children": [
              1, 3, 5, 7, -1, 9, 11, -1, -1, 13, -1, 15, 17, 19, 21, -1, -1, 23,
              25, 27, -1, -1, -1, 29, -1, 31, 33, -1, -1, -1, -1, -1, -1, -1, -1
            ],
            "loss_changes": [
              1.8303505e2, 2.7723694e-1, 1.1005436e1, 4.4047976e-1, 0,
              2.547127e1, 5.491001, 0, 0, 3.5976276, 0, 2.7475262e-1, 4.8317413,
              3.6774435, 1.071631, 0, 0, 5.8730717, 5.6623535, 4.2301903, 0, 0,
              0, 2.8707495, 0, 4.254933, 6.4818573e-1, 0, 0, 0, 0, 0, 0, 0, 0
            ],
            "parents": [
              2147483647, 0, 0, 1, 1, 2, 2, 3, 3, 5, 5, 6, 6, 9, 9, 11, 11, 12,
              12, 13, 13, 14, 14, 17, 17, 18, 18, 19, 19, 23, 23, 25, 25, 26, 26
            ],
            "right_children": [
              2, 4, 6, 8, -1, 10, 12, -1, -1, 14, -1, 16, 18, 20, 22, -1, -1,
              24, 26, 28, -1, -1, -1, 30, -1, 32, 34, -1, -1, -1, -1, -1, -1,
              -1, -1
            ],
            "split_conditions": [
              1, 1.849523e2, 1, 2.582577e-3, -1.7017937e-1, 8.015744e-3,
              1.4737117e3, -1.3450438e-2, -1.0126169e-1, 3.8670425e3,
              -1.5588523e-1, 2.275e3, 8.858274e-1, 3.6641882e2, 1.7634825e2,
              -6.30032e-2, -0, 1.0800924e-2, 3.323582e2, 9.323e3, -6.30032e-2,
              -7.760797e-2, 2.2531426e-2, 8.4672585e1, -1.0512451e-1,
              1.849523e2, 2.925e3, 8.743316e-2, -5.1099427e-2, -3.1117082e-2,
              8.297744e-2, 8.6800866e-2, -5.0319888e-2, 1.4142072e-1, 8.21828e-2
            ],
            "split_indices": [
              9, 8, 1, 3, 0, 1, 5, 0, 0, 6, 0, 6, 10, 8, 7, 0, 0, 10, 8, 5, 0,
              0, 0, 7, 0, 8, 6, 0, 0, 0, 0, 0, 0, 0, 0
            ],
            "split_type": [
              0, 0, 0, 0, 0, 0, 0, 0, 0, 0, 0, 0, 0, 0, 0, 0, 0, 0, 0, 0, 0, 0,
              0, 0, 0, 0, 0, 0, 0, 0, 0, 0, 0, 0, 0
            ],
            "sum_hessian": [
              1.5325319e2, 4.537014e1, 1.0788304e2, 2.4803724, 4.2889767e1,
              3.9140324e1, 6.874272e1, 1.2411898, 1.2391826, 3.3679516e1,
              5.4608083, 2.2486122, 6.649411e1, 3.0932156e1, 2.7473598,
              1.2486122, 1, 1.971116e1, 4.6782948e1, 2.9683544e1, 1.2486122,
              1.4980662, 1.2492934, 1.8465012e1, 1.2461498, 7.488289,
              3.929466e1, 2.7934845e1, 1.748699, 1.9994446, 1.6465567e1,
              4.491772, 2.9965167, 3.1832232e1, 7.462427
            ],
            "tree_param": {
              "num_deleted": "0",
              "num_feature": "11",
              "num_nodes": "35",
              "size_leaf_vector": "1"
            }
          },
          {
            "base_weights": [
              -4.88604e-3, -1.5394814, 6.406184e-1, -7.0069915e-1,
              -1.5713029e-1, 1.9872293e-1, 8.471047e-1, -1.0808027e-2,
              -9.803527e-2, 4.905774e-1, -1.5196489e-1, -9.678256e-2, 9.1145e-1,
              8.420021e-1, 1.0813408e-1, 9.0478696e-2, 1.0314668, 4.3886054e-2,
              1.3691635, -8.476668e-1, 5.7610375e-1, 5.53896e-1, -8.618405e-1,
              1.32987e-1, 6.2491196e-1, -5.2200425e-2, 1.20820835e-1,
              3.9694853e-2, 1.497878e-1, 1.1827066e-2, -1.3012902e-1,
              9.1309436e-2, -2.8561095e-2, 8.745322e-2, -4.3470994e-2,
              -1.8328108e-2, -1.1246059e-1, -1.4293754e-1, 8.99871e-2
            ],
            "categories": [],
            "categories_nodes": [],
            "categories_segments": [],
            "categories_sizes": [],
            "default_left": [
              0, 0, 0, 0, 0, 0, 0, 0, 0, 0, 0, 0, 0, 0, 0, 0, 0, 0, 0, 0, 0, 0,
              0, 0, 0, 0, 0, 0, 0, 0, 0, 0, 0, 0, 0, 0, 0, 0, 0
            ],
            "id": 2,
            "left_children": [
              1, 3, 5, 7, -1, 9, 11, -1, -1, 13, -1, -1, 15, 17, 19, 21, 23, 25,
              27, 29, 31, 33, 35, -1, 37, -1, -1, -1, -1, -1, -1, -1, -1, -1,
              -1, -1, -1, -1, -1
            ],
            "loss_changes": [
              1.518926e2, 1.1077881e-1, 9.680687, 4.681697e-1, 0, 1.86403e1,
              9.437416, 0, 0, 4.1099, 0, 0, 6.928467, 6.73133, 7.6964893,
              4.9724708, 6.7002716, 5.541899, 6.1774063e-1, 2.6521244, 3.575251,
              2.7449372, 4.5811105e-1, 0, 1.7194687e1, 0, 0, 0, 0, 0, 0, 0, 0,
              0, 0, 0, 0, 0, 0
            ],
            "parents": [
              2147483647, 0, 0, 1, 1, 2, 2, 3, 3, 5, 5, 6, 6, 9, 9, 12, 12, 13,
              13, 14, 14, 15, 15, 16, 16, 17, 17, 18, 18, 19, 19, 20, 20, 21,
              21, 22, 22, 24, 24
            ],
            "right_children": [
              2, 4, 6, 8, -1, 10, 12, -1, -1, 14, -1, -1, 16, 18, 20, 22, 24,
              26, 28, 30, 32, 34, 36, -1, 38, -1, -1, -1, -1, -1, -1, -1, -1,
              -1, -1, -1, -1, -1, -1
            ],
            "split_conditions": [
              1, 1.849523e2, 9.396924e-1, 1.2196981, -1.5713029e-1,
              1.0800924e-2, 1.4737117e3, -1.0808027e-2, -9.803527e-2,
              4.167427e3, -1.5196489e-1, -9.678256e-2, 2.9187177e2, 1.597821e3,
              5.25e3, 1.849523e2, 1.0250216, 3.617e3, 1.928e3, 2.1601848e-2,
              9.382712e3, 3.428e3, 1.0047288e2, 1.32987e-1, 1.9984592,
              -5.2200425e-2, 1.20820835e-1, 3.9694853e-2, 1.497878e-1,
              1.1827066e-2, -1.3012902e-1, 9.1309436e-2, -2.8561095e-2,
              8.745322e-2, -4.3470994e-2, -1.8328108e-2, -1.1246059e-1,
              -1.4293754e-1, 8.99871e-2
            ],
            "split_indices": [
              9, 8, 10, 10, 0, 10, 5, 0, 0, 5, 0, 0, 8, 6, 5, 8, 10, 5, 5, 2, 5,
              6, 7, 0, 10, 0, 0, 0, 0, 0, 0, 0, 0, 0, 0, 0, 0, 0, 0
            ],
            "split_type": [
              0, 0, 0, 0, 0, 0, 0, 0, 0, 0, 0, 0, 0, 0, 0, 0, 0, 0, 0, 0, 0, 0,
              0, 0, 0, 0, 0, 0, 0, 0, 0, 0, 0, 0, 0, 0, 0, 0, 0
            ],
            "sum_hessian": [
              1.5134018e2, 4.440016e1, 1.0694002e2, 2.4642704, 4.193589e1,
              3.468151e1, 7.225851e1, 1.2345635, 1.2297068, 3.0257055e1,
              4.424457, 1.9933296, 7.0265175e1, 1.5141754e1, 1.51153e1,
              9.1855545, 6.107962e1, 6.453891, 8.687863, 4.701463, 1.0413837e1,
              6.460244, 2.7253108, 3.3915363e1, 2.7164255e1, 4.7142916,
              1.7395991, 1.4932078, 7.194656, 1.7385983, 2.9628649, 7.443345,
              2.9704924, 4.965246, 1.4949981, 1.2346046, 1.4907062, 2.711023,
              2.4453232e1
            ],
            "tree_param": {
              "num_deleted": "0",
              "num_feature": "11",
              "num_nodes": "39",
              "size_leaf_vector": "1"
            }
          },
          {
            "base_weights": [
              -6.889982e-3, -1.4376639, 5.8386e-1, -1.454552, -4.552918e-2,
              1.9700842e-1, 7.9919064e-1, -6.6600156e-1, -1.4858155e-1,
              4.8055345e-1, -1.3869655e-1, -3.7816543e-2, 8.4485203e-1,
              -1.0217693e-2, -9.341549e-2, 5.696426e-1, -3.976789e-1,
              4.5186904e-1, 9.996471e-1, 7.534524e-1, 1.6539654e-2,
              -7.522722e-2, 1.7448595e-2, 5.865028e-1, -9.258827e-2, 1.1019387,
              5.8795284e-2, 8.568459e-2, -6.11822e-2, -4.6574295e-2,
              1.1421617e-1, -3.0706152e-2, 7.07682e-2, 1.2712519e-1,
              4.7785923e-2, -1.0623143e-1, 6.2006682e-2
            ],
            "categories": [],
            "categories_nodes": [],
            "categories_segments": [],
            "categories_sizes": [],
            "default_left": [
              0, 0, 0, 0, 0, 0, 0, 0, 0, 0, 0, 0, 0, 0, 0, 0, 0, 0, 0, 0, 0, 0,
              0, 0, 0, 0, 0, 0, 0, 0, 0, 0, 0, 0, 0, 0, 0
            ],
            "id": 3,
            "left_children": [
              1, 3, 5, 7, -1, 9, 11, 13, -1, 15, -1, -1, 17, -1, -1, 19, 21, 23,
              25, 27, 29, -1, -1, 31, -1, 33, 35, -1, -1, -1, -1, -1, -1, -1,
              -1, -1, -1
            ],
            "loss_changes": [
              1.2729719e2, 6.790924e-2, 8.722702, 6.585693e-2, 0, 1.8383135e1,
              3.9835625, 4.2540038e-1, 0, 2.9023929, 0, 0, 3.558384, 0, 0,
              3.1860962, 8.8978714e-1, 4.336962, 4.407318, 3.854435, 5.347172,
              0, 0, 2.3011513, 0, 3.815094, 4.1906857, 0, 0, 0, 0, 0, 0, 0, 0,
              0, 0
            ],
            "parents": [
              2147483647, 0, 0, 1, 1, 2, 2, 3, 3, 5, 5, 6, 6, 7, 7, 9, 9, 12,
              12, 15, 15, 16, 16, 17, 17, 18, 18, 19, 19, 20, 20, 23, 23, 25,
              25, 26, 26
            ],
            "right_children": [
              2, 4, 6, 8, -1, 10, 12, 14, -1, 16, -1, -1, 18, -1, -1, 20, 22,
              24, 26, 28, 30, -1, -1, 32, -1, 34, 36, -1, -1, -1, -1, -1, -1,
              -1, -1, -1, -1
            ],
            "split_conditions": [
              1, 4.983e3, 1, 1.849523e2, -4.552918e-2, 8.015744e-3, 1.4737117e3,
              1.2196981, -1.4858155e-1, 3.8670425e3, -1.3869655e-1,
              -3.7816543e-2, 8.858274e-1, -1.0217693e-2, -9.341549e-2,
              2.582577e-3, 1.7634825e2, 1.0800924e-2, 2.0270875, 3.6641882e2,
              1.56e3, -7.522722e-2, 1.7448595e-2, 8.4672585e1, -9.258827e-2,
              2.925e3, 2.720109, 8.568459e-2, -6.11822e-2, -4.6574295e-2,
              1.1421617e-1, -3.0706152e-2, 7.07682e-2, 1.2712519e-1,
              4.7785923e-2, -1.0623143e-1, 6.2006682e-2
            ],
            "split_indices": [
              9, 6, 1, 8, 0, 1, 5, 10, 0, 6, 0, 0, 10, 0, 0, 3, 7, 10, 2, 8, 6,
              0, 0, 7, 0, 6, 2, 0, 0, 0, 0, 0, 0, 0, 0, 0, 0
            ],
            "split_type": [
              0, 0, 0, 0, 0, 0, 0, 0, 0, 0, 0, 0, 0, 0, 0, 0, 0, 0, 0, 0, 0, 0,
              0, 0, 0, 0, 0, 0, 0, 0, 0, 0, 0, 0, 0, 0, 0
            ],
            "sum_hessian": [
              1.4861354e2, 4.3010387e1, 1.0560315e2, 4.1810955e1, 1.1994313,
              3.844672e1, 6.7156425e1, 2.4449673, 3.936599e1, 3.320021e1,
              5.2465096, 2.2354174, 6.492101e1, 1.2331532, 1.211814,
              3.0461525e1, 2.7386856, 1.9453342e1, 4.5467667e1, 2.2591562e1,
              7.8699627, 1.4964771, 1.2422084, 1.824477e1, 1.2085731,
              4.085464e1, 4.613027, 2.1347311e1, 1.2442513, 5.9198055,
              1.9501572, 1.9955813, 1.624919e1, 3.1320393e1, 9.534246,
              1.2411684, 3.3718586
            ],
            "tree_param": {
              "num_deleted": "0",
              "num_feature": "11",
              "num_nodes": "37",
              "size_leaf_vector": "1"
            }
          },
          {
            "base_weights": [
              -9.219184e-3, -1.3545904, 5.334054e-1, -1.389635, -6.6466784e-1,
              1.7678122e-1, 7.328605e-1, -1.4080642e-1, -4.328255e-2,
              -9.8443694e-2, 5.9861024e-3, 4.3759e-1, -1.3090257e-1,
              -3.527193e-2, 7.75656e-1, 5.3540856e-1, -3.3030942e-1, 1.0682603,
              5.676081e-1, 2.2065663e-1, 7.941889e-1, 1.9769635e-2,
              -8.260646e-2, 1.1655405, 9.4914876e-2, 3.131543e-1, 1.0361648,
              6.538894e-2, -8.837124e-2, 3.8095396e-2, 1.2492343e-1,
              4.2630542e-2, 1.2682208e-1, -3.4441706e-2, 4.9359582e-2,
              4.6261963e-2, -7.8141354e-2, 4.227907e-2, 1.2116086e-1
            ],
            "categories": [],
            "categories_nodes": [],
            "categories_segments": [],
            "categories_sizes": [],
            "default_left": [
              0, 0, 0, 0, 0, 0, 0, 0, 0, 0, 0, 0, 0, 0, 0, 0, 0, 0, 0, 0, 0, 0,
              0, 0, 0, 0, 0, 0, 0, 0, 0, 0, 0, 0, 0, 0, 0, 0, 0
            ],
            "id": 4,
            "left_children": [
              1, 3, 5, 7, 9, 11, 13, -1, -1, -1, -1, 15, -1, -1, 17, 19, 21, 23,
              25, 27, 29, -1, -1, 31, 33, 35, 37, -1, -1, -1, -1, -1, -1, -1,
              -1, -1, -1, -1, -1
            ],
            "loss_changes": [
              1.0756525e2, 1.0018158e-1, 7.3397064, 8.4983826e-2, 9.7726846e-1,
              1.5678882e1, 3.3874588, 0, 0, 0, 0, 2.7240524, 0, 0, 3.3381577,
              2.30583, 1.3281691, 2.3315964, 4.444992, 7.8161774, 2.595172, 0,
              0, 1.2325115, 7.7117074e-1, 4.837264, 9.561844e-1, 0, 0, 0, 0, 0,
              0, 0, 0, 0, 0, 0, 0
            ],
            "parents": [
              2147483647, 0, 0, 1, 1, 2, 2, 3, 3, 4, 4, 5, 5, 6, 6, 11, 11, 14,
              14, 15, 15, 16, 16, 17, 17, 18, 18, 19, 19, 20, 20, 23, 23, 24,
              24, 25, 25, 26, 26
            ],
            "right_children": [
              2, 4, 6, 8, 10, 12, 14, -1, -1, -1, -1, 16, -1, -1, 18, 20, 22,
              24, 26, 28, 30, -1, -1, 32, 34, 36, 38, -1, -1, -1, -1, -1, -1,
              -1, -1, -1, -1, -1, -1
            ],
            "split_conditions": [
              1, 4, 1, 4.983e3, 1.281666e2, 8.015744e-3, 1.4737117e3,
              -1.4080642e-1, -4.328255e-2, -9.8443694e-2, 5.9861024e-3, 1.88e2,
              -1.3090257e-1, -3.527193e-2, 3.502828e3, 3.617e3, 2.1601848e-2,
              3.583e3, 6.1715215e3, 3.34e3, 1.27e2, 1.9769635e-2, -8.260646e-2,
              5.7402527e2, 2.333e3, 6e3, 1.6198491e2, 6.538894e-2, -8.837124e-2,
              3.8095396e-2, 1.2492343e-1, 4.2630542e-2, 1.2682208e-1,
              -3.4441706e-2, 4.9359582e-2, 4.6261963e-2, -7.8141354e-2,
              4.227907e-2, 1.2116086e-1
            ],
            "split_indices": [
              9, 2, 1, 6, 7, 1, 5, 0, 0, 0, 0, 7, 0, 0, 5, 5, 2, 6, 5, 5, 7, 0,
              0, 6, 5, 5, 7, 0, 0, 0, 0, 0, 0, 0, 0, 0, 0, 0, 0
            ],
            "split_type": [
              0, 0, 0, 0, 0, 0, 0, 0, 0, 0, 0, 0, 0, 0, 0, 0, 0, 0, 0, 0, 0, 0,
              0, 0, 0, 0, 0, 0, 0, 0, 0, 0, 0, 0, 0, 0, 0, 0, 0
            ],
            "sum_hessian": [
              1.4535353e2, 4.134566e1, 1.04007866e2, 3.838187e1, 2.9637918,
              3.7982235e1, 6.6025635e1, 3.719385e1, 1.1880174, 1.8073814,
              1.1564106, 3.2910778e1, 5.071455, 2.2294655, 6.3796165e1,
              2.9460701e1, 3.4500775, 2.4792551e1, 3.9003616e1, 1.4128739e1,
              1.5331963e1, 1.9618373, 1.4882402, 2.2360312e1, 2.432239,
              2.6358007e1, 1.2645609e1, 1.0440819e1, 3.6879199, 8.997944,
              6.3340187, 3.3553865, 1.9004925e1, 1.2218801, 1.2103589,
              2.3699188e1, 2.6588192, 3.5709488, 9.07466
            ],
            "tree_param": {
              "num_deleted": "0",
              "num_feature": "11",
              "num_nodes": "39",
              "size_leaf_vector": "1"
            }
          },
          {
            "base_weights": [
              -9.309489e-3, -1.2837065, 4.899841e-1, -5.592113e-1, -1.3138614,
              1.17525846e-1, 6.673602e-1, -1.8802049e-3, -8.50593e-2,
              -1.3314198e-1, -4.116645e-2, 3.626438e-1, -1.3416573e-1,
              9.7944957e-1, 3.1011313e-1, 6.9828546e-1, 4.7312947e-3,
              -1.3327248e-1, 1.1143154, -1.4079516e-1, 5.7105225e-1,
              4.5417226e-3, 1.1735982, -8.407034e-1, 4.313089e-1, 3.3122236e-1,
              -7.2200716e-2, 1.1454924, 4.4466406e-2, -4.0508726e-1,
              7.6118106e-1, -5.18925e-2, 1.102991e-1, 3.599221e-2, 1.2810914e-1,
              5.310887e-3, -1.2502947e-1, 7.4094556e-2, -3.3019926e-2,
              2.6498816e-3, 4.8505403e-2, 1.1839225e-1, 4.1582853e-2,
              5.8116477e-2, -1.1904674e-1, 8.578003e-2, 1.0009731e-2
            ],
            "categories": [],
            "categories_nodes": [],
            "categories_segments": [],
            "categories_sizes": [],
            "default_left": [
              0, 0, 0, 0, 0, 0, 0, 0, 0, 0, 0, 0, 0, 0, 0, 0, 0, 0, 0, 0, 0, 0,
              0, 0, 0, 0, 0, 0, 0, 0, 0, 0, 0, 0, 0, 0, 0, 0, 0, 0, 0, 0, 0, 0,
              0, 0, 0
            ],
            "id": 5,
            "left_children": [
              1, 3, 5, 7, 9, 11, 13, -1, -1, -1, -1, 15, -1, 17, 19, 21, 23, 25,
              27, -1, 29, 31, 33, 35, 37, 39, -1, 41, -1, 43, 45, -1, -1, -1,
              -1, -1, -1, -1, -1, -1, -1, -1, -1, -1, -1, -1, -1
            ],
            "loss_changes": [
              9.161171e1, 1.5066528e-1, 6.756693, 5.131595e-1, 5.6510925e-2,
              1.28584e1, 7.4863186, 0, 0, 0, 0, 3.6489396, 0, 5.6753387,
              1.606519e1, 5.1658916, 6.031869, 1.5721228, 1.7865372e-1, 0,
              5.9251966, 4.8159027, 3.5254192e-1, 2.120515, 2.864067,
              1.4700454e-1, 0, 3.7286758e-1, 0, 5.0190463, 1.5542793, 0, 0, 0,
              0, 0, 0, 0, 0, 0, 0, 0, 0, 0, 0, 0, 0
            ],
            "parents": [
              2147483647, 0, 0, 1, 1, 2, 2, 3, 3, 4, 4, 5, 5, 6, 6, 11, 11, 13,
              13, 14, 14, 15, 15, 16, 16, 17, 17, 18, 18, 20, 20, 21, 21, 22,
              22, 23, 23, 24, 24, 25, 25, 27, 27, 29, 29, 30, 30
            ],
            "right_children": [
              2, 4, 6, 8, 10, 12, 14, -1, -1, -1, -1, 16, -1, 18, 20, 22, 24,
              26, 28, -1, 30, 32, 34, 36, 38, 40, -1, 42, -1, 44, 46, -1, -1,
              -1, -1, -1, -1, -1, -1, -1, -1, -1, -1, -1, -1, -1, -1
            ],
            "split_conditions": [
              1, 1.849523e2, 9.396924e-1, 2.582577e-3, 4.983e3, 1.0800924e-2,
              1.0250216, -1.8802049e-3, -8.50593e-2, -1.3314198e-1,
              -4.116645e-2, 4.167427e3, -1.3416573e-1, 2.7440298e2, 1.9984592,
              1.597821e3, 5.25e3, 1.1576754e2, 2.5295622e2, -1.4079516e-1,
              2.121341e3, 3.617e3, 1.928e3, 8.015744e-3, 9.382712e3, 3.366e3,
              -7.2200716e-2, 2.0270875, 4.4466406e-2, 1.0047288e2, 3.274e3,
              -5.18925e-2, 1.102991e-1, 3.599221e-2, 1.2810914e-1, 5.310887e-3,
              -1.2502947e-1, 7.4094556e-2, -3.3019926e-2, 2.6498816e-3,
              4.8505403e-2, 1.1839225e-1, 4.1582853e-2, 5.8116477e-2,
              -1.1904674e-1, 8.578003e-2, 1.0009731e-2
            ],
            "split_indices": [
              9, 8, 10, 3, 6, 10, 10, 0, 0, 0, 0, 5, 0, 8, 10, 6, 5, 7, 7, 0, 5,
              5, 5, 1, 5, 5, 0, 2, 0, 7, 6, 0, 0, 0, 0, 0, 0, 0, 0, 0, 0, 0, 0,
              0, 0, 0, 0
            ],
            "split_type": [
              0, 0, 0, 0, 0, 0, 0, 0, 0, 0, 0, 0, 0, 0, 0, 0, 0, 0, 0, 0, 0, 0,
              0, 0, 0, 0, 0, 0, 0, 0, 0, 0, 0, 0, 0, 0, 0, 0, 0, 0, 0, 0, 0, 0,
              0, 0, 0
            ],
            "sum_hessian": [
              1.4198752e2, 3.952721e1, 1.0246031e2, 2.3604374, 3.7166775e1,
              3.3589954e1, 6.887035e1, 1.1997869, 1.1606505, 3.599058e1,
              1.1761937, 2.9402338e1, 4.1876187, 3.582881e1, 3.3041542e1,
              1.4682475e1, 1.4719862e1, 3.8744152, 3.1954395e1, 3.7770612,
              2.9264482e1, 6.3800354, 8.30244, 4.6108336, 1.0109028e1, 2.41022,
              1.4641953, 2.9853899e1, 2.1004958, 4.5864773, 2.4678005e1,
              4.6782136, 1.701822, 1.4762449, 6.826195, 1.7224438, 2.8883898,
              7.2060003, 2.9030278, 1.2018152, 1.2084047, 2.776881e1, 2.08509,
              2.1484952, 2.437982, 2.1271544e1, 3.4064627
            ],
            "tree_param": {
              "num_deleted": "0",
              "num_feature": "11",
              "num_nodes": "47",
              "size_leaf_vector": "1"
            }
          },
          {
            "base_weights": [
              -1.0215027e-2, -1.2232344, 4.516495e-1, -1.2588786, -5.6292754e-1,
              1.2691864e-1, 6.3455445e-1, -1.2767106e-1, -3.9170366e-2,
              -8.8954724e-2, 1.1375329e-2, 3.486771e-1, -1.1909286e-1,
              8.977848e-1, 4.34698e-1, 4.3193656e-1, -4.2709e-1, 1.0740585,
              9.5609486e-2, 2.1049513e-1, 8.162055e-1, 2.544304e-1, 9.655607e-1,
              -7.5091206e-2, 1.2956743e-2, 4.3743935e-1, 1.260657e-1,
              -1.2944405e-1, 9.674553e-2, 4.1502258e-1, -7.894932e-1,
              -6.82636e-3, 9.64064e-1, 5.0780695e-2, -4.578788e-2, 1.2901913e-1,
              -2.1560086e-2, -1.9442432e-2, 1.1063141e-1, -6.977782e-2,
              6.0101178e-2, -1.185702e-1, 1.13981925e-2, 1.3110504e-1,
              5.082479e-2
            ],
            "categories": [],
            "categories_nodes": [],
            "categories_segments": [],
            "categories_sizes": [],
            "default_left": [
              0, 0, 0, 0, 0, 0, 0, 0, 0, 0, 0, 0, 0, 0, 0, 0, 0, 0, 0, 0, 0, 0,
              0, 0, 0, 0, 0, 0, 0, 0, 0, 0, 0, 0, 0, 0, 0, 0, 0, 0, 0, 0, 0, 0,
              0
            ],
            "id": 6,
            "left_children": [
              1, 3, 5, 7, 9, 11, 13, -1, -1, -1, -1, 15, -1, 17, 19, 21, 23, 25,
              27, 29, 31, 33, 35, -1, -1, 37, -1, -1, -1, 39, 41, -1, 43, -1,
              -1, -1, -1, -1, -1, -1, -1, -1, -1, -1, -1
            ],
            "loss_changes": [
              7.8414696e1, 1.9969177e-1, 5.941126, 5.363083e-2, 9.3785095e-1,
              1.1456e1, 3.0084534, 0, 0, 0, 0, 2.3231268, 0, 3.7070942,
              3.1350994, 2.6337872, 7.6642203e-1, 2.0609226, 8.465158,
              5.5836368, 1.8918333, 4.5945873, 3.0505176, 0, 0, 2.9690504, 0, 0,
              0, 4.9706793, 1.8205068, 0, 1.2362204, 0, 0, 0, 0, 0, 0, 0, 0, 0,
              0, 0, 0
            ],
            "parents": [
              2147483647, 0, 0, 1, 1, 2, 2, 3, 3, 4, 4, 5, 5, 6, 6, 11, 11, 13,
              13, 14, 14, 15, 15, 16, 16, 17, 17, 18, 18, 19, 19, 20, 20, 21,
              21, 22, 22, 25, 25, 29, 29, 30, 30, 32, 32
            ],
            "right_children": [
              2, 4, 6, 8, 10, 12, 14, -1, -1, -1, -1, 16, -1, 18, 20, 22, 24,
              26, 28, 30, 32, 34, 36, -1, -1, 38, -1, -1, -1, 40, 42, -1, 44,
              -1, -1, -1, -1, -1, -1, -1, -1, -1, -1, -1, -1
            ],
            "split_conditions": [
              1, 4, 1, 4.983e3, 1.281666e2, 8.015744e-3, 1.2594983e2,
              -1.2767106e-1, -3.9170366e-2, -8.8954724e-2, 1.1375329e-2,
              3.8670425e3, -1.1909286e-1, 2.365e3, 2.275e3, 1.56e3, 1.7634825e2,
              1.0800924e-2, 2.33e3, 2.083e3, 3.323582e2, 2.582577e-3, 4.416e3,
              -7.5091206e-2, 1.2956743e-2, 1.398e3, 1.260657e-1, -1.2944405e-1,
              9.674553e-2, 1.3e2, 8.858274e-1, -6.82636e-3, 3.717e3,
              5.0780695e-2, -4.578788e-2, 1.2901913e-1, -2.1560086e-2,
              -1.9442432e-2, 1.1063141e-1, -6.977782e-2, 6.0101178e-2,
              -1.185702e-1, 1.13981925e-2, 1.3110504e-1, 5.082479e-2
            ],
            "split_indices": [
              9, 2, 1, 6, 7, 1, 7, 0, 0, 0, 0, 6, 0, 6, 6, 6, 7, 10, 5, 6, 8, 3,
              5, 0, 0, 6, 0, 0, 0, 7, 10, 0, 5, 0, 0, 0, 0, 0, 0, 0, 0, 0, 0, 0,
              0
            ],
            "split_type": [
              0, 0, 0, 0, 0, 0, 0, 0, 0, 0, 0, 0, 0, 0, 0, 0, 0, 0, 0, 0, 0, 0,
              0, 0, 0, 0, 0, 0, 0, 0, 0, 0, 0, 0, 0, 0, 0, 0, 0, 0, 0, 0, 0, 0,
              0
            ],
            "sum_hessian": [
              1.3797748e2, 3.759397e1, 1.00383514e2, 3.4808464e1, 2.7855046,
              3.677925e1, 6.3604267e1, 3.364436e1, 1.1641061, 1.6665307,
              1.118974, 3.211121e1, 4.6680393, 2.5942854e1, 3.766141e1,
              2.939915e1, 2.7120597, 2.0991215e1, 4.9516387, 2.4698462e1,
              1.2962951e1, 2.3168962e1, 6.2301884, 1.4939969, 1.218063,
              5.5161176, 1.5475098e1, 1.721773, 3.2298658, 2.0990294e1,
              3.7081685, 1.9337636, 1.1029187e1, 1.730166e1, 5.8673015,
              4.8146286, 1.4155601, 3.2012908, 2.3148267, 2.611799, 1.8378494e1,
              2.3605826, 1.3475859, 5.1968536, 5.8323336
            ],
            "tree_param": {
              "num_deleted": "0",
              "num_feature": "11",
              "num_nodes": "45",
              "size_leaf_vector": "1"
            }
          },
          {
            "base_weights": [
              -1.0323379e-2, -1.169676, 4.1681534e-1, -4.6932715e-1, -1.2020385,
              1.1424652e-1, 5.881579e-1, 3.58277e-3, -7.692843e-2,
              -1.2195622e-1, -3.7284985e-2, 3.1924114e-1, -1.1398355e-1,
              8.4186953e-1, 3.9883578e-1, 4.098964e-1, -3.5742205e-1, 1.0112675,
              8.256474e-2, 2.4229982e-1, 9.4255596e-1, 1.2777802e-1,
              6.467311e-1, 1.4393768e-2, -8.029382e-2, 5.721208e-1,
              1.2896425e-1, -1.2150712e-1, 9.1407925e-2, 4.0125854e-2,
              7.7859294e-1, 1.150213e-1, 2.473384e-2, 5.1470626e-2,
              -8.093329e-2, 2.5130857e-2, 1.1008026e-1, -1.8586135e-2,
              8.7821506e-2, 3.7623566e-2, -4.8961755e-2, -4.9113996e-2,
              1.0498233e-1
            ],
            "categories": [],
            "categories_nodes": [],
            "categories_segments": [],
            "categories_sizes": [],
            "default_left": [
              0, 0, 0, 0, 0, 0, 0, 0, 0, 0, 0, 0, 0, 0, 0, 0, 0, 0, 0, 0, 0, 0,
              0, 0, 0, 0, 0, 0, 0, 0, 0, 0, 0, 0, 0, 0, 0, 0, 0, 0, 0, 0, 0
            ],
            "id": 7,
            "left_children": [
              1, 3, 5, 7, 9, 11, 13, -1, -1, -1, -1, 15, -1, 17, 19, 21, 23, 25,
              27, 29, 31, 33, 35, -1, -1, 37, -1, -1, -1, 39, 41, -1, -1, -1,
              -1, -1, -1, -1, -1, -1, -1, -1, -1
            ],
            "loss_changes": [
              6.7393616e1, 2.6626205e-1, 5.089596, 5.2135026e-1, 4.483795e-2,
              9.928353, 2.703064, 0, 0, 0, 0, 2.156007, 0, 3.2781124, 3.0169535,
              1.8786583, 1.0993685, 1.8634682, 7.42931, 3.3247802, 8.9609194e-1,
              5.725857, 2.5443525, 0, 0, 2.4956396, 0, 0, 0, 4.374288,
              3.4152784, 0, 0, 0, 0, 0, 0, 0, 0, 0, 0, 0, 0
            ],
            "parents": [
              2147483647, 0, 0, 1, 1, 2, 2, 3, 3, 4, 4, 5, 5, 6, 6, 11, 11, 13,
              13, 14, 14, 15, 15, 16, 16, 17, 17, 18, 18, 19, 19, 20, 20, 21,
              21, 22, 22, 25, 25, 29, 29, 30, 30
            ],
            "right_children": [
              2, 4, 6, 8, 10, 12, 14, -1, -1, -1, -1, 16, -1, 18, 20, 22, 24,
              26, 28, 30, 32, 34, 36, -1, -1, 38, -1, -1, -1, 40, 42, -1, -1,
              -1, -1, -1, -1, -1, -1, -1, -1, -1, -1
            ],
            "split_conditions": [
              1, 1.849523e2, 1, 1.2196981, 4.983e3, 8.015744e-3, 1.2594983e2,
              3.58277e-3, -7.692843e-2, -1.2195622e-1, -3.7284985e-2, 1.88e2,
              -1.1398355e-1, 2.365e3, 3.033e3, 3.617e3, 8.624e3, 7.54e2, 2.33e3,
              6.5e3, 1.0250216, 3.34e3, 1.27e2, 1.4393768e-2, -8.029382e-2,
              1.0800924e-2, 1.2896425e-1, -1.2150712e-1, 9.1407925e-2,
              1.6198491e2, 1.76e2, 1.150213e-1, 2.473384e-2, 5.1470626e-2,
              -8.093329e-2, 2.5130857e-2, 1.1008026e-1, -1.8586135e-2,
              8.7821506e-2, 3.7623566e-2, -4.8961755e-2, -4.9113996e-2,
              1.0498233e-1
            ],
            "split_indices": [
              9, 8, 1, 10, 6, 1, 7, 0, 0, 0, 0, 7, 0, 6, 6, 5, 5, 6, 5, 5, 10,
              5, 7, 0, 0, 10, 0, 0, 0, 7, 7, 0, 0, 0, 0, 0, 0, 0, 0, 0, 0, 0, 0
            ],
            "split_type": [
              0, 0, 0, 0, 0, 0, 0, 0, 0, 0, 0, 0, 0, 0, 0, 0, 0, 0, 0, 0, 0, 0,
              0, 0, 0, 0, 0, 0, 0, 0, 0, 0, 0, 0, 0, 0, 0, 0, 0, 0, 0, 0, 0
            ],
            "sum_hessian": [
              1.34108e2, 3.5638508e1, 9.84695e1, 2.2587976, 3.337971e1,
              3.6204247e1, 6.2265247e1, 1.169616, 1.0891815, 3.2227837e1,
              1.1518764, 3.1758398e1, 4.4458494, 2.5134972e1, 3.7130276e1,
              2.8353947e1, 3.4044528, 2.0278975e1, 4.8559966, 2.995261e1,
              7.177664, 1.3642486e1, 1.471146e1, 1.920333, 1.4841199, 9.052901,
              1.1226074e1, 1.7163067, 3.13969, 2.253289e1, 7.4197206, 5.022893,
              2.1547709, 9.974725, 3.6677606, 8.693923, 6.0175376, 2.7171676,
              6.3357334, 1.3963287e1, 8.569602, 1.1632618, 6.2564588
            ],
            "tree_param": {
              "num_deleted": "0",
              "num_feature": "11",
              "num_nodes": "43",
              "size_leaf_vector": "1"
            }
          },
          {
            "base_weights": [
              -9.573516e-3, -1.1224575, 3.8599294e-1, -1.1601082, -4.7576076e-1,
              7.08069e-2, 5.388444e-1, -1.1782922e-1, -3.5502136e-2,
              -8.117786e-2, 1.5913209e-2, 2.7924478e-1, -1.2048544e-1,
              8.3176774e-1, 2.1155128e-1, 5.802747e-1, -3.3629674e-2,
              -1.698133e-1, 9.611632e-1, -1.296795e-1, 4.420568e-1,
              1.2059904e-2, 9.942886e-1, -7.690535e-1, 3.461229e-1,
              2.6982558e-1, -6.938764e-2, 1.119755, 7.20941e-1, -2.76728e-1,
              6.6089135e-1, -4.7369536e-2, 1.04045115e-1, 2.407924e-2,
              1.1113421e-1, 6.0893926e-3, -1.1619371e-1, 6.68564e-2,
              -2.4598654e-2, 4.420763e-2, -2.8812673e-3, 1.198928e-1,
              4.5666464e-2, -2.1920824e-2, 8.090466e-2, 3.815615e-2,
              -1.2683637e-1, 9.554725e-2, 4.1382268e-2
            ],
            "categories": [],
            "categories_nodes": [],
            "categories_segments": [],
            "categories_sizes": [],
            "default_left": [
              0, 0, 0, 0, 0, 0, 0, 0, 0, 0, 0, 0, 0, 0, 0, 0, 0, 0, 0, 0, 0, 0,
              0, 0, 0, 0, 0, 0, 0, 0, 0, 0, 0, 0, 0, 0, 0, 0, 0, 0, 0, 0, 0, 0,
              0, 0, 0, 0, 0
            ],
            "id": 8,
            "left_children": [
              1, 3, 5, 7, 9, 11, 13, -1, -1, -1, -1, 15, -1, 17, 19, 21, 23, 25,
              27, -1, 29, 31, 33, 35, 37, 39, -1, 41, 43, 45, 47, -1, -1, -1,
              -1, -1, -1, -1, -1, -1, -1, -1, -1, -1, -1, -1, -1, -1, -1
            ],
            "loss_changes": [
              5.821231e1, 2.9234314e-1, 4.6627483, 5.1193237e-2, 8.9779997e-1,
              9.115734, 6.1092606, 0, 0, 0, 0, 2.7689798, 0, 4.6026325,
              1.1804751e1, 3.5008736, 4.5279193, 1.285984, 3.5414696e-1, 0,
              4.707856, 4.142751, 4.9321747e-1, 1.8663728, 2.2174172,
              1.831796e-1, 0, 3.216133e-1, 1.4140916, 5.326957, 1.231163, 0, 0,
              0, 0, 0, 0, 0, 0, 0, 0, 0, 0, 0, 0, 0, 0, 0, 0
            ],
            "parents": [
              2147483647, 0, 0, 1, 1, 2, 2, 3, 3, 4, 4, 5, 5, 6, 6, 11, 11, 13,
              13, 14, 14, 15, 15, 16, 16, 17, 17, 18, 18, 20, 20, 21, 21, 22,
              22, 23, 23, 24, 24, 25, 25, 27, 27, 28, 28, 29, 29, 30, 30
            ],
            "right_children": [
              2, 4, 6, 8, 10, 12, 14, -1, -1, -1, -1, 16, -1, 18, 20, 22, 24,
              26, 28, -1, 30, 32, 34, 36, 38, 40, -1, 42, 44, 46, 48, -1, -1,
              -1, -1, -1, -1, -1, -1, -1, -1, -1, -1, -1, -1, -1, -1, -1, -1
            ],
            "split_conditions": [
              1, 4, 9.396924e-1, 4.983e3, 1.281666e2, 1.0800924e-2, 1.0250216,
              -1.1782922e-1, -3.5502136e-2, -8.117786e-2, 1.5913209e-2,
              4.167427e3, -1.2048544e-1, 2.7440298e2, 1.9984592, 1.597821e3,
              5.25e3, 1.1576754e2, 4.191e3, -1.296795e-1, 2.479e3, 3.617e3,
              1.928e3, 4.384e3, 8.624e3, 7.4e1, -6.938764e-2, 1.504514e2,
              4.35e3, 2.4262544e3, 3.704e3, -4.7369536e-2, 1.04045115e-1,
              2.407924e-2, 1.1113421e-1, 6.0893926e-3, -1.1619371e-1,
              6.68564e-2, -2.4598654e-2, 4.420763e-2, -2.8812673e-3,
              1.198928e-1, 4.5666464e-2, -2.1920824e-2, 8.090466e-2,
              3.815615e-2, -1.2683637e-1, 9.554725e-2, 4.1382268e-2
            ],
            "split_indices": [
              9, 2, 10, 6, 7, 10, 10, 0, 0, 0, 0, 5, 0, 8, 10, 6, 5, 7, 5, 0, 5,
              5, 5, 5, 5, 7, 0, 7, 5, 6, 5, 0, 0, 0, 0, 0, 0, 0, 0, 0, 0, 0, 0,
              0, 0, 0, 0, 0, 0
            ],
            "split_type": [
              0, 0, 0, 0, 0, 0, 0, 0, 0, 0, 0, 0, 0, 0, 0, 0, 0, 0, 0, 0, 0, 0,
              0, 0, 0, 0, 0, 0, 0, 0, 0, 0, 0, 0, 0, 0, 0, 0, 0, 0, 0, 0, 0, 0,
              0, 0, 0, 0, 0
            ],
            "sum_hessian": [
              1.3025053e2, 3.3674194e1, 9.657634e1, 3.1071321e1, 2.6028724,
              3.2017723e1, 6.455862e1, 2.9931713e1, 1.1396068, 1.5198712,
              1.0830011, 2.819231e1, 3.8254113, 3.325471e1, 3.1303911e1,
              1.393255e1, 1.4259761e1, 3.7689478, 2.9485762e1, 3.5364919,
              2.776742e1, 6.3064165, 7.626134, 4.5068026, 9.752958, 2.313375,
              1.455573, 1.5555124e1, 1.3930637e1, 6.4189973, 2.1348421e1,
              4.6495895, 1.6568274, 1.4364614, 6.189672, 1.719484, 2.7873185,
              6.2307806, 3.5221772, 1.1625336, 1.1508412, 1.3174054e1,
              2.3810706, 1.0661418, 1.2864495e1, 4.2276955, 2.191302, 8.430025,
              1.2918396e1
            ],
            "tree_param": {
              "num_deleted": "0",
              "num_feature": "11",
              "num_nodes": "49",
              "size_leaf_vector": "1"
            }
          },
          {
            "base_weights": [
              -1.00149e-2, -1.0792983, 3.5769945e-1, -3.9181682e-1, -1.1147733,
              4.6954352e-1, -3.7554346e-2, 9.890489e-3, -7.133978e-2,
              -1.13300085e-1, -3.3814486e-2, -2.534521e-1, 5.4535043e-1,
              -1.324062e-1, 3.4771633e-1, 3.3536944e-1, -7.109008e-1,
              9.6692693e-1, 3.8553926e-1, -7.7026606e-2, 1.0803103e-1,
              7.1241125e-2, -3.420024e-2, -1.1993138e-1, 2.6507923e-2,
              2.6958108e-1, 1.2361526e-1, 6.001877e-1, -8.021518e-2,
              7.838163e-2, -7.435189e-2, -3.506594e-2, 5.1461816e-2,
              -1.0058432e-2, 6.702366e-2, -7.201952e-2, 6.2257e-2, -2.109134e-2,
              9.7799845e-2
            ],
            "categories": [],
            "categories_nodes": [],
            "categories_segments": [],
            "categories_sizes": [],
            "default_left": [
              0, 0, 0, 0, 0, 0, 0, 0, 0, 0, 0, 0, 0, 0, 0, 0, 0, 0, 0, 0, 0, 0,
              0, 0, 0, 0, 0, 0, 0, 0, 0, 0, 0, 0, 0, 0, 0, 0, 0
            ],
            "id": 9,
            "left_children": [
              1, 3, 5, 7, 9, 11, 13, -1, -1, -1, -1, 15, 17, -1, 19, 21, 23, 25,
              27, 29, -1, -1, -1, -1, -1, 31, -1, 33, 35, 37, -1, -1, -1, -1,
              -1, -1, -1, -1, -1
            ],
            "loss_changes": [
              5.0341682e1, 3.6218262e-1, 4.2301636, 5.6756955e-1, 5.0209045e-2,
              4.21311, 1.1336613e1, 0, 0, 0, 0, 2.322801, 4.182274, 0, 5.584049,
              1.2812858, 2.5466733, 3.0313797, 5.115652, 1.314039, 0, 0, 0, 0,
              0, 1.1334841, 0, 1.776454, 8.037292, 3.0003662, 0, 0, 0, 0, 0, 0,
              0, 0, 0
            ],
            "parents": [
              2147483647, 0, 0, 1, 1, 2, 2, 3, 3, 4, 4, 5, 5, 6, 6, 11, 11, 12,
              12, 14, 14, 15, 15, 16, 16, 17, 17, 18, 18, 19, 19, 25, 25, 27,
              27, 28, 28, 29, 29
            ],
            "right_children": [
              2, 4, 6, 8, 10, 12, 14, -1, -1, -1, -1, 16, 18, -1, 20, 22, 24,
              26, 28, 30, -1, -1, -1, -1, -1, 32, -1, 34, 36, 38, -1, -1, -1,
              -1, -1, -1, -1, -1, -1
            ],
            "split_conditions": [
              1, 1.849523e2, 2.582577e-3, 2.582577e-3, 4.983e3, 2.137e3,
              9.8730487e-1, 9.890489e-3, -7.133978e-2, -1.13300085e-1,
              -3.3814486e-2, 2.2355474e3, 3.34e3, -1.324062e-1, 1.597821e3,
              1.0047288e2, 1.15e2, 1.612e1, 2.064e3, 1.6e2, 1.0803103e-1,
              7.1241125e-2, -3.420024e-2, -1.1993138e-1, 2.6507923e-2, 2.647e3,
              1.2361526e-1, 3.5598962e3, 3.033e3, 1.3e2, -7.435189e-2,
              -3.506594e-2, 5.1461816e-2, -1.0058432e-2, 6.702366e-2,
              -7.201952e-2, 6.2257e-2, -2.109134e-2, 9.7799845e-2
            ],
            "split_indices": [
              9, 8, 3, 3, 6, 5, 3, 0, 0, 0, 0, 6, 5, 0, 6, 7, 7, 6, 6, 7, 0, 0,
              0, 0, 0, 5, 0, 5, 6, 7, 0, 0, 0, 0, 0, 0, 0, 0, 0
            ],
            "split_type": [
              0, 0, 0, 0, 0, 0, 0, 0, 0, 0, 0, 0, 0, 0, 0, 0, 0, 0, 0, 0, 0, 0,
              0, 0, 0, 0, 0, 0, 0, 0, 0, 0, 0, 0, 0, 0, 0, 0, 0
            ],
            "sum_hessian": [
              1.26051834e2, 3.1760305e1, 9.429153e1, 2.1494918, 2.9610813e1,
              7.334836e1, 2.0943172e1, 1.1250876, 1.0244043, 2.848343e1,
              1.1273818, 6.7384186, 6.660994e1, 4.2649193, 1.6678253e1,
              3.0628417, 3.6755767, 1.6921402e1, 4.9688534e1, 1.1123775e1,
              5.5544796, 1.9343863, 1.1284554, 2.2971673, 1.3784094, 5.2706714,
              1.1650731e1, 3.3815586e1, 1.5872949e1, 9.735996, 1.3877779,
              1.3705282, 3.900143, 3.0334013, 3.0782185e1, 8.294722, 7.5782275,
              7.9462323, 1.7897643
            ],
            "tree_param": {
              "num_deleted": "0",
              "num_feature": "11",
              "num_nodes": "39",
              "size_leaf_vector": "1"
            }
          },
          {
            "base_weights": [
              -1.0380486e-2, -1.0401397, 3.3017743e-1, -1.0807258,
              -3.9927304e-1, 5.704153e-2, 4.8693022e-1, -5.6630194e-1,
              -1.1302891e-1, -7.457384e-2, 1.9740904e-2, 2.2587092e-1,
              -1.0402936e-1, 7.368249e-1, 3.078196e-1, -8.116733e-2, -8.0306e-3,
              3.0412868e-1, -4.498024e-1, 8.8980454e-1, 5.994284e-2,
              1.0219884e-1, 6.697152e-1, 3.6973295e-1, -6.492706e-2,
              -7.310101e-2, 7.459476e-3, 3.1877327e-1, 1.073417, -1.0321277e-1,
              7.8788024e-1, 2.6863745e-1, -7.857709e-1, -1.0505668e-2,
              8.102602e-1, 4.5959625e-2, -6.326642e-2, -1.962703e-2,
              9.288225e-2, 1.11905254e-1, 3.1973094e-2, 2.2155417e-2,
              9.130999e-2, -7.114017e-2, 4.422393e-2, -1.009988e-1,
              -8.835773e-3, 1.1460256e-1, 4.021519e-2
            ],
            "categories": [],
            "categories_nodes": [],
            "categories_segments": [],
            "categories_sizes": [],
            "default_left": [
              0, 0, 0, 0, 0, 0, 0, 0, 0, 0, 0, 0, 0, 0, 0, 0, 0, 0, 0, 0, 0, 0,
              0, 0, 0, 0, 0, 0, 0, 0, 0, 0, 0, 0, 0, 0, 0, 0, 0, 0, 0, 0, 0, 0,
              0, 0, 0, 0, 0
            ],
            "id": 10,
            "left_children": [
              1, 3, 5, 7, 9, 11, 13, 15, -1, -1, -1, 17, -1, 19, 21, -1, -1, 23,
              25, 27, 29, 31, 33, 35, -1, -1, -1, 37, 39, -1, 41, 43, 45, -1,
              47, -1, -1, -1, -1, -1, -1, -1, -1, -1, -1, -1, -1, -1, -1
            ],
            "loss_changes": [
              4.3599937e1, 3.7209702e-1, 3.9732876, 8.578873e-2, 8.55471e-1,
              6.7577033, 2.4248095, 4.7215652e-1, 0, 0, 0, 1.7936913, 0,
              2.433529, 2.6272562, 0, 0, 2.0338507, 5.9365344e-1, 1.704133,
              5.185055, 3.7996123, 1.4947338, 2.7652218, 0, 0, 0, 2.1212578,
              1.3562584e-1, 0, 7.192683e-2, 3.920371, 5.4993176e-1, 0,
              1.0563459, 0, 0, 0, 0, 0, 0, 0, 0, 0, 0, 0, 0, 0, 0
            ],
            "parents": [
              2147483647, 0, 0, 1, 1, 2, 2, 3, 3, 4, 4, 5, 5, 6, 6, 7, 7, 11,
              11, 13, 13, 14, 14, 17, 17, 18, 18, 19, 19, 20, 20, 21, 21, 22,
              22, 23, 23, 27, 27, 28, 28, 30, 30, 31, 31, 32, 32, 34, 34
            ],
            "right_children": [
              2, 4, 6, 8, 10, 12, 14, 16, -1, -1, -1, 18, -1, 20, 22, -1, -1,
              24, 26, 28, 30, 32, 34, 36, -1, -1, -1, 38, 40, -1, 42, 44, 46,
              -1, 48, -1, -1, -1, -1, -1, -1, -1, -1, -1, -1, -1, -1, -1, -1
            ],
            "split_conditions": [
              1, 4, 1, 2.492e3, 1.281666e2, 8.015744e-3, 1.2594983e2, 1.881e3,
              -1.1302891e-1, -7.457384e-2, 1.9740904e-2, 3.8670425e3,
              -1.0402936e-1, 2.365e3, 2.275e3, -8.116733e-2, -8.0306e-3,
              3.6641882e2, 1.7634825e2, 1.0800924e-2, 2.33e3, 2.087e3,
              3.323582e2, 9.323e3, -6.492706e-2, -7.310101e-2, 7.459476e-3,
              1.398e3, 8.015744e-3, -1.0321277e-1, 3.0444795e3, 1.3e2,
              8.858274e-1, -1.0505668e-2, 3.717e3, 4.5959625e-2, -6.326642e-2,
              -1.962703e-2, 9.288225e-2, 1.11905254e-1, 3.1973094e-2,
              2.2155417e-2, 9.130999e-2, -7.114017e-2, 4.422393e-2,
              -1.009988e-1, -8.835773e-3, 1.1460256e-1, 4.021519e-2
            ],
            "split_indices": [
              9, 2, 1, 5, 7, 1, 7, 6, 0, 0, 0, 6, 0, 6, 6, 0, 0, 8, 7, 10, 5, 6,
              8, 5, 0, 0, 0, 6, 4, 0, 6, 7, 10, 0, 5, 0, 0, 0, 0, 0, 0, 0, 0, 0,
              0, 0, 0, 0, 0
            ],
            "split_type": [
              0, 0, 0, 0, 0, 0, 0, 0, 0, 0, 0, 0, 0, 0, 0, 0, 0, 0, 0, 0, 0, 0,
              0, 0, 0, 0, 0, 0, 0, 0, 0, 0, 0, 0, 0, 0, 0, 0, 0, 0, 0, 0, 0, 0,
              0, 0, 0, 0, 0
            ],
            "sum_hessian": [
              1.22345924e2, 2.9895483e1, 9.245044e1, 2.7469484e1, 2.425999,
              3.4208065e1, 5.824238e1, 3.506004, 2.396348e1, 1.3767666,
              1.0492324, 3.0335058e1, 3.8730056, 2.30163e1, 3.5226078e1,
              1.8844519, 1.6215522, 2.76791e1, 2.655957, 1.8516819e1, 4.4994817,
              2.328084e1, 1.1945238e1, 2.646988e1, 1.2092222, 1.4723885,
              1.1835684, 5.171055, 1.3345764e1, 1.6324931, 2.8669882,
              2.0193327e1, 3.0875118, 1.8729374, 1.0072301e1, 2.478908e1,
              1.6807984, 3.171629, 1.9994256, 1.212672e1, 1.219043, 1.0205789,
              1.8464093, 2.5725503, 1.7620777e1, 1.9972181, 1.0902936, 4.533932,
              5.538368
            ],
            "tree_param": {
              "num_deleted": "0",
              "num_feature": "11",
              "num_nodes": "49",
              "size_leaf_vector": "1"
            }
          },
          {
            "base_weights": [
              -1.2244817e-2, -1.0040405, 3.0386358e-1, -3.2916218e-2,
              -1.0428113, 4.0949777e-1, -6.816942e-2, -1.0631794e-1,
              -2.8938888e-2, -2.570645e-1, 4.7998393e-1, -1.2594934e-1,
              2.8491446e-1, 2.6763892e-1, -6.5843034e-1, 8.82466e-1,
              3.3294344e-1, -1.0625824e-1, 1.00057, 6.4166285e-2, -3.5973366e-2,
              -1.09146014e-1, 2.1071797e-2, 2.1781284e-1, 1.1571852e-1,
              5.259331e-1, -7.9141594e-2, 5.8314405e-2, -6.8580195e-2,
              1.08729474e-1, 2.9521255e-2, -3.575651e-2, 4.575917e-2,
              -1.1955042e-2, 5.9321977e-2, -6.498194e-2, 5.6122582e-2,
              -3.4721974e-2, 3.5738736e-2
            ],
            "categories": [],
            "categories_nodes": [],
            "categories_segments": [],
            "categories_sizes": [],
            "default_left": [
              0, 0, 0, 0, 0, 0, 0, 0, 0, 0, 0, 0, 0, 0, 0, 0, 0, 0, 0, 0, 0, 0,
              0, 0, 0, 0, 0, 0, 0, 0, 0, 0, 0, 0, 0, 0, 0, 0, 0
            ],
            "id": 11,
            "left_children": [
              1, 3, 5, -1, 7, 9, 11, -1, -1, 13, 15, -1, 17, 19, 21, 23, 25, 27,
              29, -1, -1, -1, -1, 31, -1, 33, 35, 37, -1, -1, -1, -1, -1, -1,
              -1, -1, -1, -1, -1
            ],
            "loss_changes": [
              3.7825775e1, 4.1965866e-1, 3.6246061, 0, 1.0838318e-1, 3.4791098,
              9.232872, 0, 0, 1.751848, 3.5495272, 0, 4.8903003, 1.1585524,
              1.9342037, 2.8102512, 3.9520802, 1.1800766, 5.434084e-2, 0, 0, 0,
              0, 1.0102454, 0, 1.5310516, 6.4136233, 1.3649992, 0, 0, 0, 0, 0,
              0, 0, 0, 0, 0, 0
            ],
            "parents": [
              2147483647, 0, 0, 1, 1, 2, 2, 4, 4, 5, 5, 6, 6, 9, 9, 10, 10, 12,
              12, 13, 13, 14, 14, 15, 15, 16, 16, 17, 17, 18, 18, 23, 23, 25,
              25, 26, 26, 27, 27
            ],
            "right_children": [
              2, 4, 6, -1, 8, 10, 12, -1, -1, 14, 16, -1, 18, 20, 22, 24, 26,
              28, 30, -1, -1, -1, -1, 32, -1, 34, 36, 38, -1, -1, -1, -1, -1,
              -1, -1, -1, -1, -1, -1
            ],
            "split_conditions": [
              1, 1.849523e2, 2.582577e-3, -3.2916218e-2, 4.983e3, 2.137e3,
              9.8730487e-1, -1.0631794e-1, -2.8938888e-2, 2.2355474e3, 3.34e3,
              -1.2594934e-1, 1.597821e3, 1.0047288e2, 1.15e2, 1.612e1, 2.064e3,
              8.015744e-3, 2.667e3, 6.4166285e-2, -3.5973366e-2, -1.09146014e-1,
              2.1071797e-2, 2.647e3, 1.1571852e-1, 3.5598962e3, 3.033e3,
              1.0800924e-2, -6.8580195e-2, 1.08729474e-1, 2.9521255e-2,
              -3.575651e-2, 4.575917e-2, -1.1955042e-2, 5.9321977e-2,
              -6.498194e-2, 5.6122582e-2, -3.4721974e-2, 3.5738736e-2
            ],
            "split_indices": [
              9, 8, 3, 0, 6, 5, 3, 0, 0, 6, 5, 0, 6, 7, 7, 6, 6, 4, 6, 0, 0, 0,
              0, 5, 0, 5, 6, 10, 0, 0, 0, 0, 0, 0, 0, 0, 0, 0, 0
            ],
            "split_type": [
              0, 0, 0, 0, 0, 0, 0, 0, 0, 0, 0, 0, 0, 0, 0, 0, 0, 0, 0, 0, 0, 0,
              0, 0, 0, 0, 0, 0, 0, 0, 0, 0, 0, 0, 0, 0, 0, 0, 0
            ],
            "sum_hessian": [
              1.1867749e2, 2.8157276e1, 9.052021e1, 2.045278, 2.6112e1,
              7.042359e1, 2.0096619e1, 2.5024355e1, 1.0876441, 6.481677,
              6.3941917e1, 4.0076094, 1.6089008e1, 2.9536138, 3.5280633,
              1.5771191e1, 4.8170727e1, 1.0953448e1, 5.1355605, 1.8361617,
              1.1174519, 2.184109, 1.3439544, 5.1366, 1.0634591e1, 3.261843e1,
              1.5552294e1, 9.231394, 1.7220545, 4.0910773, 1.0444833, 1.3664389,
              3.7701612, 3.0059106, 2.961252e1, 8.21582, 7.336473, 3.849966,
              5.381428
            ],
            "tree_param": {
              "num_deleted": "0",
              "num_feature": "11",
              "num_nodes": "39",
              "size_leaf_vector": "1"
            }
          },
          {
            "base_weights": [
              -1.2645701e-2, -9.691257e-1, 2.8032574e-1, -1.0135694,
              -3.2906538e-1, 2.6973827e-2, 4.2792052e-1, -4.9491253e-1,
              -1.0670636e-1, -6.90039e-2, 2.3575302e-2, 1.7689538e-1,
              -9.900852e-2, 6.7792714e-1, 2.5501627e-1, -1.5338182e-3,
              -7.75255e-2, 3.0259496e-1, -2.6292998e-1, 8.171328e-1,
              6.398337e-2, 1.4663148e-1, 9.400625e-2, 3.994703e-1,
              -4.9054414e-2, 1.5763602e-1, -8.765387e-2, 4.166649e-1,
              1.1009591e-1, -9.335177e-2, 7.301499e-1, -1.6401129e-2,
              6.3486516e-1, 6.234643e-2, -4.626152e-3, -4.669e-2, 7.200499e-2,
              -1.8504797e-2, 6.9476835e-2, 2.1140797e-2, 8.451331e-2,
              1.4737958e-2, -8.375215e-2, -5.3707667e-2, 9.110501e-2
            ],
            "categories": [],
            "categories_nodes": [],
            "categories_segments": [],
            "categories_sizes": [],
            "default_left": [
              0, 0, 0, 0, 0, 0, 0, 0, 0, 0, 0, 0, 0, 0, 0, 0, 0, 0, 0, 0, 0, 0,
              0, 0, 0, 0, 0, 0, 0, 0, 0, 0, 0, 0, 0, 0, 0, 0, 0, 0, 0, 0, 0, 0,
              0
            ],
            "id": 12,
            "left_children": [
              1, 3, 5, 7, 9, 11, 13, 15, -1, -1, -1, 17, -1, 19, 21, -1, -1, 23,
              25, 27, 29, 31, -1, 33, -1, 35, -1, 37, -1, -1, 39, 41, 43, -1,
              -1, -1, -1, -1, -1, -1, -1, -1, -1, -1, -1
            ],
            "loss_changes": [
              3.2811783e1, 4.4741058e-1, 3.341527, 1.7078781e-1, 8.2799554e-1,
              5.371053, 2.273511, 5.554874e-1, 0, 0, 0, 1.7683723, 0, 1.8736553,
              2.4652252, 0, 0, 2.0570815, 2.0284193, 1.6195879, 4.1703267,
              2.5141277, 0, 2.2390082, 0, 2.1604233, 0, 1.6668994, 0, 0,
              4.2560577e-2, 3.4257143, 3.0460732, 0, 0, 0, 0, 0, 0, 0, 0, 0, 0,
              0, 0
            ],
            "parents": [
              2147483647, 0, 0, 1, 1, 2, 2, 3, 3, 4, 4, 5, 5, 6, 6, 7, 7, 11,
              11, 13, 13, 14, 14, 17, 17, 18, 18, 19, 19, 20, 20, 21, 21, 23,
              23, 25, 25, 27, 27, 30, 30, 31, 31, 32, 32
            ],
            "right_children": [
              2, 4, 6, 8, 10, 12, 14, 16, -1, -1, -1, 18, -1, 20, 22, -1, -1,
              24, 26, 28, 30, 32, -1, 34, -1, 36, -1, 38, -1, -1, 40, 42, 44,
              -1, -1, -1, -1, -1, -1, -1, -1, -1, -1, -1, -1
            ],
            "split_conditions": [
              1, 4, 1, 2.492e3, 1.281666e2, 8.015744e-3, 1.2594983e2,
              1.5407418e-3, -1.0670636e-1, -6.90039e-2, 2.3575302e-2,
              2.1601848e-2, -9.900852e-2, 2.365e3, 3.806e3, -1.5338182e-3,
              -7.75255e-2, 7.248074e3, 1.5270395e2, 7.54e2, 2.33e3, 6.5e3,
              9.400625e-2, 1.0250216, -4.9054414e-2, 1.0621846e2, -8.765387e-2,
              1.0800924e-2, 1.1009591e-1, -9.335177e-2, 3.0444795e3,
              1.9621504e2, 1.6712544e2, 6.234643e-2, -4.626152e-3, -4.669e-2,
              7.200499e-2, -1.8504797e-2, 6.9476835e-2, 2.1140797e-2,
              8.451331e-2, 1.4737958e-2, -8.375215e-2, -5.3707667e-2,
              9.110501e-2
            ],
            "split_indices": [
              9, 2, 1, 5, 7, 1, 7, 9, 0, 0, 0, 2, 0, 6, 6, 0, 0, 5, 7, 6, 5, 5,
              0, 10, 0, 7, 0, 10, 0, 0, 6, 7, 7, 0, 0, 0, 0, 0, 0, 0, 0, 0, 0,
              0, 0
            ],
            "split_type": [
              0, 0, 0, 0, 0, 0, 0, 0, 0, 0, 0, 0, 0, 0, 0, 0, 0, 0, 0, 0, 0, 0,
              0, 0, 0, 0, 0, 0, 0, 0, 0, 0, 0, 0, 0, 0, 0, 0, 0, 0, 0, 0, 0, 0,
              0
            ],
            "sum_hessian": [
              1.1512291e2, 2.6452864e1, 8.8670044e1, 2.4189661e1, 2.2632027,
              3.307623e1, 5.5593815e1, 3.2201514, 2.096951e1, 1.2455041,
              1.0176985, 2.9546886e1, 3.5293443, 2.1534994e1, 3.405882e1,
              1.5770485, 1.643103, 2.3222141e1, 6.324745, 1.7284868e1,
              4.2501273, 3.0454498e1, 3.6043212, 2.1136799e1, 2.0853417,
              4.193577, 2.131168, 8.192955, 9.091912, 1.5411383, 2.7089891,
              2.3555256e1, 6.8992424, 1.3802084e1, 7.334716, 2.0675175,
              2.1260595, 2.6954992, 5.497456, 1.0065548, 1.7024343, 2.0322287e1,
              3.2329702, 1.135657, 5.763585
            ],
            "tree_param": {
              "num_deleted": "0",
              "num_feature": "11",
              "num_nodes": "45",
              "size_leaf_vector": "1"
            }
          },
          {
            "base_weights": [
              -1.3269485e-2, -9.369211e-1, 2.5880572e-1, -2.67436e-2,
              -9.8010397e-1, 3.5849953e-1, -9.175491e-2, -1.0033466e-1,
              -2.3966586e-2, -2.603598e-1, 4.243658e-1, -1.2012734e-1,
              2.3304124e-1, 2.1416712e-1, -6.17291e-1, 8.0169016e-1,
              2.787224e-1, -1.3023865e-1, 9.372947e-1, 5.8269005e-2,
              -3.6845498e-2, -1.0182201e-1, 1.8033156e-2, 2.4100569e-1,
              1.0360451, 1.1983124e-1, 7.2077966e-1, -5.630116e-1, 7.6153025e-2,
              1.0256497e-1, 2.6584161e-2, -3.4454487e-2, 4.760561e-2,
              1.0902381e-1, 2.9929979e-2, -2.6449567e-2, 3.4681324e-2,
              1.1034502e-1, 4.2421665e-2, 4.309753e-3, -1.10842906e-1,
              3.200553e-2, -7.153123e-2
            ],
            "categories": [],
            "categories_nodes": [],
            "categories_segments": [],
            "categories_sizes": [],
            "default_left": [
              0, 0, 0, 0, 0, 0, 0, 0, 0, 0, 0, 0, 0, 0, 0, 0, 0, 0, 0, 0, 0, 0,
              0, 0, 0, 0, 0, 0, 0, 0, 0, 0, 0, 0, 0, 0, 0, 0, 0, 0, 0, 0, 0
            ],
            "id": 13,
            "left_children": [
              1, 3, 5, -1, 7, 9, 11, -1, -1, 13, 15, -1, 17, 19, 21, 23, 25, 27,
              29, -1, -1, -1, -1, 31, 33, 35, 37, 39, 41, -1, -1, -1, -1, -1,
              -1, -1, -1, -1, -1, -1, -1, -1, -1
            ],
            "loss_changes": [
              2.859858e1, 4.8640633e-1, 3.1064687, 0, 1.7165756e-1, 2.9098759,
              7.584143, 0, 0, 1.3560965, 3.2085056, 0, 4.3476663, 1.0401297,
              1.584803, 1.9655819, 3.1861584, 1.0945327, 6.802273e-2, 0, 0, 0,
              0, 1.0273622, 1.3629436e-1, 3.1861382, 9.072776e-1, 1.344002,
              1.9379042, 0, 0, 0, 0, 0, 0, 0, 0, 0, 0, 0, 0, 0, 0
            ],
            "parents": [
              2147483647, 0, 0, 1, 1, 2, 2, 4, 4, 5, 5, 6, 6, 9, 9, 10, 10, 12,
              12, 13, 13, 14, 14, 15, 15, 16, 16, 17, 17, 18, 18, 23, 23, 24,
              24, 25, 25, 26, 26, 27, 27, 28, 28
            ],
            "right_children": [
              2, 4, 6, -1, 8, 10, 12, -1, -1, 14, 16, -1, 18, 20, 22, 24, 26,
              28, 30, -1, -1, -1, -1, 32, 34, 36, 38, 40, 42, -1, -1, -1, -1,
              -1, -1, -1, -1, -1, -1, -1, -1, -1, -1
            ],
            "split_conditions": [
              1, 1.849523e2, 2.582577e-3, -2.67436e-2, 4.983e3, 2.137e3,
              9.8730487e-1, -1.0033466e-1, -2.3966586e-2, 2.2355474e3, 3.418e3,
              -1.2012734e-1, 1.597821e3, 1.0047288e2, 1.15e2, 1.612e1,
              1.7336739, 8.8745445e1, 2.667e3, 5.8269005e-2, -3.6845498e-2,
              -1.0182201e-1, 1.8033156e-2, 2.647e3, 3.3166584e3, 8.858274e-1,
              1.31e2, 7.4539604e1, 1.6e2, 1.0256497e-1, 2.6584161e-2,
              -3.4454487e-2, 4.760561e-2, 1.0902381e-1, 2.9929979e-2,
              -2.6449567e-2, 3.4681324e-2, 1.1034502e-1, 4.2421665e-2,
              4.309753e-3, -1.10842906e-1, 3.200553e-2, -7.153123e-2
            ],
            "split_indices": [
              9, 8, 3, 0, 6, 5, 3, 0, 0, 6, 5, 0, 6, 7, 7, 6, 2, 7, 6, 0, 0, 0,
              0, 5, 5, 10, 7, 7, 7, 0, 0, 0, 0, 0, 0, 0, 0, 0, 0, 0, 0, 0, 0
            ],
            "split_type": [
              0, 0, 0, 0, 0, 0, 0, 0, 0, 0, 0, 0, 0, 0, 0, 0, 0, 0, 0, 0, 0, 0,
              0, 0, 0, 0, 0, 0, 0, 0, 0, 0, 0, 0, 0, 0, 0, 0, 0, 0, 0, 0, 0
            ],
            "sum_hessian": [
              1.1183643e2, 2.48912e1, 8.694524e1, 1.9440922, 2.2947107e1,
              6.767648e1, 1.9268751e1, 2.1904448e1, 1.0426582, 6.2260036,
              6.145048e1, 3.7522721, 1.55164795e1, 2.8444233, 3.3815804,
              1.5859122e1, 4.559136e1, 1.0773948e1, 4.7425313, 1.7422746,
              1.1021487, 2.06635, 1.3152304, 5.2727246, 1.0586397e1,
              3.4471973e1, 1.1119383e1, 2.9210525, 7.8528957, 3.7248757,
              1.0176554, 1.3768709, 3.8958538, 9.414117, 1.1722811, 1.2738247e1,
              2.1733728e1, 3.666943, 7.45244, 1.8197697, 1.1012828, 6.45829,
              1.3946054
            ],
            "tree_param": {
              "num_deleted": "0",
              "num_feature": "11",
              "num_nodes": "43",
              "size_leaf_vector": "1"
            }
          },
          {
            "base_weights": [
              -1.2875768e-2, -9.050528e-1, 2.3935091e-1, -6.332208e-1,
              -1.0881523e-1, 3.3303213e-1, -9.118825e-2, -9.0713185e-1,
              -1.4001077e-1, -2.4727817e-1, 3.9488804e-1, -1.1493584e-1,
              2.1287178e-1, -1.0040561e-1, -1.3249844e-2, 5.1597375e-2,
              -6.316539e-1, 2.005822e-1, -5.8608335e-1, 6.762905e-1,
              2.1326388e-1, -1.3002369e-1, 9.022781e-1, -1.4954649e-2,
              -7.657143e-2, 5.541451e-2, -3.4868833e-2, -9.746206e-2,
              1.7039811e-2, 8.331583e-1, 3.0671972e-1, -6.993289e-1,
              2.9262307e-1, -5.35264e-1, 6.4541824e-2, 9.908482e-2,
              2.5371918e-2, 2.4717059e-2, 1.0759848e-1, -6.60974e-2,
              7.2312616e-2, -1.3714151e-1, 1.8506505e-2, 2.1226717e-2,
              1.0301343e-1, 1.4320801e-2, -9.4566345e-2, 2.9480342e-2,
              -6.672964e-2
            ],
            "categories": [],
            "categories_nodes": [],
            "categories_segments": [],
            "categories_sizes": [],
            "default_left": [
              0, 0, 0, 0, 0, 0, 0, 0, 0, 0, 0, 0, 0, 0, 0, 0, 0, 0, 0, 0, 0, 0,
              0, 0, 0, 0, 0, 0, 0, 0, 0, 0, 0, 0, 0, 0, 0, 0, 0, 0, 0, 0, 0, 0,
              0, 0, 0, 0, 0
            ],
            "id": 14,
            "left_children": [
              1, 3, 5, 7, -1, 9, 11, 13, 15, 17, 19, -1, 21, -1, -1, -1, 23, 25,
              27, 29, 31, 33, 35, -1, -1, -1, -1, -1, -1, 37, 39, 41, 43, 45,
              47, -1, -1, -1, -1, -1, -1, -1, -1, -1, -1, -1, -1, -1, -1
            ],
            "loss_changes": [
              2.4887957e1, 5.2405167e-1, 2.7015152, 1.5213475, 0, 2.5180178,
              6.6263723, 4.4224787e-1, 2.112362, 1.196389, 2.9897108, 0,
              3.9589734, 0, 0, 0, 1.1918485e-1, 9.325753e-1, 1.4307355,
              1.1121559, 3.0093095, 9.5917535e-1, 6.591654e-2, 0, 0, 0, 0, 0, 0,
              2.0077887, 3.9483979, 2.2706993, 1.9345648, 1.2245998, 1.6822441,
              0, 0, 0, 0, 0, 0, 0, 0, 0, 0, 0, 0, 0, 0
            ],
            "parents": [
              2147483647, 0, 0, 1, 1, 2, 2, 3, 3, 5, 5, 6, 6, 7, 7, 8, 8, 9, 9,
              10, 10, 12, 12, 16, 16, 17, 17, 18, 18, 19, 19, 20, 20, 21, 21,
              22, 22, 29, 29, 30, 30, 31, 31, 32, 32, 33, 33, 34, 34
            ],
            "right_children": [
              2, 4, 6, 8, -1, 10, 12, 14, 16, 18, 20, -1, 22, -1, -1, -1, 24,
              26, 28, 30, 32, 34, 36, -1, -1, -1, -1, -1, -1, 38, 40, 42, 44,
              46, 48, -1, -1, -1, -1, -1, -1, -1, -1, -1, -1, -1, -1, -1, -1
            ],
            "split_conditions": [
              1, 1.5407418e-3, 2.582577e-3, 1.3e2, -1.0881523e-1, 2.137e3,
              9.8730487e-1, 1.6678982e3, 1.8163384e3, 2.2355474e3, 1.2594983e2,
              -1.1493584e-1, 1.597821e3, -1.0040561e-1, -1.3249844e-2,
              5.1597375e-2, 3.155e3, 1.0047288e2, 1.15e2, 4.2078496e3, 1.28e2,
              8.8745445e1, 2.667e3, -1.4954649e-2, -7.657143e-2, 5.541451e-2,
              -3.4868833e-2, -9.746206e-2, 1.7039811e-2, 7.591103e1,
              8.015744e-3, 1.6293601e3, 4.983e3, 3.18e3, 1.6e2, 9.908482e-2,
              2.5371918e-2, 2.4717059e-2, 1.0759848e-1, -6.60974e-2,
              7.2312616e-2, -1.3714151e-1, 1.8506505e-2, 2.1226717e-2,
              1.0301343e-1, 1.4320801e-2, -9.4566345e-2, 2.9480342e-2,
              -6.672964e-2
            ],
            "split_indices": [
              9, 9, 3, 7, 0, 5, 3, 6, 6, 6, 7, 0, 6, 0, 0, 0, 5, 7, 7, 5, 7, 7,
              6, 0, 0, 0, 0, 0, 0, 7, 0, 6, 6, 5, 7, 0, 0, 0, 0, 0, 0, 0, 0, 0,
              0, 0, 0, 0, 0
            ],
            "split_type": [
              0, 0, 0, 0, 0, 0, 0, 0, 0, 0, 0, 0, 0, 0, 0, 0, 0, 0, 0, 0, 0, 0,
              0, 0, 0, 0, 0, 0, 0, 0, 0, 0, 0, 0, 0, 0, 0, 0, 0, 0, 0, 0, 0, 0,
              0, 0, 0, 0, 0
            ],
            "sum_hessian": [
              1.0863533e2, 2.3372786e1, 8.526254e1, 1.120139e1, 1.2171394e1,
              6.642801e1, 1.8834534e1, 6.662202, 4.539188, 6.1098557,
              6.0318153e1, 3.5834842, 1.5251049e1, 5.6580787, 1.004123,
              1.9233851, 2.615803, 2.8071315, 3.3027241, 2.259172e1,
              3.7726433e1, 1.072705e1, 4.523999, 1.0293988, 1.5864042,
              1.7024182, 1.1047133, 1.991505, 1.3112192, 1.4979244e1, 7.612476,
              2.3932307, 3.5333202e1, 2.9116347, 7.815415, 3.5160623, 1.0079371,
              4.979831, 9.9994135, 2.113515, 5.4989614, 1.0469377, 1.346293,
              3.3022984e1, 2.3102198, 1.3427892, 1.5688455, 6.399184, 1.4162304
            ],
            "tree_param": {
              "num_deleted": "0",
              "num_feature": "11",
              "num_nodes": "49",
              "size_leaf_vector": "1"
            }
          },
          {
            "base_weights": [
              -1.4864584e-2, -8.762257e-1, 2.1958092e-1, -6.053063e-1,
              -1.06509484e-1, -7.371103e-3, 3.5441586e-1, -8.7927663e-1,
              -1.3460098e-1, 1.20484315e-1, -9.299739e-2, 6.0086316e-1,
              1.9554941e-1, -1.6393473e-2, -9.78176e-2, 4.719962e-2,
              -6.085713e-1, 1.7777424e-1, -6.683878e-2, 7.2389376e-1,
              5.2435428e-2, 9.614059e-2, 8.4807676e-1, -1.4628346e-2,
              -7.4706465e-2, 2.841085e-1, -5.3095776e-1, 1.9434685e-1,
              9.183639e-1, -8.1266224e-2, 6.358785e-2, -5.87645e-2, 5.736123e-1,
              2.8812278e-2, 9.6562214e-2, -2.2258963e-4, 5.0204378e-2,
              6.316499e-3, -1.05171e-1, -4.071743e-2, 5.9410263e-2,
              9.6386336e-2, 2.639294e-2, 1.1113836e-2, -7.683512e-2,
              -5.1522072e-2, 8.4625855e-2
            ],
            "categories": [],
            "categories_nodes": [],
            "categories_segments": [],
            "categories_sizes": [],
            "default_left": [
              0, 0, 0, 0, 0, 0, 0, 0, 0, 0, 0, 0, 0, 0, 0, 0, 0, 0, 0, 0, 0, 0,
              0, 0, 0, 0, 0, 0, 0, 0, 0, 0, 0, 0, 0, 0, 0, 0, 0, 0, 0, 0, 0, 0,
              0, 0, 0
            ],
            "id": 15,
            "left_children": [
              1, 3, 5, 7, -1, 9, 11, 13, 15, 17, -1, 19, 21, -1, -1, -1, 23, 25,
              -1, 27, 29, 31, 33, -1, -1, 35, 37, 39, 41, -1, -1, 43, 45, -1,
              -1, -1, -1, -1, -1, -1, -1, -1, -1, -1, -1, -1, -1
            ],
            "loss_changes": [
              2.1751417e1, 5.342655e-1, 2.5950484, 1.40094, 0, 3.951993,
              1.9639974, 3.5369444e-1, 1.8728869, 1.4509803, 0, 1.3355126,
              2.1115189, 0, 0, 0, 1.1690104e-1, 2.281375, 0, 1.5256376,
              2.9434469, 2.2871118, 7.5562e-3, 0, 0, 1.5757546, 1.3153639,
              1.615701, 9.800339e-2, 0, 0, 2.9680932, 2.6791198, 0, 0, 0, 0, 0,
              0, 0, 0, 0, 0, 0, 0, 0, 0
            ],
            "parents": [
              2147483647, 0, 0, 1, 1, 2, 2, 3, 3, 5, 5, 6, 6, 7, 7, 8, 8, 9, 9,
              11, 11, 12, 12, 16, 16, 17, 17, 19, 19, 20, 20, 21, 21, 22, 22,
              25, 25, 26, 26, 27, 27, 28, 28, 31, 31, 32, 32
            ],
            "right_children": [
              2, 4, 6, 8, -1, 10, 12, 14, 16, 18, -1, 20, 22, -1, -1, -1, 24,
              26, -1, 28, 30, 32, 34, -1, -1, 36, 38, 40, 42, -1, -1, 44, 46,
              -1, -1, -1, -1, -1, -1, -1, -1, -1, -1, -1, -1, -1, -1
            ],
            "split_conditions": [
              1, 1.5407418e-3, 1, 1.3e2, -1.06509484e-1, 8.015744e-3,
              1.2594983e2, 2.492e3, 1.8163384e3, 3.6641882e2, -9.299739e-2,
              2.365e3, 3.806e3, -1.6393473e-2, -9.78176e-2, 4.719962e-2,
              2.1601848e-2, 1.88e2, -6.683878e-2, 1.0800924e-2, 2.33e3, 6.5e3,
              4.6e3, -1.4628346e-2, -7.4706465e-2, 3.4914534e3, 8.624e3,
              8.4672585e1, 8.015744e-3, -8.1266224e-2, 6.358785e-2, 5.94219e3,
              1.6712544e2, 2.8812278e-2, 9.6562214e-2, -2.2258963e-4,
              5.0204378e-2, 6.316499e-3, -1.05171e-1, -4.071743e-2,
              5.9410263e-2, 9.6386336e-2, 2.639294e-2, 1.1113836e-2,
              -7.683512e-2, -5.1522072e-2, 8.4625855e-2
            ],
            "split_indices": [
              9, 9, 1, 7, 0, 1, 7, 5, 6, 8, 0, 6, 6, 0, 0, 0, 2, 7, 0, 10, 5, 5,
              6, 0, 0, 5, 5, 7, 4, 0, 0, 5, 7, 0, 0, 0, 0, 0, 0, 0, 0, 0, 0, 0,
              0, 0, 0
            ],
            "split_type": [
              0, 0, 0, 0, 0, 0, 0, 0, 0, 0, 0, 0, 0, 0, 0, 0, 0, 0, 0, 0, 0, 0,
              0, 0, 0, 0, 0, 0, 0, 0, 0, 0, 0, 0, 0, 0, 0, 0, 0, 0, 0, 0, 0, 0,
              0, 0, 0
            ],
            "sum_hessian": [
              1.05758316e2, 2.2041098e1, 8.371722e1, 1.0781167e1, 1.125993e1,
              3.1553017e1, 5.2164204e1, 6.266059, 4.515108, 2.8476164e1,
              3.0768533, 1.9355732e1, 3.280847e1, 1.0838845, 5.182174,
              1.9822929, 2.5328155, 2.7270367e1, 1.2057968, 1.554788e1,
              3.807852, 2.9466719e1, 3.3417513, 1.0578809, 1.4749345,
              2.423362e1, 3.0367477, 4.7131696, 1.083471e1, 1.3754847,
              2.4323673, 2.2910757e1, 6.555961, 1.178563, 2.1631882,
              1.0901052e1, 1.3332567e1, 1.8288871, 1.2078606, 1.874305,
              2.8388648, 9.6883135, 1.1463966, 1.9165226e1, 3.7455308,
              1.1347098, 5.4212513
            ],
            "tree_param": {
              "num_deleted": "0",
              "num_feature": "11",
              "num_nodes": "47",
              "size_leaf_vector": "1"
            }
          },
          {
            "base_weights": [
              -1.6429866e-2, -8.4868896e-1, 2.0186752e-1, -1.7852444e-2,
              -8.9932925e-1, -3.1414654e-2, 3.2282335e-1, -9.272464e-2,
              -2.0730197e-2, 1.2635764e-1, -1.03669286e-1, 5.924603e-1,
              3.152337e-2, 3.8633636e-1, -1.22225165e-1, -2.8391665e-1,
              7.23771e-1, -1.10135294e-1, 2.0520501e-1, 1.040639e-1,
              1.0508436e-1, -7.4548423e-1, 2.14755e-1, 3.9852973e-2,
              -6.0003955e-2, 9.0785426e-1, 4.7909382e-1, -3.717747e-1,
              3.8639802e-1, 4.9833324e-2, -8.3939336e-2, -7.390248e-4,
              -1.0753957e-1, 7.888264e-2, -8.7386025e-3, 1.0552241e-1,
              4.4960044e-2, -6.158776e-3, 6.305783e-2, 9.814366e-3,
              -9.947501e-2, 6.809923e-2, 1.724398e-2
            ],
            "categories": [],
            "categories_nodes": [],
            "categories_segments": [],
            "categories_sizes": [],
            "default_left": [
              0, 0, 0, 0, 0, 0, 0, 0, 0, 0, 0, 0, 0, 0, 0, 0, 0, 0, 0, 0, 0, 0,
              0, 0, 0, 0, 0, 0, 0, 0, 0, 0, 0, 0, 0, 0, 0, 0, 0, 0, 0, 0, 0
            ],
            "id": 16,
            "left_children": [
              1, 3, 5, -1, 7, 9, 11, -1, -1, 13, -1, 15, 17, 19, 21, 23, 25, -1,
              27, 29, -1, 31, 33, -1, -1, 35, 37, 39, 41, -1, -1, -1, -1, -1,
              -1, -1, -1, -1, -1, -1, -1, -1, -1
            ],
            "loss_changes": [
              1.9062761e1, 5.792389e-1, 2.357307, 0, 1.9454956e-1, 4.780422,
              4.2909946, 0, 0, 1.7423166, 0, 3.4780254, 5.623327, 2.3405385,
              3.1357765, 1.1935376, 6.9169426e-1, 0, 2.7183325, 4.2410855, 0,
              1.257242, 1.798655, 0, 0, 4.140978e-1, 1.0918646, 1.969835,
              1.0947952, 0, 0, 0, 0, 0, 0, 0, 0, 0, 0, 0, 0, 0, 0
            ],
            "parents": [
              2147483647, 0, 0, 1, 1, 2, 2, 4, 4, 5, 5, 6, 6, 9, 9, 11, 11, 12,
              12, 13, 13, 14, 14, 15, 15, 16, 16, 18, 18, 19, 19, 21, 21, 22,
              22, 25, 25, 26, 26, 27, 27, 28, 28
            ],
            "right_children": [
              2, 4, 6, -1, 8, 10, 12, -1, -1, 14, -1, 16, 18, 20, 22, 24, 26,
              -1, 28, 30, -1, 32, 34, -1, -1, 36, 38, 40, 42, -1, -1, -1, -1,
              -1, -1, -1, -1, -1, -1, -1, -1, -1, -1
            ],
            "split_conditions": [
              1, 1.849523e2, 9.396924e-1, -1.7852444e-2, 4.75e3, 1.0800924e-2,
              1.0250216, -9.272464e-2, -2.0730197e-2, 4.167427e3,
              -1.03669286e-1, 2.7440298e2, 1.9984592, 3.617e3, 5.25e3, 7.4e1,
              4.191e3, -1.10135294e-1, 2.479e3, 3.237e3, 1.0508436e-1, 4.384e3,
              6.009223e3, 3.9852973e-2, -6.0003955e-2, 2.1601848e-2, 4.75e3,
              2.4262544e3, 3.704e3, 4.9833324e-2, -8.3939336e-2, -7.390248e-4,
              -1.0753957e-1, 7.888264e-2, -8.7386025e-3, 1.0552241e-1,
              4.4960044e-2, -6.158776e-3, 6.305783e-2, 9.814366e-3,
              -9.947501e-2, 6.809923e-2, 1.724398e-2
            ],
            "split_indices": [
              9, 8, 10, 0, 6, 10, 10, 0, 0, 5, 0, 8, 10, 5, 5, 7, 5, 0, 5, 5, 0,
              5, 5, 0, 0, 2, 5, 6, 5, 0, 0, 0, 0, 0, 0, 0, 0, 0, 0, 0, 0, 0, 0
            ],
            "split_type": [
              0, 0, 0, 0, 0, 0, 0, 0, 0, 0, 0, 0, 0, 0, 0, 0, 0, 0, 0, 0, 0, 0,
              0, 0, 0, 0, 0, 0, 0, 0, 0, 0, 0, 0, 0, 0, 0, 0, 0, 0, 0, 0, 0
            ],
            "sum_hessian": [
              1.0298193e2, 2.0798782e1, 8.218315e1, 1.7791511, 1.9019632e1,
              2.83145e1, 5.3868652e1, 1.795539e1, 1.0642402, 2.5229233e1,
              3.0852685, 2.7437626e1, 2.6431028e1, 1.2061077e1, 1.3168156e1,
              3.4239252, 2.40137e1, 2.803483, 2.3627544e1, 9.276967, 2.7841098,
              4.195729, 8.972427, 1.0014071, 2.422518, 1.2156965e1, 1.1856734e1,
              5.3952937, 1.823225e1, 6.8755054, 2.401462, 1.6119026, 2.583826,
              2.538486, 6.433941, 8.213032, 3.943934, 2.7247908, 9.131944,
              3.5556679, 1.8396261, 6.752314, 1.1479937e1
            ],
            "tree_param": {
              "num_deleted": "0",
              "num_feature": "11",
              "num_nodes": "43",
              "size_leaf_vector": "1"
            }
          },
          {
            "base_weights": [
              -1.6716775e-2, -8.191812e-1, 1.8623948e-1, -5.3646713e-1,
              -1.0280222e-1, -2.800255e-2, 3.1453145e-1, -8.279405e-1,
              -7.229466e-2, 8.37011e-2, -8.791621e-2, 5.5578184e-1,
              1.6429642e-1, -9.35734e-2, -1.1625603e-2, 5.043581e-2,
              -5.5649894e-1, 1.9905801e-1, -3.0108476e-1, 6.711138e-1,
              3.691561e-2, -1.6243462e-2, 5.001462e-1, -1.1458586e-2,
              -6.970828e-2, 2.738597e-1, -6.258948e-2, 8.564688e-2,
              -8.165073e-2, 2.8622213e-1, 9.8004293e-1, -7.563466e-2,
              5.7815503e-2, 1.358208e-1, -7.78379e-1, 7.50414e-1, 8.121926e-2,
              3.9915077e-2, -6.9426775e-2, -4.4929866e-2, 6.110416e-2,
              -4.3795027e-2, 4.5875605e-2, 2.6084835e-2, 1.0439714e-1,
              -7.1485244e-2, 3.0335406e-2, -9.426251e-2, -1.6248733e-2,
              9.596027e-2, -1.8074427e-2, -6.2035378e-2, 9.094125e-2
            ],
            "categories": [],
            "categories_nodes": [],
            "categories_segments": [],
            "categories_sizes": [],
            "default_left": [
              0, 0, 0, 0, 0, 0, 0, 0, 0, 0, 0, 0, 0, 0, 0, 0, 0, 0, 0, 0, 0, 0,
              0, 0, 0, 0, 0, 0, 0, 0, 0, 0, 0, 0, 0, 0, 0, 0, 0, 0, 0, 0, 0, 0,
              0, 0, 0, 0, 0, 0, 0, 0, 0
            ],
            "id": 17,
            "left_children": [
              1, 3, 5, 7, -1, 9, 11, 13, 15, 17, -1, 19, 21, -1, -1, -1, 23, 25,
              27, 29, 31, 33, 35, -1, -1, 37, -1, 39, -1, 41, 43, -1, -1, 45,
              47, 49, 51, -1, -1, -1, -1, -1, -1, -1, -1, -1, -1, -1, -1, -1,
              -1, -1, -1
            ],
            "loss_changes": [
              1.6587666e1, 6.621504e-1, 2.24494, 1.4046426, 0, 3.0580182,
              1.7559586, 3.9397144e-1, 1.7524335, 1.3321271, 0, 1.1205592,
              1.9986227, 0, 0, 0, 1.2766159e-1, 1.5692356, 1.466955, 1.5744629,
              2.385991, 2.6923718, 1.1456738, 0, 0, 2.880744, 0, 1.6543196, 0,
              1.245297, 1.06613636e-1, 0, 0, 2.9899511, 2.3741078e-1, 1.5531812,
              3.71655, 0, 0, 0, 0, 0, 0, 0, 0, 0, 0, 0, 0, 0, 0, 0, 0
            ],
            "parents": [
              2147483647, 0, 0, 1, 1, 2, 2, 3, 3, 5, 5, 6, 6, 7, 7, 8, 8, 9, 9,
              11, 11, 12, 12, 16, 16, 17, 17, 18, 18, 19, 19, 20, 20, 21, 21,
              22, 22, 25, 25, 27, 27, 29, 29, 30, 30, 33, 33, 34, 34, 35, 35,
              36, 36
            ],
            "right_children": [
              2, 4, 6, 8, -1, 10, 12, 14, 16, 18, -1, 20, 22, -1, -1, -1, 24,
              26, 28, 30, 32, 34, 36, -1, -1, 38, -1, 40, -1, 42, 44, -1, -1,
              46, 48, 50, 52, -1, -1, -1, -1, -1, -1, -1, -1, -1, -1, -1, -1,
              -1, -1, -1, -1
            ],
            "split_conditions": [
              1, 1.5407418e-3, 1, 1.3e2, -1.0280222e-1, 8.015744e-3,
              1.2594983e2, 1.666e3, 1.8163384e3, 2.1601848e-2, -8.791621e-2,
              2.365e3, 2.275e3, -9.35734e-2, -1.1625603e-2, 5.043581e-2, 1.6e2,
              3.6641882e2, 1.5270395e2, 7.54e2, 2.33e3, 2.087e3, 2.1601848e-2,
              -1.1458586e-2, -6.970828e-2, 7.248074e3, -6.258948e-2,
              1.0621846e2, -8.165073e-2, 2.929e3, 6e1, -7.563466e-2,
              5.7815503e-2, 1.3e2, 8.858274e-1, 5.703e3, 1.0250216,
              3.9915077e-2, -6.9426775e-2, -4.4929866e-2, 6.110416e-2,
              -4.3795027e-2, 4.5875605e-2, 2.6084835e-2, 1.0439714e-1,
              -7.1485244e-2, 3.0335406e-2, -9.426251e-2, -1.6248733e-2,
              9.596027e-2, -1.8074427e-2, -6.2035378e-2, 9.094125e-2
            ],
            "split_indices": [
              9, 9, 1, 7, 0, 1, 7, 6, 6, 2, 0, 6, 6, 0, 0, 0, 7, 8, 7, 6, 5, 6,
              2, 0, 0, 5, 0, 7, 0, 5, 7, 0, 0, 7, 10, 5, 2, 0, 0, 0, 0, 0, 0, 0,
              0, 0, 0, 0, 0, 0, 0, 0, 0
            ],
            "split_type": [
              0, 0, 0, 0, 0, 0, 0, 0, 0, 0, 0, 0, 0, 0, 0, 0, 0, 0, 0, 0, 0, 0,
              0, 0, 0, 0, 0, 0, 0, 0, 0, 0, 0, 0, 0, 0, 0, 0, 0, 0, 0, 0, 0, 0,
              0, 0, 0, 0, 0, 0, 0, 0, 0
            ],
            "sum_hessian": [
              9.991231e1, 1.9555597e1, 8.035671e1, 9.824571, 9.731027,
              3.0389421e1, 4.996729e1, 5.553563, 4.271007, 2.7660944e1,
              2.728478, 1.8139349e1, 3.182794e1, 4.549647, 1.003916, 1.9304073,
              2.3405998, 2.1652353e1, 6.0085907, 1.4600559e1, 3.5387895,
              2.1319197e1, 1.0508743e1, 1.0029582, 1.3376417, 2.0464764e1,
              1.1875901, 3.9092417, 2.0993493, 7.358802, 7.241757, 1.2740525,
              2.2647371, 1.8458145e1, 2.8610518, 6.083294, 4.4254494,
              1.864014e1, 1.8246214, 2.0087807, 1.9004608, 1.1199057, 6.238896,
              1.0058852, 6.235872, 2.4995265, 1.5958618e1, 1.8398862, 1.0211657,
              4.942413, 1.1408811, 2.5317378, 1.8937118
            ],
            "tree_param": {
              "num_deleted": "0",
              "num_feature": "11",
              "num_nodes": "53",
              "size_leaf_vector": "1"
            }
          },
          {
            "base_weights": [
              -1.9794215e-2, -7.9331166e-1, 1.6921806e-1, -5.127968e-1,
              -1.0086739e-1, 2.581731e-1, -1.4294861e-1, -8.0285335e-1,
              -7.17134e-2, -3.7592116e-1, 3.064788e-1, -4.4690448e-1,
              6.960219e-1, -1.5963173e-2, -9.019109e-2, 4.616373e-2,
              -5.366123e-1, 8.206379e-3, -6.615225e-2, 3.9736637e-1,
              -5.7001956e-2, -1.06065504e-1, -2.0023945e-1, -1.4642364e-2,
              9.387526e-2, -1.3528997e-2, -6.683081e-2, 4.51404e-1,
              -6.941593e-2, -7.6486486e-1, 2.1224982e-1, -5.4367334e-1,
              -2.243168e-2, 3.737762e-2, 7.408597e-2, -1.08876005e-1,
              -7.988059e-3, -3.5974517e-2, 8.73882e-2, 8.1913e-3, -8.953623e-2,
              -6.889903e-2, 2.07389e-2
            ],
            "categories": [],
            "categories_nodes": [],
            "categories_segments": [],
            "categories_sizes": [],
            "default_left": [
              0, 0, 0, 0, 0, 0, 0, 0, 0, 0, 0, 0, 0, 0, 0, 0, 0, 0, 0, 0, 0, 0,
              0, 0, 0, 0, 0, 0, 0, 0, 0, 0, 0, 0, 0, 0, 0, 0, 0, 0, 0, 0, 0
            ],
            "id": 18,
            "left_children": [
              1, 3, 5, 7, -1, 9, 11, 13, 15, 17, 19, 21, 23, -1, -1, -1, 25, -1,
              -1, 27, 29, -1, 31, -1, -1, -1, -1, 33, -1, 35, 37, 39, 41, -1,
              -1, -1, -1, -1, -1, -1, -1, -1, -1
            ],
            "loss_changes": [
              1.4504143e1, 6.593666e-1, 2.2531362, 1.2848659, 0, 2.0286083,
              4.988646, 2.5310612e-1, 1.5521508, 6.9142634e-1, 1.9584308,
              1.9182258, 1.2149382, 0, 0, 0, 8.258152e-2, 0, 0, 3.085609,
              2.5629792, 0, 6.761116e-1, 0, 0, 0, 0, 7.4297905e-1, 0,
              7.3126864e-1, 4.0638933, 9.0982604e-1, 1.4403496, 0, 0, 0, 0, 0,
              0, 0, 0, 0, 0
            ],
            "parents": [
              2147483647, 0, 0, 1, 1, 2, 2, 3, 3, 5, 5, 6, 6, 7, 7, 8, 8, 9, 9,
              10, 10, 11, 11, 12, 12, 16, 16, 19, 19, 20, 20, 22, 22, 27, 27,
              29, 29, 30, 30, 31, 31, 32, 32
            ],
            "right_children": [
              2, 4, 6, 8, -1, 10, 12, 14, 16, 18, 20, 22, 24, -1, -1, -1, 26,
              -1, -1, 28, 30, -1, 32, -1, -1, -1, -1, 34, -1, 36, 38, 40, 42,
              -1, -1, -1, -1, -1, -1, -1, -1, -1, -1
            ],
            "split_conditions": [
              1, 1.5407418e-3, 2.582577e-3, 1.3e2, -1.0086739e-1, 1.928e3,
              1.6e3, 2.8542627e2, 1.8163384e3, 1.0704687e2, 1.895527e2,
              9.8730487e-1, 2.2580301e2, -1.5963173e-2, -9.019109e-2,
              4.616373e-2, 6.1341655e-1, 8.206379e-3, -6.615225e-2, 3.6641882e2,
              2.0584291e2, -1.06065504e-1, 8.8745445e1, -1.4642364e-2,
              9.387526e-2, -1.3528997e-2, -6.683081e-2, 1.7008597, -6.941593e-2,
              6.1715215e3, 7.48965e-1, 3.18e3, 2.791725e3, 3.737762e-2,
              7.408597e-2, -1.08876005e-1, -7.988059e-3, -3.5974517e-2,
              8.73882e-2, 8.1913e-3, -8.953623e-2, -6.889903e-2, 2.07389e-2
            ],
            "split_indices": [
              9, 9, 3, 7, 0, 5, 6, 8, 6, 7, 7, 3, 8, 0, 0, 0, 2, 0, 0, 8, 7, 0,
              7, 0, 0, 0, 0, 2, 0, 5, 2, 5, 5, 0, 0, 0, 0, 0, 0, 0, 0, 0, 0
            ],
            "split_type": [
              0, 0, 0, 0, 0, 0, 0, 0, 0, 0, 0, 0, 0, 0, 0, 0, 0, 0, 0, 0, 0, 0,
              0, 0, 0, 0, 0, 0, 0, 0, 0, 0, 0, 0, 0, 0, 0, 0, 0, 0, 0, 0, 0
            ],
            "sum_hessian": [
              9.7286446e1, 1.8476349e1, 7.88101e1, 9.49281, 8.983538,
              6.1467327e1, 1.7342772e1, 5.232037, 4.260773, 3.8710532,
              5.7596275e1, 1.3073581e1, 4.269191, 1.0467246, 4.1853127,
              1.9875693, 2.2732036, 1.7605428, 2.1105103, 4.600068e1,
              1.1595596e1, 2.8019083, 1.0271672e1, 1.0436743, 3.2255166,
              1.0625474, 1.2106563, 4.4389553e1, 1.6111249, 2.6880383,
              8.9075575, 2.8019972, 7.469675, 3.6809174e1, 7.5803823, 1.4248364,
              1.2632018, 5.022112, 3.8854458, 1.284395, 1.5176022, 1.4028841,
              6.066791
            ],
            "tree_param": {
              "num_deleted": "0",
              "num_feature": "11",
              "num_nodes": "43",
              "size_leaf_vector": "1"
            }
          },
          {
            "base_weights": [
              -2.3489589e-2, -7.685833e-1, 1.5218297e-1, -4.9092588e-1,
              -9.9020176e-2, 7.1120566e-1, 1.04911506e-1, -7.793325e-1,
              -7.173532e-2, 1.4326117e-2, 8.9721054e-2, -5.2740866e-1,
              1.8511418e-1, -8.860056e-2, -1.6269334e-2, 4.2305645e-1,
              -5.1777923e-1, -3.083704e-1, -8.339235e-2, 4.3533748e-1,
              5.5305034e-2, -9.604776e-3, 7.3084556e-2, -1.2896064e-2,
              -6.47658e-2, 4.0281903e-2, -5.1895905e-1, 5.3659105e-1,
              -2.3458591e-1, -8.059793e-1, 1.4653486e-1, -8.1892855e-2,
              2.3597006e-2, 9.710785e-2, 2.389944e-2, -7.4895695e-2,
              3.4999464e-2, -1.5432286e-1, 9.803399e-3, 3.713308e-2,
              -6.8675163e-3
            ],
            "categories": [],
            "categories_nodes": [],
            "categories_segments": [],
            "categories_sizes": [],
            "default_left": [
              0, 0, 0, 0, 0, 0, 0, 0, 0, 0, 0, 0, 0, 0, 0, 0, 0, 0, 0, 0, 0, 0,
              0, 0, 0, 0, 0, 0, 0, 0, 0, 0, 0, 0, 0, 0, 0, 0, 0, 0, 0
            ],
            "id": 19,
            "left_children": [
              1, 3, 5, 7, -1, 9, 11, 13, 15, -1, -1, 17, 19, -1, -1, 21, 23, 25,
              -1, 27, 29, -1, -1, -1, -1, -1, 31, 33, 35, 37, 39, -1, -1, -1,
              -1, -1, -1, -1, -1, -1, -1
            ],
            "loss_changes": [
              1.267758e1, 6.506462e-1, 1.9994853, 1.1752372, 0, 4.996531e-1,
              3.827179, 2.4601316e-1, 1.3781555, 0, 0, 3.1605124e-1, 2.119799,
              0, 0, 5.5595356e-1, 7.866669e-2, 1.1924477, 0, 1.6452837,
              3.6228485, 0, 0, 0, 0, 0, 1.4394398, 2.3232765, 1.3556871,
              3.1010828, 2.0176244, 0, 0, 0, 0, 0, 0, 0, 0, 0, 0
            ],
            "parents": [
              2147483647, 0, 0, 1, 1, 2, 2, 3, 3, 5, 5, 6, 6, 7, 7, 8, 8, 11,
              11, 12, 12, 15, 15, 16, 16, 17, 17, 19, 19, 20, 20, 26, 26, 27,
              27, 28, 28, 29, 29, 30, 30
            ],
            "right_children": [
              2, 4, 6, 8, -1, 10, 12, 14, 16, -1, -1, 18, 20, -1, -1, 22, 24,
              26, -1, 28, 30, -1, -1, -1, -1, -1, 32, 34, 36, 38, 40, -1, -1,
              -1, -1, -1, -1, -1, -1, -1, -1
            ],
            "split_conditions": [
              1, 1.5407418e-3, 6.1e1, 1.3e2, -9.9020176e-2, 2.383e3,
              8.4672585e1, 1.516e3, 1.8163384e3, 1.4326117e-2, 8.9721054e-2,
              2.1601848e-2, 1.2594983e2, -8.860056e-2, -1.6269334e-2,
              2.1601848e-2, 6.1341655e-1, 8.015744e-3, -8.339235e-2, 2.859e3,
              1.28e2, -9.604776e-3, 7.3084556e-2, -1.2896064e-2, -6.47658e-2,
              4.0281903e-2, 3.366e3, 3.34e3, 2.33e3, 1.6293601e3, 2.1601848e-2,
              -8.1892855e-2, 2.3597006e-2, 9.710785e-2, 2.389944e-2,
              -7.4895695e-2, 3.4999464e-2, -1.5432286e-1, 9.803399e-3,
              3.713308e-2, -6.8675163e-3
            ],
            "split_indices": [
              9, 9, 7, 7, 0, 5, 7, 6, 6, 0, 0, 2, 7, 0, 0, 2, 2, 0, 0, 6, 7, 0,
              0, 0, 0, 0, 5, 5, 5, 6, 2, 0, 0, 0, 0, 0, 0, 0, 0, 0, 0
            ],
            "split_type": [
              0, 0, 0, 0, 0, 0, 0, 0, 0, 0, 0, 0, 0, 0, 0, 0, 0, 0, 0, 0, 0, 0,
              0, 0, 0, 0, 0, 0, 0, 0, 0, 0, 0, 0, 0, 0, 0, 0, 0, 0, 0
            ],
            "sum_hessian": [
              9.4961296e1, 1.7473688e1, 7.748761e1, 9.183373, 8.290315,
              4.9464736, 7.254114e1, 4.9313955, 4.2519784, 1.6570532, 3.2894204,
              7.5377054, 6.500343e1, 3.8317134, 1.0996821, 2.0402677, 2.2117107,
              5.566144, 1.9715618, 2.1399519e1, 4.3603912e1, 1.0155041,
              1.0247635, 1.0528173, 1.1588933, 1.0630934, 4.5030503, 1.876271e1,
              2.6368067, 3.42591, 4.0178e1, 3.1619005, 1.34115, 6.7072043,
              1.2055507e1, 1.2530576, 1.3837492, 1.4975379, 1.9283721,
              1.929653e1, 2.0881474e1
            ],
            "tree_param": {
              "num_deleted": "0",
              "num_feature": "11",
              "num_nodes": "41",
              "size_leaf_vector": "1"
            }
          },
          {
            "base_weights": [
              -2.433481e-2, -7.4430764e-1, 1.3859646e-1, -4.691519e-1,
              -9.724231e-2, -7.916444e-2, 2.545908e-1, -7.5598156e-1,
              -6.824604e-2, 6.0838185e-2, -9.80215e-2, 5.0791186e-1,
              -1.1876672e-2, -1.2823845e-2, -8.635181e-2, 3.9803863e-1,
              -4.9981067e-1, -3.715831e-1, 1.8126853e-1, -2.7438897e-1,
              6.322243e-1, -1.0182693e-1, 1.4109735e-1, -1.0146901e-2,
              6.98228e-2, -1.2292865e-2, -6.2797815e-2, 6.720808e-2,
              -7.029821e-1, 5.420167e-1, -6.7655064e-2, 1.692882e-2,
              -6.883857e-2, 9.35345e-1, 4.607324e-1, -2.4918419e-1, 3.632361e-1,
              -4.122941e-2, 4.7425408e-2, -9.586804e-2, -1.654247e-2,
              1.8033756e-2, 9.651747e-2, 3.97802e-2, -5.4718565e-2,
              1.00771725e-1, 2.8356392e-2, -1.0140605e-2, 5.4327335e-2,
              -1.1573254e-1, 1.3051442e-2, 1.0090543e-1, 1.0933607e-2
            ],
            "categories": [],
            "categories_nodes": [],
            "categories_segments": [],
            "categories_sizes": [],
            "default_left": [
              0, 0, 0, 0, 0, 0, 0, 0, 0, 0, 0, 0, 0, 0, 0, 0, 0, 0, 0, 0, 0, 0,
              0, 0, 0, 0, 0, 0, 0, 0, 0, 0, 0, 0, 0, 0, 0, 0, 0, 0, 0, 0, 0, 0,
              0, 0, 0, 0, 0, 0, 0, 0, 0
            ],
            "id": 20,
            "left_children": [
              1, 3, 5, 7, -1, 9, 11, 13, 15, 17, -1, 19, 21, -1, -1, 23, 25, 27,
              29, 31, 33, -1, 35, -1, -1, -1, -1, 37, 39, 41, 43, -1, -1, 45,
              47, 49, 51, -1, -1, -1, -1, -1, -1, -1, -1, -1, -1, -1, -1, -1,
              -1, -1, -1
            ],
            "loss_changes": [
              1.11430235e1, 6.4374256e-1, 1.9799336, 1.0839949, 0, 3.557472,
              3.4391434, 2.7117443e-1, 1.2489523, 1.3661697, 0, 2.7112846,
              4.1100545, 0, 0, 5.3039616e-1, 7.511401e-2, 8.849485e-1,
              1.8487766, 9.0186936e-1, 7.553158e-1, 0, 2.1055703, 0, 0, 0, 0,
              8.5748225e-1, 3.045261e-1, 1.1039107, 3.081229, 0, 0, 5.741024e-2,
              8.227861e-1, 3.2626138, 2.3851635, 0, 0, 0, 0, 0, 0, 0, 0, 0, 0,
              0, 0, 0, 0, 0, 0
            ],
            "parents": [
              2147483647, 0, 0, 1, 1, 2, 2, 3, 3, 5, 5, 6, 6, 7, 7, 8, 8, 9, 9,
              11, 11, 12, 12, 15, 15, 16, 16, 17, 17, 18, 18, 19, 19, 20, 20,
              22, 22, 27, 27, 28, 28, 29, 29, 30, 30, 33, 33, 34, 34, 35, 35,
              36, 36
            ],
            "right_children": [
              2, 4, 6, 8, -1, 10, 12, 14, 16, 18, -1, 20, 22, -1, -1, 24, 26,
              28, 30, 32, 34, -1, 36, -1, -1, -1, -1, 38, 40, 42, 44, -1, -1,
              46, 48, 50, 52, -1, -1, -1, -1, -1, -1, -1, -1, -1, -1, -1, -1,
              -1, -1, -1, -1
            ],
            "split_conditions": [
              1, 1.5407418e-3, 9.396924e-1, 1.3e2, -9.724231e-2, 1.0800924e-2,
              1.0250216, 2.8542627e2, 1.8163384e3, 1.0621846e2, -9.80215e-2,
              2.7440298e2, 1.9984592, -1.2823845e-2, -8.635181e-2, 1.5270395e2,
              6.1341655e-1, 2.929e3, 4.167427e3, 1.1576754e2, 3.418e3,
              -1.0182693e-1, 3.173e3, -1.0146901e-2, 6.98228e-2, -1.2292865e-2,
              -6.2797815e-2, 2.383e3, 6.561601e-1, 3.4325005e3, 7e2,
              1.692882e-2, -6.883857e-2, 1.4311157e2, 8.8e1, 1.612e1, 3.704e3,
              -4.122941e-2, 4.7425408e-2, -9.586804e-2, -1.654247e-2,
              1.8033756e-2, 9.651747e-2, 3.97802e-2, -5.4718565e-2,
              1.00771725e-1, 2.8356392e-2, -1.0140605e-2, 5.4327335e-2,
              -1.1573254e-1, 1.3051442e-2, 1.0090543e-1, 1.0933607e-2
            ],
            "split_indices": [
              9, 9, 10, 7, 0, 10, 10, 8, 6, 7, 0, 8, 10, 0, 0, 7, 2, 5, 5, 7, 5,
              0, 5, 0, 0, 0, 0, 5, 1, 5, 6, 0, 0, 7, 7, 6, 5, 0, 0, 0, 0, 0, 0,
              0, 0, 0, 0, 0, 0, 0, 0, 0, 0
            ],
            "split_type": [
              0, 0, 0, 0, 0, 0, 0, 0, 0, 0, 0, 0, 0, 0, 0, 0, 0, 0, 0, 0, 0, 0,
              0, 0, 0, 0, 0, 0, 0, 0, 0, 0, 0, 0, 0, 0, 0, 0, 0, 0, 0, 0, 0, 0,
              0, 0, 0, 0, 0, 0, 0, 0, 0
            ],
            "sum_hessian": [
              9.311162e1, 1.6524351e1, 7.6587265e1, 8.875387, 7.648963,
              2.672773e1, 4.9859535e1, 4.657487, 4.2179003, 2.3940418e1,
              2.787312, 2.5095783e1, 2.4763752e1, 1.00183, 3.6556568, 2.0647368,
              2.1531634, 4.7607713, 1.9179647e1, 3.275534, 2.182025e1, 2.521131,
              2.224262e1, 1.0235533, 1.0411837, 1.0435842, 1.1095792, 2.391495,
              2.3692763, 7.350141, 1.1829505e1, 1.8664073, 1.4091268, 6.274893,
              1.5545357e1, 8.023742, 1.4218879e1, 1.0921012, 1.2993938,
              1.0746839, 1.2945924, 4.731895, 2.6182463, 6.0893264, 5.7401786,
              5.156257, 1.118636, 1.9610718, 1.3584285e1, 1.761847, 6.261895,
              3.173237, 1.1045641e1
            ],
            "tree_param": {
              "num_deleted": "0",
              "num_feature": "11",
              "num_nodes": "53",
              "size_leaf_vector": "1"
            }
          },
          {
            "base_weights": [
              -2.5674682e-2, -7.20825e-1, 1.2659563e-1, -4.485428e-1,
              -9.5518336e-2, 2.0788924e-1, -1.5937954e-1, -7.3349315e-1,
              -6.529572e-2, 1.1752063e-1, 5.287748e-1, -4.3288958e-1,
              6.426589e-1, -8.480594e-2, -1.3141769e-2, 3.7471113e-1,
              -4.8265064e-1, 2.721072e-1, -2.9263675e-1, -1.7502649e-2,
              6.3445884e-1, -9.989363e-2, -2.1161272e-1, 8.807211e-2,
              -1.2195258e-2, -9.67008e-3, 6.528604e-2, -1.1717994e-2,
              -6.0919363e-2, 3.8889477e-1, -6.082195e-1, -7.3854196e-1,
              5.665315e-1, 9.8118074e-2, 3.7965107e-1, -8.202373e-2,
              -6.3980795e-2, 4.5030393e-2, -6.975174e-2, -8.695684e-2,
              1.3994427e-2, -1.1962951e-2, -1.259977e-1, 8.304156e-2,
              3.6307813e-3, 6.1231554e-2, -5.5202306e-3, -3.4221794e-2,
              8.011774e-2
            ],
            "categories": [],
            "categories_nodes": [],
            "categories_segments": [],
            "categories_sizes": [],
            "default_left": [
              0, 0, 0, 0, 0, 0, 0, 0, 0, 0, 0, 0, 0, 0, 0, 0, 0, 0, 0, 0, 0, 0,
              0, 0, 0, 0, 0, 0, 0, 0, 0, 0, 0, 0, 0, 0, 0, 0, 0, 0, 0, 0, 0, 0,
              0, 0, 0, 0, 0
            ],
            "id": 21,
            "left_children": [
              1, 3, 5, 7, -1, 9, 11, 13, 15, 17, 19, 21, 23, -1, -1, 25, 27, 29,
              31, -1, 33, -1, 35, -1, -1, -1, -1, -1, -1, 37, 39, 41, 43, -1,
              45, 47, -1, -1, -1, -1, -1, -1, -1, -1, -1, -1, -1, -1, -1
            ],
            "loss_changes": [
              9.804924, 6.3330936e-1, 1.8029721, 9.9852145e-1, 0, 1.6693835,
              4.098862, 2.6089597e-1, 1.132826, 3.1152391, 1.065742, 1.4902139,
              9.868721e-1, 0, 0, 4.6783385e-1, 7.186693e-2, 3.8646998, 5.623702,
              0, 6.325135e-1, 0, 5.5989826e-1, 0, 0, 0, 0, 0, 0, 2.4334025,
              1.0061466, 2.8760343, 6.985668e-1, 0, 8.622354e-1, 2.4846678, 0,
              0, 0, 0, 0, 0, 0, 0, 0, 0, 0, 0, 0
            ],
            "parents": [
              2147483647, 0, 0, 1, 1, 2, 2, 3, 3, 5, 5, 6, 6, 7, 7, 8, 8, 9, 9,
              10, 10, 11, 11, 12, 12, 15, 15, 16, 16, 17, 17, 18, 18, 20, 20,
              22, 22, 29, 29, 30, 30, 31, 31, 32, 32, 34, 34, 35, 35
            ],
            "right_children": [
              2, 4, 6, 8, -1, 10, 12, 14, 16, 18, 20, 22, 24, -1, -1, 26, 28,
              30, 32, -1, 34, -1, 36, -1, -1, -1, -1, -1, -1, 38, 40, 42, 44,
              -1, 46, 48, -1, -1, -1, -1, -1, -1, -1, -1, -1, -1, -1, -1, -1
            ],
            "split_conditions": [
              1, 1.5407418e-3, 2.582577e-3, 1.3e2, -9.5518336e-2, 1.7336739,
              1.6e3, 1.516e3, 1.8163384e3, 2.1601848e-2, 2.98e3, 9.8730487e-1,
              2.816e3, -8.480594e-2, -1.3141769e-2, 1.5270395e2, 6.1341655e-1,
              2.3843027e2, 5.25e3, -1.7502649e-2, 1.31e2, -9.989363e-2, 1.6e2,
              8.807211e-2, -1.2195258e-2, -9.67008e-3, 6.528604e-2,
              -1.1717994e-2, -6.0919363e-2, 3.6641882e2, 1.5e4, 3.704e3,
              9.703e3, 9.8118074e-2, 2.0270875, 1.3e2, -6.3980795e-2,
              4.5030393e-2, -6.975174e-2, -8.695684e-2, 1.3994427e-2,
              -1.1962951e-2, -1.259977e-1, 8.304156e-2, 3.6307813e-3,
              6.1231554e-2, -5.5202306e-3, -3.4221794e-2, 8.011774e-2
            ],
            "split_indices": [
              9, 9, 3, 7, 0, 2, 6, 6, 6, 2, 5, 3, 6, 0, 0, 7, 2, 7, 5, 0, 7, 0,
              7, 0, 0, 0, 0, 0, 0, 8, 5, 5, 5, 0, 2, 7, 0, 0, 0, 0, 0, 0, 0, 0,
              0, 0, 0, 0, 0
            ],
            "split_type": [
              0, 0, 0, 0, 0, 0, 0, 0, 0, 0, 0, 0, 0, 0, 0, 0, 0, 0, 0, 0, 0, 0,
              0, 0, 0, 0, 0, 0, 0, 0, 0, 0, 0, 0, 0, 0, 0, 0, 0, 0, 0, 0, 0, 0,
              0, 0, 0, 0, 0
            ],
            "sum_hessian": [
              9.076761e1, 1.5638819e1, 7.512879e1, 8.582, 7.0568194, 5.871192e1,
              1.6416872e1, 4.398072, 4.1839275, 4.687664e1, 1.183528e1,
              1.2585311e1, 3.831562, 3.3517265, 1.0463452, 2.0864315, 2.097496,
              3.4289608e1, 1.2587031e1, 1.4595168, 1.0375764e1, 2.5493696,
              1.0035941e1, 2.806044, 1.025518, 1.0163118, 1.0701197, 1.0348215,
              1.0626745, 3.0766273e1, 3.5233343, 8.378841, 4.2081895, 3.187627,
              7.1881366, 8.619034, 1.4169074, 2.9674446e1, 1.0918276, 2.490931,
              1.0324031, 4.393473, 3.9853683, 2.4317727, 1.7764165, 4.416846,
              2.771291, 7.1308002, 1.4882336
            ],
            "tree_param": {
              "num_deleted": "0",
              "num_feature": "11",
              "num_nodes": "49",
              "size_leaf_vector": "1"
            }
          },
          {
            "base_weights": [
              -2.6639532e-2, -6.978738e-1, 1.1555621e-1, -4.289888e-1,
              -9.383525e-2, 6.4978546e-1, 7.069294e-2, -7.111398e-1,
              -6.2899806e-2, 3.058026e-3, 8.275038e-2, -4.876348e-1,
              1.4398465e-1, -8.280657e-2, -1.2528837e-2, 3.5273704e-1,
              -4.662499e-1, -2.8350624e-1, -7.632255e-2, 3.826977e-1,
              2.3823434e-2, -1.0119886e-2, 6.241442e-2, -1.1170125e-2,
              -5.912397e-2, 3.688697e-2, -4.7747847e-1, 4.8585713e-1,
              -2.7012515e-1, -8.027437e-1, 1.1342997e-1, -7.465246e-2,
              2.1220604e-2, 9.1666095e-2, 2.0535616e-2, -7.310055e-2,
              2.9449914e-2, -1.4430071e-1, 5.14205e-3, 4.1705673e-3, 8.124597e-2
            ],
            "categories": [],
            "categories_nodes": [],
            "categories_segments": [],
            "categories_sizes": [],
            "default_left": [
              0, 0, 0, 0, 0, 0, 0, 0, 0, 0, 0, 0, 0, 0, 0, 0, 0, 0, 0, 0, 0, 0,
              0, 0, 0, 0, 0, 0, 0, 0, 0, 0, 0, 0, 0, 0, 0, 0, 0, 0, 0
            ],
            "id": 22,
            "left_children": [
              1, 3, 5, 7, -1, 9, 11, 13, 15, -1, -1, 17, 19, -1, -1, 21, 23, 25,
              -1, 27, 29, -1, -1, -1, -1, -1, 31, 33, 35, 37, 39, -1, -1, -1,
              -1, -1, -1, -1, -1, -1, -1
            ],
            "loss_changes": [
              8.643052, 6.206589e-1, 1.7488482, 9.172313e-1, 0, 5.996766e-1,
              2.9430728, 2.4988508e-1, 1.0279436, 0, 0, 2.5473273e-1, 1.7931291,
              0, 0, 4.458209e-1, 6.888026e-2, 9.862494e-1, 0, 1.5435433,
              3.2654986, 0, 0, 0, 0, 0, 1.1549594, 2.0433068, 1.1271994,
              2.4344223, 1.9487524, 0, 0, 0, 0, 0, 0, 0, 0, 0, 0
            ],
            "parents": [
              2147483647, 0, 0, 1, 1, 2, 2, 3, 3, 5, 5, 6, 6, 7, 7, 8, 8, 11,
              11, 12, 12, 15, 15, 16, 16, 17, 17, 19, 19, 20, 20, 26, 26, 27,
              27, 28, 28, 29, 29, 30, 30
            ],
            "right_children": [
              2, 4, 6, 8, -1, 10, 12, 14, 16, -1, -1, 18, 20, -1, -1, 22, 24,
              26, -1, 28, 30, -1, -1, -1, -1, -1, 32, 34, 36, 38, 40, -1, -1,
              -1, -1, -1, -1, -1, -1, -1, -1
            ],
            "split_conditions": [
              1, 1.5407418e-3, 6.1e1, 1.3e2, -9.383525e-2, 1.0800924e-2,
              8.4672585e1, 1.516e3, 1.8163384e3, 3.058026e-3, 8.275038e-2,
              2.1601848e-2, 1.2594983e2, -8.280657e-2, -1.2528837e-2,
              2.1601848e-2, 6.1341655e-1, 8.015744e-3, -7.632255e-2, 2.859e3,
              1.28e2, -1.0119886e-2, 6.241442e-2, -1.1170125e-2, -5.912397e-2,
