{"learner":{"attributes":{"scikit_learn":"{\"_estimator_type\": \"classifier\"}"},"feature_names":[],"feature_types":[],"gradient_booster":{"model":{"cats":{"enc":[],"feature_segments":[],"sorted_idx":[]},"gbtree_model_param":{"num_parallel_tree":"1","num_trees":"100"},"iteration_indptr":[0,1,2,3,4,5,6,7,8,9,10,11,12,13,14,15,16,17,18,19,20,21,22,23,24,25,26,27,28,29,30,31,32,33,34,35,36,37,38,39,40,41,42,43,44,45,46,47,48,49,50,51,52,53,54,55,56,57,58,59,60,61,62,63,64,65,66,67,68,69,70,71,72,73,74,75,76,77,78,79,80,81,82,83,84,85,86,87,88,89,90,91,92,93,94,95,96,97,98,99,100],"tree_info":[0,0,0,0,0,0,0,0,0,0,0,0,0,0,0,0,0,0,0,0,0,0,0,0,0,0,0,0,0,0,0,0,0,0,0,0,0,0,0,0,0,0,0,0,0,0,0,0,0,0,0,0,0,0,0,0,0,0,0,0,0,0,0,0,0,0,0,0,0,0,0,0,0,0,0,0,0,0,0,0,0,0,0,0,0,0,0,0,0,0,0,0,0,0,0,0,0,0,0,0],"trees":[{"base_weights":[-0E0,-1.828877E0,7.826087E-1,-1.8469945E0,-5E-2,3.10559E-1,1.0428572E0,-1.8659218E-1,-5E-2,6.76259E-1,-1.6923077E-1,-4.6153846E-1,1.099631E0,7.8125E-1,-4E-1,-6.666667E-2,-0E0,6.0240966E-1,1.2916666E0,8.6178863E-1,-6.666667E-2,-1E-1,1.818182E-2,7.692308E-1,-1.1111112E-1,3.529412E-1,1.4567901E0,9.6551724E-2,-5.454546E-2,-3.3333335E-2,9.142857E-2,1E-1,-4.4444446E-2,1.628866E-1,1.1304348E-1],"categories":[],"categories_nodes":[],"categories_segments":[],"categories_sizes":[],"default_left":[0,0,0,0,0,0,0,0,0,0,0,0,0,0,0,0,0,0,0,0,0,0,0,0,0,0,0,0,0,0,0,0,0,0,0],"id":0,"left_children":[1,3,5,7,-1,9,11,-1,-1,13,-1,15,17,19,21,-1,-1,23,25,27,-1,-1,-1,29,-1,31,33,-1,-1,-1,-1,-1,-1,-1,-1],"loss_changes":[2.2328203E2,2.0205688E-1,1.3097519E1,2.3342896E-1,0E0,3.062548E1,6.486244E0,0E0,0E0,4.2391644E0,0E0,3.076923E-1,5.6909485E0,4.3061485E0,1.490909E0,0E0,0E0,6.786119E0,6.9261017E0,5.0152664E0,0E0,0E0,0E0,3.4234428E0,0E0,4.8300653E0,4.3307495E-1,0E0,0E0,0E0,0E0,0E0,0E0,0E0,0E0],"parents":[2147483647,0,0,1,1,2,2,3,3,5,5,6,6,9,9,11,11,12,12,13,13,14,14,17,17,18,18,19,19,23,23,25,25,26,26],"right_children":[2,4,6,8,-1,10,12,-1,-1,14,-1,16,18,20,22,-1,-1,24,26,28,-1,-1,-1,30,-1,32,34,-1,-1,-1,-1,-1,-1,-1,-1],"split_conditions":[1E0,1.1417E4,1E0,5E3,-5E-2,8.015744E-3,1.4737117E3,-1.8659218E-1,-5E-2,3.8670425E3,-1.6923077E-1,2.275E3,8.858274E-1,3.6641882E2,2.121341E3,-6.666667E-2,-0E0,1.0800924E-2,3.323582E2,9.323E3,-6.666667E-2,-1E-1,1.818182E-2,8.4672585E1,-1.1111112E-1,1.1576754E2,1.0250216E0,9.6551724E-2,-5.454546E-2,-3.3333335E-2,9.142857E-2,1E-1,-4.4444446E-2,1.628866E-1,1.1304348E-1],"split_indices":[9,5,1,6,0,1,5,0,0,6,0,6,10,8,5,0,0,10,8,5,0,0,0,7,0,7,10,0,0,0,0,0,0,0,0],"split_type":[0,0,0,0,0,0,0,0,0,0,0,0,0,0,0,0,0,0,0,0,0,0,0,0,0,0,0,0,0,0,0,0,0,0,0],"sum_hessian":[1.54E2,4.575E1,1.0825E2,4.475E1,1E0,3.925E1,6.9E1,4.375E1,1E0,3.375E1,5.5E0,2.25E0,6.675E1,3.1E1,2.75E0,1.25E0,1E0,1.975E1,4.7E1,2.975E1,1.25E0,1E0,1.75E0,1.85E1,1.25E0,7.5E0,3.95E1,2.8E1,1.75E0,2E0,1.65E1,4E0,3.5E0,2.325E1,1.625E1],"tree_param":{"num_deleted":"0","num_feature":"11","num_nodes":"35","size_leaf_vector":"1"}},{"base_weights":[-2.352524E-3,-1.666163E0,7.0623785E-1,-7.38106E-1,-1.7017937E-1,2.733918E-1,9.4523543E-1,-1.3450438E-2,-1.0126169E-1,6.068563E-1,-1.5588523E-1,-4.3609312E-1,9.9771655E-1,7.039106E-1,-3.8210917E-1,-6.30032E-2,-0E0,5.4066914E-1,1.1749401E0,7.787262E-1,-6.30032E-2,-7.760797E-2,2.2531426E-2,6.965904E-1,-1.0512451E-1,3.2466647E-1,1.3248961E0,8.743316E-2,-5.1099427E-2,-3.1117082E-2,8.297744E-2,8.6800866E-2,-5.0319888E-2,1.4142072E-1,8.21828E-2],"categories":[],"categories_nodes":[],"categories_segments":[],"categories_sizes":[],"default_left":[0,0,0,0,0,0,0,0,0,0,0,0,0,0,0,0,0,0,0,0,0,0,0,0,0,0,0,0,0,0,0,0,0,0,0],"id":1,"left_children":[1,3,5,7,-1,9,11,-1,-1,13,-1,15,17,19,21,-1,-1,23,25,27,-1,-1,-1,29,-1,31,33,-1,-1,-1,-1,-1,-1,-1,-1],"loss_changes":[1.8303505E2,2.7723694E-1,1.1005436E1,4.4047976E-1,0E0,2.547127E1,5.491001E0,0E0,0E0,3.5976276E0,0E0,2.7475262E-1,4.8317413E0,3.6774435E0,1.071631E0,0E0,0E0,5.8730717E0,5.6623535E0,4.2301903E0,0E0,0E0,0E0,2.8707495E0,0E0,4.254933E0,6.4818573E-1,0E0,0E0,0E0,0E0,0E0,0E0,0E0,0E0],"parents":[2147483647,0,0,1,1,2,2,3,3,5,5,6,6,9,9,11,11,12,12,13,13,14,14,17,17,18,18,19,19,23,23,25,25,26,26],"right_children":[2,4,6,8,-1,10,12,-1,-1,14,-1,16,18,20,22,-1,-1,24,26,28,-1,-1,-1,30,-1,32,34,-1,-1,-1,-1,-1,-1,-1,-1],"split_conditions":[1E0,1.849523E2,1E0,2.582577E-3,-1.7017937E-1,8.015744E-3,1.4737117E3,-1.3450438E-2,-1.0126169E-1,3.8670425E3,-1.5588523E-1,2.275E3,8.858274E-1,3.6641882E2,1.7634825E2,-6.30032E-2,-0E0,1.0800924E-2,3.323582E2,9.323E3,-6.30032E-2,-7.760797E-2,2.2531426E-2,8.4672585E1,-1.0512451E-1,1.849523E2,2.925E3,8.743316E-2,-5.1099427E-2,-3.1117082E-2,8.297744E-2,8.6800866E-2,-5.0319888E-2,1.4142072E-1,8.21828E-2],"split_indices":[9,8,1,3,0,1,5,0,0,6,0,6,10,8,7,0,0,10,8,5,0,0,0,7,0,8,6,0,0,0,0,0,0,0,0],"split_type":[0,0,0,0,0,0,0,0,0,0,0,0,0,0,0,0,0,0,0,0,0,0,0,0,0,0,0,0,0,0,0,0,0,0,0],"sum_hessian":[1.5325319E2,4.537014E1,1.0788304E2,2.4803724E0,4.2889767E1,3.9140324E1,6.874272E1,1.2411898E0,1.2391826E0,3.3679516E1,5.4608083E0,2.2486122E0,6.649411E1,3.0932156E1,2.7473598E0,1.2486122E0,1E0,1.971116E1,4.6782948E1,2.9683544E1,1.2486122E0,1.4980662E0,1.2492934E0,1.8465012E1,1.2461498E0,7.488289E0,3.929466E1,2.7934845E1,1.748699E0,1.9994446E0,1.6465567E1,4.491772E0,2.9965167E0,3.1832232E1,7.462427E0],"tree_param":{"num_deleted":"0","num_feature":"11","num_nodes":"35","size_leaf_vector":"1"}},{"base_weights":[-4.88604E-3,-1.5394814E0,6.406184E-1,-7.0069915E-1,-1.5713029E-1,1.9872293E-1,8.471047E-1,-1.0808027E-2,-9.803527E-2,4.905774E-1,-1.5196489E-1,-9.678256E-2,9.1145E-1,8.420021E-1,1.0813408E-1,9.0478696E-2,1.0314668E0,4.3886054E-2,1.3691635E0,-8.476668E-1,5.7610375E-1,5.53896E-1,-8.618405E-1,1.32987E-1,6.2491196E-1,-5.2200425E-2,1.20820835E-1,3.9694853E-2,1.497878E-1,1.1827066E-2,-1.3012902E-1,9.1309436E-2,-2.8561095E-2,8.745322E-2,-4.3470994E-2,-1.8328108E-2,-1.1246059E-1,-1.4293754E-1,8.99871E-2],"categories":[],"categories_nodes":[],"categories_segments":[],"categories_sizes":[],"default_left":[0,0,0,0,0,0,0,0,0,0,0,0,0,0,0,0,0,0,0,0,0,0,0,0,0,0,0,0,0,0,0,0,0,0,0,0,0,0,0],"id":2,"left_children":[1,3,5,7,-1,9,11,-1,-1,13,-1,-1,15,17,19,21,23,25,27,29,31,33,35,-1,37,-1,-1,-1,-1,-1,-1,-1,-1,-1,-1,-1,-1,-1,-1],"loss_changes":[1.518926E2,1.1077881E-1,9.680687E0,4.681697E-1,0E0,1.86403E1,9.437416E0,0E0,0E0,4.1099E0,0E0,0E0,6.928467E0,6.73133E0,7.6964893E0,4.9724708E0,6.7002716E0,5.541899E0,6.1774063E-1,2.6521244E0,3.575251E0,2.7449372E0,4.5811105E-1,0E0,1.7194687E1,0E0,0E0,0E0,0E0,0E0,0E0,0E0,0E0,0E0,0E0,0E0,0E0,0E0,0E0],"parents":[2147483647,0,0,1,1,2,2,3,3,5,5,6,6,9,9,12,12,13,13,14,14,15,15,16,16,17,17,18,18,19,19,20,20,21,21,22,22,24,24],"right_children":[2,4,6,8,-1,10,12,-1,-1,14,-1,-1,16,18,20,22,24,26,28,30,32,34,36,-1,38,-1,-1,-1,-1,-1,-1,-1,-1,-1,-1,-1,-1,-1,-1],"split_conditions":[1E0,1.849523E2,9.396924E-1,1.2196981E0,-1.5713029E-1,1.0800924E-2,1.4737117E3,-1.0808027E-2,-9.803527E-2,4.167427E3,-1.5196489E-1,-9.678256E-2,2.9187177E2,1.597821E3,5.25E3,1.849523E2,1.0250216E0,3.617E3,1.928E3,2.1601848E-2,9.382712E3,3.428E3,1.0047288E2,1.32987E-1,1.9984592E0,-5.2200425E-2,1.20820835E-1,3.9694853E-2,1.497878E-1,1.1827066E-2,-1.3012902E-1,9.1309436E-2,-2.8561095E-2,8.745322E-2,-4.3470994E-2,-1.8328108E-2,-1.1246059E-1,-1.4293754E-1,8.99871E-2],"split_indices":[9,8,10,10,0,10,5,0,0,5,0,0,8,6,5,8,10,5,5,2,5,6,7,0,10,0,0,0,0,0,0,0,0,0,0,0,0,0,0],"split_type":[0,0,0,0,0,0,0,0,0,0,0,0,0,0,0,0,0,0,0,0,0,0,0,0,0,0,0,0,0,0,0,0,0,0,0,0,0,0,0],"sum_hessian":[1.5134018E2,4.440016E1,1.0694002E2,2.4642704E0,4.193589E1,3.468151E1,7.225851E1,1.2345635E0,1.2297068E0,3.0257055E1,4.424457E0,1.9933296E0,7.0265175E1,1.5141754E1,1.51153E1,9.1855545E0,6.107962E1,6.453891E0,8.687863E0,4.701463E0,1.0413837E1,6.460244E0,2.7253108E0,3.3915363E1,2.7164255E1,4.7142916E0,1.7395991E0,1.4932078E0,7.194656E0,1.7385983E0,2.9628649E0,7.443345E0,2.9704924E0,4.965246E0,1.4949981E0,1.2346046E0,1.4907062E0,2.711023E0,2.4453232E1],"tree_param":{"num_deleted":"0","num_feature":"11","num_nodes":"39","size_leaf_vector":"1"}},{"base_weights":[-6.889982E-3,-1.4376639E0,5.8386E-1,-1.454552E0,-4.552918E-2,1.9700842E-1,7.9919064E-1,-6.6600156E-1,-1.4858155E-1,4.8055345E-1,-1.3869655E-1,-3.7816543E-2,8.4485203E-1,-1.0217693E-2,-9.341549E-2,5.696426E-1,-3.976789E-1,4.5186904E-1,9.996471E-1,7.534524E-1,1.6539654E-2,-7.522722E-2,1.7448595E-2,5.865028E-1,-9.258827E-2,1.1019387E0,5.8795284E-2,8.568459E-2,-6.11822E-2,-4.6574295E-2,1.1421617E-1,-3.0706152E-2,7.07682E-2,1.2712519E-1,4.7785923E-2,-1.0623143E-1,6.2006682E-2],"categories":[],"categories_nodes":[],"categories_segments":[],"categories_sizes":[],"default_left":[0,0,0,0,0,0,0,0,0,0,0,0,0,0,0,0,0,0,0,0,0,0,0,0,0,0,0,0,0,0,0,0,0,0,0,0,0],"id":3,"left_children":[1,3,5,7,-1,9,11,13,-1,15,-1,-1,17,-1,-1,19,21,23,25,27,29,-1,-1,31,-1,33,35,-1,-1,-1,-1,-1,-1,-1,-1,-1,-1],"loss_changes":[1.2729719E2,6.790924E-2,8.722702E0,6.585693E-2,0E0,1.8383135E1,3.9835625E0,4.2540038E-1,0E0,2.9023929E0,0E0,0E0,3.558384E0,0E0,0E0,3.1860962E0,8.8978714E-1,4.336962E0,4.407318E0,3.854435E0,5.347172E0,0E0,0E0,2.3011513E0,0E0,3.815094E0,4.1906857E0,0E0,0E0,0E0,0E0,0E0,0E0,0E0,0E0,0E0,0E0],"parents":[2147483647,0,0,1,1,2,2,3,3,5,5,6,6,7,7,9,9,12,12,15,15,16,16,17,17,18,18,19,19,20,20,23,23,25,25,26,26],"right_children":[2,4,6,8,-1,10,12,14,-1,16,-1,-1,18,-1,-1,20,22,24,26,28,30,-1,-1,32,-1,34,36,-1,-1,-1,-1,-1,-1,-1,-1,-1,-1],"split_conditions":[1E0,4.983E3,1E0,1.849523E2,-4.552918E-2,8.015744E-3,1.4737117E3,1.2196981E0,-1.4858155E-1,3.8670425E3,-1.3869655E-1,-3.7816543E-2,8.858274E-1,-1.0217693E-2,-9.341549E-2,2.582577E-3,1.7634825E2,1.0800924E-2,2.0270875E0,3.6641882E2,1.56E3,-7.522722E-2,1.7448595E-2,8.4672585E1,-9.258827E-2,2.925E3,2.720109E0,8.568459E-2,-6.11822E-2,-4.6574295E-2,1.1421617E-1,-3.0706152E-2,7.07682E-2,1.2712519E-1,4.7785923E-2,-1.0623143E-1,6.2006682E-2],"split_indices":[9,6,1,8,0,1,5,10,0,6,0,0,10,0,0,3,7,10,2,8,6,0,0,7,0,6,2,0,0,0,0,0,0,0,0,0,0],"split_type":[0,0,0,0,0,0,0,0,0,0,0,0,0,0,0,0,0,0,0,0,0,0,0,0,0,0,0,0,0,0,0,0,0,0,0,0,0],"sum_hessian":[1.4861354E2,4.3010387E1,1.0560315E2,4.1810955E1,1.1994313E0,3.844672E1,6.7156425E1,2.4449673E0,3.936599E1,3.320021E1,5.2465096E0,2.2354174E0,6.492101E1,1.2331532E0,1.211814E0,3.0461525E1,2.7386856E0,1.9453342E1,4.5467667E1,2.2591562E1,7.8699627E0,1.4964771E0,1.2422084E0,1.824477E1,1.2085731E0,4.085464E1,4.613027E0,2.1347311E1,1.2442513E0,5.9198055E0,1.9501572E0,1.9955813E0,1.624919E1,3.1320393E1,9.534246E0,1.2411684E0,3.3718586E0],"tree_param":{"num_deleted":"0","num_feature":"11","num_nodes":"37","size_leaf_vector":"1"}},{"base_weights":[-9.219184E-3,-1.3545904E0,5.334054E-1,-1.389635E0,-6.6466784E-1,1.7678122E-1,7.328605E-1,-1.4080642E-1,-4.328255E-2,-9.8443694E-2,5.9861024E-3,4.3759E-1,-1.3090257E-1,-3.527193E-2,7.75656E-1,5.3540856E-1,-3.3030942E-1,1.0682603E0,5.676081E-1,2.2065663E-1,7.941889E-1,1.9769635E-2,-8.260646E-2,1.1655405E0,9.4914876E-2,3.131543E-1,1.0361648E0,6.538894E-2,-8.837124E-2,3.8095396E-2,1.2492343E-1,4.2630542E-2,1.2682208E-1,-3.4441706E-2,4.9359582E-2,4.6261963E-2,-7.8141354E-2,4.227907E-2,1.2116086E-1],"categories":[],"categories_nodes":[],"categories_segments":[],"categories_sizes":[],"default_left":[0,0,0,0,0,0,0,0,0,0,0,0,0,0,0,0,0,0,0,0,0,0,0,0,0,0,0,0,0,0,0,0,0,0,0,0,0,0,0],"id":4,"left_children":[1,3,5,7,9,11,13,-1,-1,-1,-1,15,-1,-1,17,19,21,23,25,27,29,-1,-1,31,33,35,37,-1,-1,-1,-1,-1,-1,-1,-1,-1,-1,-1,-1],"loss_changes":[1.0756525E2,1.0018158E-1,7.3397064E0,8.4983826E-2,9.7726846E-1,1.5678882E1,3.3874588E0,0E0,0E0,0E0,0E0,2.7240524E0,0E0,0E0,3.3381577E0,2.30583E0,1.3281691E0,2.3315964E0,4.444992E0,7.8161774E0,2.595172E0,0E0,0E0,1.2325115E0,7.7117074E-1,4.837264E0,9.561844E-1,0E0,0E0,0E0,0E0,0E0,0E0,0E0,0E0,0E0,0E0,0E0,0E0],"parents":[2147483647,0,0,1,1,2,2,3,3,4,4,5,5,6,6,11,11,14,14,15,15,16,16,17,17,18,18,19,19,20,20,23,23,24,24,25,25,26,26],"right_children":[2,4,6,8,10,12,14,-1,-1,-1,-1,16,-1,-1,18,20,22,24,26,28,30,-1,-1,32,34,36,38,-1,-1,-1,-1,-1,-1,-1,-1,-1,-1,-1,-1],"split_conditions":[1E0,4E0,1E0,4.983E3,1.281666E2,8.015744E-3,1.4737117E3,-1.4080642E-1,-4.328255E-2,-9.8443694E-2,5.9861024E-3,1.88E2,-1.3090257E-1,-3.527193E-2,3.502828E3,3.617E3,2.1601848E-2,3.583E3,6.1715215E3,3.34E3,1.27E2,1.9769635E-2,-8.260646E-2,5.7402527E2,2.333E3,6E3,1.6198491E2,6.538894E-2,-8.837124E-2,3.8095396E-2,1.2492343E-1,4.2630542E-2,1.2682208E-1,-3.4441706E-2,4.9359582E-2,4.6261963E-2,-7.8141354E-2,4.227907E-2,1.2116086E-1],"split_indices":[9,2,1,6,7,1,5,0,0,0,0,7,0,0,5,5,2,6,5,5,7,0,0,6,5,5,7,0,0,0,0,0,0,0,0,0,0,0,0],"split_type":[0,0,0,0,0,0,0,0,0,0,0,0,0,0,0,0,0,0,0,0,0,0,0,0,0,0,0,0,0,0,0,0,0,0,0,0,0,0,0],"sum_hessian":[1.4535353E2,4.134566E1,1.04007866E2,3.838187E1,2.9637918E0,3.7982235E1,6.6025635E1,3.719385E1,1.1880174E0,1.8073814E0,1.1564106E0,3.2910778E1,5.071455E0,2.2294655E0,6.3796165E1,2.9460701E1,3.4500775E0,2.4792551E1,3.9003616E1,1.4128739E1,1.5331963E1,1.9618373E0,1.4882402E0,2.2360312E1,2.432239E0,2.6358007E1,1.2645609E1,1.0440819E1,3.6879199E0,8.997944E0,6.3340187E0,3.3553865E0,1.9004925E1,1.2218801E0,1.2103589E0,2.3699188E1,2.6588192E0,3.5709488E0,9.07466E0],"tree_param":{"num_deleted":"0","num_feature":"11","num_nodes":"39","size_leaf_vector":"1"}},{"base_weights":[-9.309489E-3,-1.2837065E0,4.899841E-1,-5.592113E-1,-1.3138614E0,1.17525846E-1,6.673602E-1,-1.8802049E-3,-8.50593E-2,-1.3314198E-1,-4.116645E-2,3.626438E-1,-1.3416573E-1,9.7944957E-1,3.1011313E-1,6.9828546E-1,4.7312947E-3,-1.3327248E-1,1.1143154E0,-1.4079516E-1,5.7105225E-1,4.5417226E-3,1.1735982E0,-8.407034E-1,4.313089E-1,3.3122236E-1,-7.2200716E-2,1.1454924E0,4.4466406E-2,-4.0508726E-1,7.6118106E-1,-5.18925E-2,1.102991E-1,3.599221E-2,1.2810914E-1,5.310887E-3,-1.2502947E-1,7.4094556E-2,-3.3019926E-2,2.6498816E-3,4.8505403E-2,1.1839225E-1,4.1582853E-2,5.8116477E-2,-1.1904674E-1,8.578003E-2,1.0009731E-2],"categories":[],"categories_nodes":[],"categories_segments":[],"categories_sizes":[],"default_left":[0,0,0,0,0,0,0,0,0,0,0,0,0,0,0,0,0,0,0,0,0,0,0,0,0,0,0,0,0,0,0,0,0,0,0,0,0,0,0,0,0,0,0,0,0,0,0],"id":5,"left_children":[1,3,5,7,9,11,13,-1,-1,-1,-1,15,-1,17,19,21,23,25,27,-1,29,31,33,35,37,39,-1,41,-1,43,45,-1,-1,-1,-1,-1,-1,-1,-1,-1,-1,-1,-1,-1,-1,-1,-1],"loss_changes":[9.161171E1,1.5066528E-1,6.756693E0,5.131595E-1,5.6510925E-2,1.28584E1,7.4863186E0,0E0,0E0,0E0,0E0,3.6489396E0,0E0,5.6753387E0,1.606519E1,5.1658916E0,6.031869E0,1.5721228E0,1.7865372E-1,0E0,5.9251966E0,4.8159027E0,3.5254192E-1,2.120515E0,2.864067E0,1.4700454E-1,0E0,3.7286758E-1,0E0,5.0190463E0,1.5542793E0,0E0,0E0,0E0,0E0,0E0,0E0,0E0,0E0,0E0,0E0,0E0,0E0,0E0,0E0,0E0,0E0],"parents":[2147483647,0,0,1,1,2,2,3,3,4,4,5,5,6,6,11,11,13,13,14,14,15,15,16,16,17,17,18,18,20,20,21,21,22,22,23,23,24,24,25,25,27,27,29,29,30,30],"right_children":[2,4,6,8,10,12,14,-1,-1,-1,-1,16,-1,18,20,22,24,26,28,-1,30,32,34,36,38,40,-1,42,-1,44,46,-1,-1,-1,-1,-1,-1,-1,-1,-1,-1,-1,-1,-1,-1,-1,-1],"split_conditions":[1E0,1.849523E2,9.396924E-1,2.582577E-3,4.983E3,1.0800924E-2,1.0250216E0,-1.8802049E-3,-8.50593E-2,-1.3314198E-1,-4.116645E-2,4.167427E3,-1.3416573E-1,2.7440298E2,1.9984592E0,1.597821E3,5.25E3,1.1576754E2,2.5295622E2,-1.4079516E-1,2.121341E3,3.617E3,1.928E3,8.015744E-3,9.382712E3,3.366E3,-7.2200716E-2,2.0270875E0,4.4466406E-2,1.0047288E2,3.274E3,-5.18925E-2,1.102991E-1,3.599221E-2,1.2810914E-1,5.310887E-3,-1.2502947E-1,7.4094556E-2,-3.3019926E-2,2.6498816E-3,4.8505403E-2,1.1839225E-1,4.1582853E-2,5.8116477E-2,-1.1904674E-1,8.578003E-2,1.0009731E-2],"split_indices":[9,8,10,3,6,10,10,0,0,0,0,5,0,8,10,6,5,7,7,0,5,5,5,1,5,5,0,2,0,7,6,0,0,0,0,0,0,0,0,0,0,0,0,0,0,0,0],"split_type":[0,0,0,0,0,0,0,0,0,0,0,0,0,0,0,0,0,0,0,0,0,0,0,0,0,0,0,0,0,0,0,0,0,0,0,0,0,0,0,0,0,0,0,0,0,0,0],"sum_hessian":[1.4198752E2,3.952721E1,1.0246031E2,2.3604374E0,3.7166775E1,3.3589954E1,6.887035E1,1.1997869E0,1.1606505E0,3.599058E1,1.1761937E0,2.9402338E1,4.1876187E0,3.582881E1,3.3041542E1,1.4682475E1,1.4719862E1,3.8744152E0,3.1954395E1,3.7770612E0,2.9264482E1,6.3800354E0,8.30244E0,4.6108336E0,1.0109028E1,2.41022E0,1.4641953E0,2.9853899E1,2.1004958E0,4.5864773E0,2.4678005E1,4.6782136E0,1.701822E0,1.4762449E0,6.826195E0,1.7224438E0,2.8883898E0,7.2060003E0,2.9030278E0,1.2018152E0,1.2084047E0,2.776881E1,2.08509E0,2.1484952E0,2.437982E0,2.1271544E1,3.4064627E0],"tree_param":{"num_deleted":"0","num_feature":"11","num_nodes":"47","size_leaf_vector":"1"}},{"base_weights":[-1.0215027E-2,-1.2232344E0,4.516495E-1,-1.2588786E0,-5.6292754E-1,1.2691864E-1,6.3455445E-1,-1.2767106E-1,-3.9170366E-2,-8.8954724E-2,1.1375329E-2,3.486771E-1,-1.1909286E-1,8.977848E-1,4.34698E-1,4.3193656E-1,-4.2709E-1,1.0740585E0,9.5609486E-2,2.1049513E-1,8.162055E-1,2.544304E-1,9.655607E-1,-7.5091206E-2,1.2956743E-2,4.3743935E-1,1.260657E-1,-1.2944405E-1,9.674553E-2,4.1502258E-1,-7.894932E-1,-6.82636E-3,9.64064E-1,5.0780695E-2,-4.578788E-2,1.2901913E-1,-2.1560086E-2,-1.9442432E-2,1.1063141E-1,-6.977782E-2,6.0101178E-2,-1.185702E-1,1.13981925E-2,1.3110504E-1,5.082479E-2],"categories":[],"categories_nodes":[],"categories_segments":[],"categories_sizes":[],"default_left":[0,0,0,0,0,0,0,0,0,0,0,0,0,0,0,0,0,0,0,0,0,0,0,0,0,0,0,0,0,0,0,0,0,0,0,0,0,0,0,0,0,0,0,0,0],"id":6,"left_children":[1,3,5,7,9,11,13,-1,-1,-1,-1,15,-1,17,19,21,23,25,27,29,31,33,35,-1,-1,37,-1,-1,-1,39,41,-1,43,-1,-1,-1,-1,-1,-1,-1,-1,-1,-1,-1,-1],"loss_changes":[7.8414696E1,1.9969177E-1,5.941126E0,5.363083E-2,9.3785095E-1,1.1456E1,3.0084534E0,0E0,0E0,0E0,0E0,2.3231268E0,0E0,3.7070942E0,3.1350994E0,2.6337872E0,7.6642203E-1,2.0609226E0,8.465158E0,5.5836368E0,1.8918333E0,4.5945873E0,3.0505176E0,0E0,0E0,2.9690504E0,0E0,0E0,0E0,4.9706793E0,1.8205068E0,0E0,1.2362204E0,0E0,0E0,0E0,0E0,0E0,0E0,0E0,0E0,0E0,0E0,0E0,0E0],"parents":[2147483647,0,0,1,1,2,2,3,3,4,4,5,5,6,6,11,11,13,13,14,14,15,15,16,16,17,17,18,18,19,19,20,20,21,21,22,22,25,25,29,29,30,30,32,32],"right_children":[2,4,6,8,10,12,14,-1,-1,-1,-1,16,-1,18,20,22,24,26,28,30,32,34,36,-1,-1,38,-1,-1,-1,40,42,-1,44,-1,-1,-1,-1,-1,-1,-1,-1,-1,-1,-1,-1],"split_conditions":[1E0,4E0,1E0,4.983E3,1.281666E2,8.015744E-3,1.2594983E2,-1.2767106E-1,-3.9170366E-2,-8.8954724E-2,1.1375329E-2,3.8670425E3,-1.1909286E-1,2.365E3,2.275E3,1.56E3,1.7634825E2,1.0800924E-2,2.33E3,2.083E3,3.323582E2,2.582577E-3,4.416E3,-7.5091206E-2,1.2956743E-2,1.398E3,1.260657E-1,-1.2944405E-1,9.674553E-2,1.3E2,8.858274E-1,-6.82636E-3,3.717E3,5.0780695E-2,-4.578788E-2,1.2901913E-1,-2.1560086E-2,-1.9442432E-2,1.1063141E-1,-6.977782E-2,6.0101178E-2,-1.185702E-1,1.13981925E-2,1.3110504E-1,5.082479E-2],"split_indices":[9,2,1,6,7,1,7,0,0,0,0,6,0,6,6,6,7,10,5,6,8,3,5,0,0,6,0,0,0,7,10,0,5,0,0,0,0,0,0,0,0,0,0,0,0],"split_type":[0,0,0,0,0,0,0,0,0,0,0,0,0,0,0,0,0,0,0,0,0,0,0,0,0,0,0,0,0,0,0,0,0,0,0,0,0,0,0,0,0,0,0,0,0],"sum_hessian":[1.3797748E2,3.759397E1,1.00383514E2,3.4808464E1,2.7855046E0,3.677925E1,6.3604267E1,3.364436E1,1.1641061E0,1.6665307E0,1.118974E0,3.211121E1,4.6680393E0,2.5942854E1,3.766141E1,2.939915E1,2.7120597E0,2.0991215E1,4.9516387E0,2.4698462E1,1.2962951E1,2.3168962E1,6.2301884E0,1.4939969E0,1.218063E0,5.5161176E0,1.5475098E1,1.721773E0,3.2298658E0,2.0990294E1,3.7081685E0,1.9337636E0,1.1029187E1,1.730166E1,5.8673015E0,4.8146286E0,1.4155601E0,3.2012908E0,2.3148267E0,2.611799E0,1.8378494E1,2.3605826E0,1.3475859E0,5.1968536E0,5.8323336E0],"tree_param":{"num_deleted":"0","num_feature":"11","num_nodes":"45","size_leaf_vector":"1"}},{"base_weights":[-1.0323379E-2,-1.169676E0,4.1681534E-1,-4.6932715E-1,-1.2020385E0,1.1424652E-1,5.881579E-1,3.58277E-3,-7.692843E-2,-1.2195622E-1,-3.7284985E-2,3.1924114E-1,-1.1398355E-1,8.4186953E-1,3.9883578E-1,4.098964E-1,-3.5742205E-1,1.0112675E0,8.256474E-2,2.4229982E-1,9.4255596E-1,1.2777802E-1,6.467311E-1,1.4393768E-2,-8.029382E-2,5.721208E-1,1.2896425E-1,-1.2150712E-1,9.1407925E-2,4.0125854E-2,7.7859294E-1,1.150213E-1,2.473384E-2,5.1470626E-2,-8.093329E-2,2.5130857E-2,1.1008026E-1,-1.8586135E-2,8.7821506E-2,3.7623566E-2,-4.8961755E-2,-4.9113996E-2,1.0498233E-1],"categories":[],"categories_nodes":[],"categories_segments":[],"categories_sizes":[],"default_left":[0,0,0,0,0,0,0,0,0,0,0,0,0,0,0,0,0,0,0,0,0,0,0,0,0,0,0,0,0,0,0,0,0,0,0,0,0,0,0,0,0,0,0],"id":7,"left_children":[1,3,5,7,9,11,13,-1,-1,-1,-1,15,-1,17,19,21,23,25,27,29,31,33,35,-1,-1,37,-1,-1,-1,39,41,-1,-1,-1,-1,-1,-1,-1,-1,-1,-1,-1,-1],"loss_changes":[6.7393616E1,2.6626205E-1,5.089596E0,5.2135026E-1,4.483795E-2,9.928353E0,2.703064E0,0E0,0E0,0E0,0E0,2.156007E0,0E0,3.2781124E0,3.0169535E0,1.8786583E0,1.0993685E0,1.8634682E0,7.42931E0,3.3247802E0,8.9609194E-1,5.725857E0,2.5443525E0,0E0,0E0,2.4956396E0,0E0,0E0,0E0,4.374288E0,3.4152784E0,0E0,0E0,0E0,0E0,0E0,0E0,0E0,0E0,0E0,0E0,0E0,0E0],"parents":[2147483647,0,0,1,1,2,2,3,3,4,4,5,5,6,6,11,11,13,13,14,14,15,15,16,16,17,17,18,18,19,19,20,20,21,21,22,22,25,25,29,29,30,30],"right_children":[2,4,6,8,10,12,14,-1,-1,-1,-1,16,-1,18,20,22,24,26,28,30,32,34,36,-1,-1,38,-1,-1,-1,40,42,-1,-1,-1,-1,-1,-1,-1,-1,-1,-1,-1,-1],"split_conditions":[1E0,1.849523E2,1E0,1.2196981E0,4.983E3,8.015744E-3,1.2594983E2,3.58277E-3,-7.692843E-2,-1.2195622E-1,-3.7284985E-2,1.88E2,-1.1398355E-1,2.365E3,3.033E3,3.617E3,8.624E3,7.54E2,2.33E3,6.5E3,1.0250216E0,3.34E3,1.27E2,1.4393768E-2,-8.029382E-2,1.0800924E-2,1.2896425E-1,-1.2150712E-1,9.1407925E-2,1.6198491E2,1.76E2,1.150213E-1,2.473384E-2,5.1470626E-2,-8.093329E-2,2.5130857E-2,1.1008026E-1,-1.8586135E-2,8.7821506E-2,3.7623566E-2,-4.8961755E-2,-4.9113996E-2,1.0498233E-1],"split_indices":[9,8,1,10,6,1,7,0,0,0,0,7,0,6,6,5,5,6,5,5,10,5,7,0,0,10,0,0,0,7,7,0,0,0,0,0,0,0,0,0,0,0,0],"split_type":[0,0,0,0,0,0,0,0,0,0,0,0,0,0,0,0,0,0,0,0,0,0,0,0,0,0,0,0,0,0,0,0,0,0,0,0,0,0,0,0,0,0,0],"sum_hessian":[1.34108E2,3.5638508E1,9.84695E1,2.2587976E0,3.337971E1,3.6204247E1,6.2265247E1,1.169616E0,1.0891815E0,3.2227837E1,1.1518764E0,3.1758398E1,4.4458494E0,2.5134972E1,3.7130276E1,2.8353947E1,3.4044528E0,2.0278975E1,4.8559966E0,2.995261E1,7.177664E0,1.3642486E1,1.471146E1,1.920333E0,1.4841199E0,9.052901E0,1.1226074E1,1.7163067E0,3.13969E0,2.253289E1,7.4197206E0,5.022893E0,2.1547709E0,9.974725E0,3.6677606E0,8.693923E0,6.0175376E0,2.7171676E0,6.3357334E0,1.3963287E1,8.569602E0,1.1632618E0,6.2564588E0],"tree_param":{"num_deleted":"0","num_feature":"11","num_nodes":"43","size_leaf_vector":"1"}},{"base_weights":[-9.573516E-3,-1.1224575E0,3.8599294E-1,-1.1601082E0,-4.7576076E-1,7.08069E-2,5.388444E-1,-1.1782922E-1,-3.5502136E-2,-8.117786E-2,1.5913209E-2,2.7924478E-1,-1.2048544E-1,8.3176774E-1,2.1155128E-1,5.802747E-1,-3.3629674E-2,-1.698133E-1,9.611632E-1,-1.296795E-1,4.420568E-1,1.2059904E-2,9.942886E-1,-7.690535E-1,3.461229E-1,2.6982558E-1,-6.938764E-2,1.119755E0,7.20941E-1,-2.76728E-1,6.6089135E-1,-4.7369536E-2,1.04045115E-1,2.407924E-2,1.1113421E-1,6.0893926E-3,-1.1619371E-1,6.68564E-2,-2.4598654E-2,4.420763E-2,-2.8812673E-3,1.198928E-1,4.5666464E-2,-2.1920824E-2,8.090466E-2,3.815615E-2,-1.2683637E-1,9.554725E-2,4.1382268E-2],"categories":[],"categories_nodes":[],"categories_segments":[],"categories_sizes":[],"default_left":[0,0,0,0,0,0,0,0,0,0,0,0,0,0,0,0,0,0,0,0,0,0,0,0,0,0,0,0,0,0,0,0,0,0,0,0,0,0,0,0,0,0,0,0,0,0,0,0,0],"id":8,"left_children":[1,3,5,7,9,11,13,-1,-1,-1,-1,15,-1,17,19,21,23,25,27,-1,29,31,33,35,37,39,-1,41,43,45,47,-1,-1,-1,-1,-1,-1,-1,-1,-1,-1,-1,-1,-1,-1,-1,-1,-1,-1],"loss_changes":[5.821231E1,2.9234314E-1,4.6627483E0,5.1193237E-2,8.9779997E-1,9.115734E0,6.1092606E0,0E0,0E0,0E0,0E0,2.7689798E0,0E0,4.6026325E0,1.1804751E1,3.5008736E0,4.5279193E0,1.285984E0,3.5414696E-1,0E0,4.707856E0,4.142751E0,4.9321747E-1,1.8663728E0,2.2174172E0,1.831796E-1,0E0,3.216133E-1,1.4140916E0,5.326957E0,1.231163E0,0E0,0E0,0E0,0E0,0E0,0E0,0E0,0E0,0E0,0E0,0E0,0E0,0E0,0E0,0E0,0E0,0E0,0E0],"parents":[2147483647,0,0,1,1,2,2,3,3,4,4,5,5,6,6,11,11,13,13,14,14,15,15,16,16,17,17,18,18,20,20,21,21,22,22,23,23,24,24,25,25,27,27,28,28,29,29,30,30],"right_children":[2,4,6,8,10,12,14,-1,-1,-1,-1,16,-1,18,20,22,24,26,28,-1,30,32,34,36,38,40,-1,42,44,46,48,-1,-1,-1,-1,-1,-1,-1,-1,-1,-1,-1,-1,-1,-1,-1,-1,-1,-1],"split_conditions":[1E0,4E0,9.396924E-1,4.983E3,1.281666E2,1.0800924E-2,1.0250216E0,-1.1782922E-1,-3.5502136E-2,-8.117786E-2,1.5913209E-2,4.167427E3,-1.2048544E-1,2.7440298E2,1.9984592E0,1.597821E3,5.25E3,1.1576754E2,4.191E3,-1.296795E-1,2.479E3,3.617E3,1.928E3,4.384E3,8.624E3,7.4E1,-6.938764E-2,1.504514E2,4.35E3,2.4262544E3,3.704E3,-4.7369536E-2,1.04045115E-1,2.407924E-2,1.1113421E-1,6.0893926E-3,-1.1619371E-1,6.68564E-2,-2.4598654E-2,4.420763E-2,-2.8812673E-3,1.198928E-1,4.5666464E-2,-2.1920824E-2,8.090466E-2,3.815615E-2,-1.2683637E-1,9.554725E-2,4.1382268E-2],"split_indices":[9,2,10,6,7,10,10,0,0,0,0,5,0,8,10,6,5,7,5,0,5,5,5,5,5,7,0,7,5,6,5,0,0,0,0,0,0,0,0,0,0,0,0,0,0,0,0,0,0],"split_type":[0,0,0,0,0,0,0,0,0,0,0,0,0,0,0,0,0,0,0,0,0,0,0,0,0,0,0,0,0,0,0,0,0,0,0,0,0,0,0,0,0,0,0,0,0,0,0,0,0],"sum_hessian":[1.3025053E2,3.3674194E1,9.657634E1,3.1071321E1,2.6028724E0,3.2017723E1,6.455862E1,2.9931713E1,1.1396068E0,1.5198712E0,1.0830011E0,2.819231E1,3.8254113E0,3.325471E1,3.1303911E1,1.393255E1,1.4259761E1,3.7689478E0,2.9485762E1,3.5364919E0,2.776742E1,6.3064165E0,7.626134E0,4.5068026E0,9.752958E0,2.313375E0,1.455573E0,1.5555124E1,1.3930637E1,6.4189973E0,2.1348421E1,4.6495895E0,1.6568274E0,1.4364614E0,6.189672E0,1.719484E0,2.7873185E0,6.2307806E0,3.5221772E0,1.1625336E0,1.1508412E0,1.3174054E1,2.3810706E0,1.0661418E0,1.2864495E1,4.2276955E0,2.191302E0,8.430025E0,1.2918396E1],"tree_param":{"num_deleted":"0","num_feature":"11","num_nodes":"49","size_leaf_vector":"1"}},{"base_weights":[-1.00149E-2,-1.0792983E0,3.5769945E-1,-3.9181682E-1,-1.1147733E0,4.6954352E-1,-3.7554346E-2,9.890489E-3,-7.133978E-2,-1.13300085E-1,-3.3814486E-2,-2.534521E-1,5.4535043E-1,-1.324062E-1,3.4771633E-1,3.3536944E-1,-7.109008E-1,9.6692693E-1,3.8553926E-1,-7.7026606E-2,1.0803103E-1,7.1241125E-2,-3.420024E-2,-1.1993138E-1,2.6507923E-2,2.6958108E-1,1.2361526E-1,6.001877E-1,-8.021518E-2,7.838163E-2,-7.435189E-2,-3.506594E-2,5.1461816E-2,-1.0058432E-2,6.702366E-2,-7.201952E-2,6.2257E-2,-2.109134E-2,9.7799845E-2],"categories":[],"categories_nodes":[],"categories_segments":[],"categories_sizes":[],"default_left":[0,0,0,0,0,0,0,0,0,0,0,0,0,0,0,0,0,0,0,0,0,0,0,0,0,0,0,0,0,0,0,0,0,0,0,0,0,0,0],"id":9,"left_children":[1,3,5,7,9,11,13,-1,-1,-1,-1,15,17,-1,19,21,23,25,27,29,-1,-1,-1,-1,-1,31,-1,33,35,37,-1,-1,-1,-1,-1,-1,-1,-1,-1],"loss_changes":[5.0341682E1,3.6218262E-1,4.2301636E0,5.6756955E-1,5.0209045E-2,4.21311E0,1.1336613E1,0E0,0E0,0E0,0E0,2.322801E0,4.182274E0,0E0,5.584049E0,1.2812858E0,2.5466733E0,3.0313797E0,5.115652E0,1.314039E0,0E0,0E0,0E0,0E0,0E0,1.1334841E0,0E0,1.776454E0,8.037292E0,3.0003662E0,0E0,0E0,0E0,0E0,0E0,0E0,0E0,0E0,0E0],"parents":[2147483647,0,0,1,1,2,2,3,3,4,4,5,5,6,6,11,11,12,12,14,14,15,15,16,16,17,17,18,18,19,19,25,25,27,27,28,28,29,29],"right_children":[2,4,6,8,10,12,14,-1,-1,-1,-1,16,18,-1,20,22,24,26,28,30,-1,-1,-1,-1,-1,32,-1,34,36,38,-1,-1,-1,-1,-1,-1,-1,-1,-1],"split_conditions":[1E0,1.849523E2,2.582577E-3,2.582577E-3,4.983E3,2.137E3,9.8730487E-1,9.890489E-3,-7.133978E-2,-1.13300085E-1,-3.3814486E-2,2.2355474E3,3.34E3,-1.324062E-1,1.597821E3,1.0047288E2,1.15E2,1.612E1,2.064E3,1.6E2,1.0803103E-1,7.1241125E-2,-3.420024E-2,-1.1993138E-1,2.6507923E-2,2.647E3,1.2361526E-1,3.5598962E3,3.033E3,1.3E2,-7.435189E-2,-3.506594E-2,5.1461816E-2,-1.0058432E-2,6.702366E-2,-7.201952E-2,6.2257E-2,-2.109134E-2,9.7799845E-2],"split_indices":[9,8,3,3,6,5,3,0,0,0,0,6,5,0,6,7,7,6,6,7,0,0,0,0,0,5,0,5,6,7,0,0,0,0,0,0,0,0,0],"split_type":[0,0,0,0,0,0,0,0,0,0,0,0,0,0,0,0,0,0,0,0,0,0,0,0,0,0,0,0,0,0,0,0,0,0,0,0,0,0,0],"sum_hessian":[1.26051834E2,3.1760305E1,9.429153E1,2.1494918E0,2.9610813E1,7.334836E1,2.0943172E1,1.1250876E0,1.0244043E0,2.848343E1,1.1273818E0,6.7384186E0,6.660994E1,4.2649193E0,1.6678253E1,3.0628417E0,3.6755767E0,1.6921402E1,4.9688534E1,1.1123775E1,5.5544796E0,1.9343863E0,1.1284554E0,2.2971673E0,1.3784094E0,5.2706714E0,1.1650731E1,3.3815586E1,1.5872949E1,9.735996E0,1.3877779E0,1.3705282E0,3.900143E0,3.0334013E0,3.0782185E1,8.294722E0,7.5782275E0,7.9462323E0,1.7897643E0],"tree_param":{"num_deleted":"0","num_feature":"11","num_nodes":"39","size_leaf_vector":"1"}},{"base_weights":[-1.0380486E-2,-1.0401397E0,3.3017743E-1,-1.0807258E0,-3.9927304E-1,5.704153E-2,4.8693022E-1,-5.6630194E-1,-1.1302891E-1,-7.457384E-2,1.9740904E-2,2.2587092E-1,-1.0402936E-1,7.368249E-1,3.078196E-1,-8.116733E-2,-8.0306E-3,3.0412868E-1,-4.498024E-1,8.8980454E-1,5.994284E-2,1.0219884E-1,6.697152E-1,3.6973295E-1,-6.492706E-2,-7.310101E-2,7.459476E-3,3.1877327E-1,1.073417E0,-1.0321277E-1,7.8788024E-1,2.6863745E-1,-7.857709E-1,-1.0505668E-2,8.102602E-1,4.5959625E-2,-6.326642E-2,-1.962703E-2,9.288225E-2,1.11905254E-1,3.1973094E-2,2.2155417E-2,9.130999E-2,-7.114017E-2,4.422393E-2,-1.009988E-1,-8.835773E-3,1.1460256E-1,4.021519E-2],"categories":[],"categories_nodes":[],"categories_segments":[],"categories_sizes":[],"default_left":[0,0,0,0,0,0,0,0,0,0,0,0,0,0,0,0,0,0,0,0,0,0,0,0,0,0,0,0,0,0,0,0,0,0,0,0,0,0,0,0,0,0,0,0,0,0,0,0,0],"id":10,"left_children":[1,3,5,7,9,11,13,15,-1,-1,-1,17,-1,19,21,-1,-1,23,25,27,29,31,33,35,-1,-1,-1,37,39,-1,41,43,45,-1,47,-1,-1,-1,-1,-1,-1,-1,-1,-1,-1,-1,-1,-1,-1],"loss_changes":[4.3599937E1,3.7209702E-1,3.9732876E0,8.578873E-2,8.55471E-1,6.7577033E0,2.4248095E0,4.7215652E-1,0E0,0E0,0E0,1.7936913E0,0E0,2.433529E0,2.6272562E0,0E0,0E0,2.0338507E0,5.9365344E-1,1.704133E0,5.185055E0,3.7996123E0,1.4947338E0,2.7652218E0,0E0,0E0,0E0,2.1212578E0,1.3562584E-1,0E0,7.192683E-2,3.920371E0,5.4993176E-1,0E0,1.0563459E0,0E0,0E0,0E0,0E0,0E0,0E0,0E0,0E0,0E0,0E0,0E0,0E0,0E0,0E0],"parents":[2147483647,0,0,1,1,2,2,3,3,4,4,5,5,6,6,7,7,11,11,13,13,14,14,17,17,18,18,19,19,20,20,21,21,22,22,23,23,27,27,28,28,30,30,31,31,32,32,34,34],"right_children":[2,4,6,8,10,12,14,16,-1,-1,-1,18,-1,20,22,-1,-1,24,26,28,30,32,34,36,-1,-1,-1,38,40,-1,42,44,46,-1,48,-1,-1,-1,-1,-1,-1,-1,-1,-1,-1,-1,-1,-1,-1],"split_conditions":[1E0,4E0,1E0,2.492E3,1.281666E2,8.015744E-3,1.2594983E2,1.881E3,-1.1302891E-1,-7.457384E-2,1.9740904E-2,3.8670425E3,-1.0402936E-1,2.365E3,2.275E3,-8.116733E-2,-8.0306E-3,3.6641882E2,1.7634825E2,1.0800924E-2,2.33E3,2.087E3,3.323582E2,9.323E3,-6.492706E-2,-7.310101E-2,7.459476E-3,1.398E3,8.015744E-3,-1.0321277E-1,3.0444795E3,1.3E2,8.858274E-1,-1.0505668E-2,3.717E3,4.5959625E-2,-6.326642E-2,-1.962703E-2,9.288225E-2,1.11905254E-1,3.1973094E-2,2.2155417E-2,9.130999E-2,-7.114017E-2,4.422393E-2,-1.009988E-1,-8.835773E-3,1.1460256E-1,4.021519E-2],"split_indices":[9,2,1,5,7,1,7,6,0,0,0,6,0,6,6,0,0,8,7,10,5,6,8,5,0,0,0,6,4,0,6,7,10,0,5,0,0,0,0,0,0,0,0,0,0,0,0,0,0],"split_type":[0,0,0,0,0,0,0,0,0,0,0,0,0,0,0,0,0,0,0,0,0,0,0,0,0,0,0,0,0,0,0,0,0,0,0,0,0,0,0,0,0,0,0,0,0,0,0,0,0],"sum_hessian":[1.22345924E2,2.9895483E1,9.245044E1,2.7469484E1,2.425999E0,3.4208065E1,5.824238E1,3.506004E0,2.396348E1,1.3767666E0,1.0492324E0,3.0335058E1,3.8730056E0,2.30163E1,3.5226078E1,1.8844519E0,1.6215522E0,2.76791E1,2.655957E0,1.8516819E1,4.4994817E0,2.328084E1,1.1945238E1,2.646988E1,1.2092222E0,1.4723885E0,1.1835684E0,5.171055E0,1.3345764E1,1.6324931E0,2.8669882E0,2.0193327E1,3.0875118E0,1.8729374E0,1.0072301E1,2.478908E1,1.6807984E0,3.171629E0,1.9994256E0,1.212672E1,1.219043E0,1.0205789E0,1.8464093E0,2.5725503E0,1.7620777E1,1.9972181E0,1.0902936E0,4.533932E0,5.538368E0],"tree_param":{"num_deleted":"0","num_feature":"11","num_nodes":"49","size_leaf_vector":"1"}},{"base_weights":[-1.2244817E-2,-1.0040405E0,3.0386358E-1,-3.2916218E-2,-1.0428113E0,4.0949777E-1,-6.816942E-2,-1.0631794E-1,-2.8938888E-2,-2.570645E-1,4.7998393E-1,-1.2594934E-1,2.8491446E-1,2.6763892E-1,-6.5843034E-1,8.82466E-1,3.3294344E-1,-1.0625824E-1,1.00057E0,6.4166285E-2,-3.5973366E-2,-1.09146014E-1,2.1071797E-2,2.1781284E-1,1.1571852E-1,5.259331E-1,-7.9141594E-2,5.8314405E-2,-6.8580195E-2,1.08729474E-1,2.9521255E-2,-3.575651E-2,4.575917E-2,-1.1955042E-2,5.9321977E-2,-6.498194E-2,5.6122582E-2,-3.4721974E-2,3.5738736E-2],"categories":[],"categories_nodes":[],"categories_segments":[],"categories_sizes":[],"default_left":[0,0,0,0,0,0,0,0,0,0,0,0,0,0,0,0,0,0,0,0,0,0,0,0,0,0,0,0,0,0,0,0,0,0,0,0,0,0,0],"id":11,"left_children":[1,3,5,-1,7,9,11,-1,-1,13,15,-1,17,19,21,23,25,27,29,-1,-1,-1,-1,31,-1,33,35,37,-1,-1,-1,-1,-1,-1,-1,-1,-1,-1,-1],"loss_changes":[3.7825775E1,4.1965866E-1,3.6246061E0,0E0,1.0838318E-1,3.4791098E0,9.232872E0,0E0,0E0,1.751848E0,3.5495272E0,0E0,4.8903003E0,1.1585524E0,1.9342037E0,2.8102512E0,3.9520802E0,1.1800766E0,5.434084E-2,0E0,0E0,0E0,0E0,1.0102454E0,0E0,1.5310516E0,6.4136233E0,1.3649992E0,0E0,0E0,0E0,0E0,0E0,0E0,0E0,0E0,0E0,0E0,0E0],"parents":[2147483647,0,0,1,1,2,2,4,4,5,5,6,6,9,9,10,10,12,12,13,13,14,14,15,15,16,16,17,17,18,18,23,23,25,25,26,26,27,27],"right_children":[2,4,6,-1,8,10,12,-1,-1,14,16,-1,18,20,22,24,26,28,30,-1,-1,-1,-1,32,-1,34,36,38,-1,-1,-1,-1,-1,-1,-1,-1,-1,-1,-1],"split_conditions":[1E0,1.849523E2,2.582577E-3,-3.2916218E-2,4.983E3,2.137E3,9.8730487E-1,-1.0631794E-1,-2.8938888E-2,2.2355474E3,3.34E3,-1.2594934E-1,1.597821E3,1.0047288E2,1.15E2,1.612E1,2.064E3,8.015744E-3,2.667E3,6.4166285E-2,-3.5973366E-2,-1.09146014E-1,2.1071797E-2,2.647E3,1.1571852E-1,3.5598962E3,3.033E3,1.0800924E-2,-6.8580195E-2,1.08729474E-1,2.9521255E-2,-3.575651E-2,4.575917E-2,-1.1955042E-2,5.9321977E-2,-6.498194E-2,5.6122582E-2,-3.4721974E-2,3.5738736E-2],"split_indices":[9,8,3,0,6,5,3,0,0,6,5,0,6,7,7,6,6,4,6,0,0,0,0,5,0,5,6,10,0,0,0,0,0,0,0,0,0,0,0],"split_type":[0,0,0,0,0,0,0,0,0,0,0,0,0,0,0,0,0,0,0,0,0,0,0,0,0,0,0,0,0,0,0,0,0,0,0,0,0,0,0],"sum_hessian":[1.1867749E2,2.8157276E1,9.052021E1,2.045278E0,2.6112E1,7.042359E1,2.0096619E1,2.5024355E1,1.0876441E0,6.481677E0,6.3941917E1,4.0076094E0,1.6089008E1,2.9536138E0,3.5280633E0,1.5771191E1,4.8170727E1,1.0953448E1,5.1355605E0,1.8361617E0,1.1174519E0,2.184109E0,1.3439544E0,5.1366E0,1.0634591E1,3.261843E1,1.5552294E1,9.231394E0,1.7220545E0,4.0910773E0,1.0444833E0,1.3664389E0,3.7701612E0,3.0059106E0,2.961252E1,8.21582E0,7.336473E0,3.849966E0,5.381428E0],"tree_param":{"num_deleted":"0","num_feature":"11","num_nodes":"39","size_leaf_vector":"1"}},{"base_weights":[-1.2645701E-2,-9.691257E-1,2.8032574E-1,-1.0135694E0,-3.2906538E-1,2.6973827E-2,4.2792052E-1,-4.9491253E-1,-1.0670636E-1,-6.90039E-2,2.3575302E-2,1.7689538E-1,-9.900852E-2,6.7792714E-1,2.5501627E-1,-1.5338182E-3,-7.75255E-2,3.0259496E-1,-2.6292998E-1,8.171328E-1,6.398337E-2,1.4663148E-1,9.400625E-2,3.994703E-1,-4.9054414E-2,1.5763602E-1,-8.765387E-2,4.166649E-1,1.1009591E-1,-9.335177E-2,7.301499E-1,-1.6401129E-2,6.3486516E-1,6.234643E-2,-4.626152E-3,-4.669E-2,7.200499E-2,-1.8504797E-2,6.9476835E-2,2.1140797E-2,8.451331E-2,1.4737958E-2,-8.375215E-2,-5.3707667E-2,9.110501E-2],"categories":[],"categories_nodes":[],"categories_segments":[],"categories_sizes":[],"default_left":[0,0,0,0,0,0,0,0,0,0,0,0,0,0,0,0,0,0,0,0,0,0,0,0,0,0,0,0,0,0,0,0,0,0,0,0,0,0,0,0,0,0,0,0,0],"id":12,"left_children":[1,3,5,7,9,11,13,15,-1,-1,-1,17,-1,19,21,-1,-1,23,25,27,29,31,-1,33,-1,35,-1,37,-1,-1,39,41,43,-1,-1,-1,-1,-1,-1,-1,-1,-1,-1,-1,-1],"loss_changes":[3.2811783E1,4.4741058E-1,3.341527E0,1.7078781E-1,8.2799554E-1,5.371053E0,2.273511E0,5.554874E-1,0E0,0E0,0E0,1.7683723E0,0E0,1.8736553E0,2.4652252E0,0E0,0E0,2.0570815E0,2.0284193E0,1.6195879E0,4.1703267E0,2.5141277E0,0E0,2.2390082E0,0E0,2.1604233E0,0E0,1.6668994E0,0E0,0E0,4.2560577E-2,3.4257143E0,3.0460732E0,0E0,0E0,0E0,0E0,0E0,0E0,0E0,0E0,0E0,0E0,0E0,0E0],"parents":[2147483647,0,0,1,1,2,2,3,3,4,4,5,5,6,6,7,7,11,11,13,13,14,14,17,17,18,18,19,19,20,20,21,21,23,23,25,25,27,27,30,30,31,31,32,32],"right_children":[2,4,6,8,10,12,14,16,-1,-1,-1,18,-1,20,22,-1,-1,24,26,28,30,32,-1,34,-1,36,-1,38,-1,-1,40,42,44,-1,-1,-1,-1,-1,-1,-1,-1,-1,-1,-1,-1],"split_conditions":[1E0,4E0,1E0,2.492E3,1.281666E2,8.015744E-3,1.2594983E2,1.5407418E-3,-1.0670636E-1,-6.90039E-2,2.3575302E-2,2.1601848E-2,-9.900852E-2,2.365E3,3.806E3,-1.5338182E-3,-7.75255E-2,7.248074E3,1.5270395E2,7.54E2,2.33E3,6.5E3,9.400625E-2,1.0250216E0,-4.9054414E-2,1.0621846E2,-8.765387E-2,1.0800924E-2,1.1009591E-1,-9.335177E-2,3.0444795E3,1.9621504E2,1.6712544E2,6.234643E-2,-4.626152E-3,-4.669E-2,7.200499E-2,-1.8504797E-2,6.9476835E-2,2.1140797E-2,8.451331E-2,1.4737958E-2,-8.375215E-2,-5.3707667E-2,9.110501E-2],"split_indices":[9,2,1,5,7,1,7,9,0,0,0,2,0,6,6,0,0,5,7,6,5,5,0,10,0,7,0,10,0,0,6,7,7,0,0,0,0,0,0,0,0,0,0,0,0],"split_type":[0,0,0,0,0,0,0,0,0,0,0,0,0,0,0,0,0,0,0,0,0,0,0,0,0,0,0,0,0,0,0,0,0,0,0,0,0,0,0,0,0,0,0,0,0],"sum_hessian":[1.1512291E2,2.6452864E1,8.8670044E1,2.4189661E1,2.2632027E0,3.307623E1,5.5593815E1,3.2201514E0,2.096951E1,1.2455041E0,1.0176985E0,2.9546886E1,3.5293443E0,2.1534994E1,3.405882E1,1.5770485E0,1.643103E0,2.3222141E1,6.324745E0,1.7284868E1,4.2501273E0,3.0454498E1,3.6043212E0,2.1136799E1,2.0853417E0,4.193577E0,2.131168E0,8.192955E0,9.091912E0,1.5411383E0,2.7089891E0,2.3555256E1,6.8992424E0,1.3802084E1,7.334716E0,2.0675175E0,2.1260595E0,2.6954992E0,5.497456E0,1.0065548E0,1.7024343E0,2.0322287E1,3.2329702E0,1.135657E0,5.763585E0],"tree_param":{"num_deleted":"0","num_feature":"11","num_nodes":"45","size_leaf_vector":"1"}},{"base_weights":[-1.3269485E-2,-9.369211E-1,2.5880572E-1,-2.67436E-2,-9.8010397E-1,3.5849953E-1,-9.175491E-2,-1.0033466E-1,-2.3966586E-2,-2.603598E-1,4.243658E-1,-1.2012734E-1,2.3304124E-1,2.1416712E-1,-6.17291E-1,8.0169016E-1,2.787224E-1,-1.3023865E-1,9.372947E-1,5.8269005E-2,-3.6845498E-2,-1.0182201E-1,1.8033156E-2,2.4100569E-1,1.0360451E0,1.1983124E-1,7.2077966E-1,-5.630116E-1,7.6153025E-2,1.0256497E-1,2.6584161E-2,-3.4454487E-2,4.760561E-2,1.0902381E-1,2.9929979E-2,-2.6449567E-2,3.4681324E-2,1.1034502E-1,4.2421665E-2,4.309753E-3,-1.10842906E-1,3.200553E-2,-7.153123E-2],"categories":[],"categories_nodes":[],"categories_segments":[],"categories_sizes":[],"default_left":[0,0,0,0,0,0,0,0,0,0,0,0,0,0,0,0,0,0,0,0,0,0,0,0,0,0,0,0,0,0,0,0,0,0,0,0,0,0,0,0,0,0,0],"id":13,"left_children":[1,3,5,-1,7,9,11,-1,-1,13,15,-1,17,19,21,23,25,27,29,-1,-1,-1,-1,31,33,35,37,39,41,-1,-1,-1,-1,-1,-1,-1,-1,-1,-1,-1,-1,-1,-1],"loss_changes":[2.859858E1,4.8640633E-1,3.1064687E0,0E0,1.7165756E-1,2.9098759E0,7.584143E0,0E0,0E0,1.3560965E0,3.2085056E0,0E0,4.3476663E0,1.0401297E0,1.584803E0,1.9655819E0,3.1861584E0,1.0945327E0,6.802273E-2,0E0,0E0,0E0,0E0,1.0273622E0,1.3629436E-1,3.1861382E0,9.072776E-1,1.344002E0,1.9379042E0,0E0,0E0,0E0,0E0,0E0,0E0,0E0,0E0,0E0,0E0,0E0,0E0,0E0,0E0],"parents":[2147483647,0,0,1,1,2,2,4,4,5,5,6,6,9,9,10,10,12,12,13,13,14,14,15,15,16,16,17,17,18,18,23,23,24,24,25,25,26,26,27,27,28,28],"right_children":[2,4,6,-1,8,10,12,-1,-1,14,16,-1,18,20,22,24,26,28,30,-1,-1,-1,-1,32,34,36,38,40,42,-1,-1,-1,-1,-1,-1,-1,-1,-1,-1,-1,-1,-1,-1],"split_conditions":[1E0,1.849523E2,2.582577E-3,-2.67436E-2,4.983E3,2.137E3,9.8730487E-1,-1.0033466E-1,-2.3966586E-2,2.2355474E3,3.418E3,-1.2012734E-1,1.597821E3,1.0047288E2,1.15E2,1.612E1,1.7336739E0,8.8745445E1,2.667E3,5.8269005E-2,-3.6845498E-2,-1.0182201E-1,1.8033156E-2,2.647E3,3.3166584E3,8.858274E-1,1.31E2,7.4539604E1,1.6E2,1.0256497E-1,2.6584161E-2,-3.4454487E-2,4.760561E-2,1.0902381E-1,2.9929979E-2,-2.6449567E-2,3.4681324E-2,1.1034502E-1,4.2421665E-2,4.309753E-3,-1.10842906E-1,3.200553E-2,-7.153123E-2],"split_indices":[9,8,3,0,6,5,3,0,0,6,5,0,6,7,7,6,2,7,6,0,0,0,0,5,5,10,7,7,7,0,0,0,0,0,0,0,0,0,0,0,0,0,0],"split_type":[0,0,0,0,0,0,0,0,0,0,0,0,0,0,0,0,0,0,0,0,0,0,0,0,0,0,0,0,0,0,0,0,0,0,0,0,0,0,0,0,0,0,0],"sum_hessian":[1.1183643E2,2.48912E1,8.694524E1,1.9440922E0,2.2947107E1,6.767648E1,1.9268751E1,2.1904448E1,1.0426582E0,6.2260036E0,6.145048E1,3.7522721E0,1.55164795E1,2.8444233E0,3.3815804E0,1.5859122E1,4.559136E1,1.0773948E1,4.7425313E0,1.7422746E0,1.1021487E0,2.06635E0,1.3152304E0,5.2727246E0,1.0586397E1,3.4471973E1,1.1119383E1,2.9210525E0,7.8528957E0,3.7248757E0,1.0176554E0,1.3768709E0,3.8958538E0,9.414117E0,1.1722811E0,1.2738247E1,2.1733728E1,3.666943E0,7.45244E0,1.8197697E0,1.1012828E0,6.45829E0,1.3946054E0],"tree_param":{"num_deleted":"0","num_feature":"11","num_nodes":"43","size_leaf_vector":"1"}},{"base_weights":[-1.2875768E-2,-9.050528E-1,2.3935091E-1,-6.332208E-1,-1.0881523E-1,3.3303213E-1,-9.118825E-2,-9.0713185E-1,-1.4001077E-1,-2.4727817E-1,3.9488804E-1,-1.1493584E-1,2.1287178E-1,-1.0040561E-1,-1.3249844E-2,5.1597375E-2,-6.316539E-1,2.005822E-1,-5.8608335E-1,6.762905E-1,2.1326388E-1,-1.3002369E-1,9.022781E-1,-1.4954649E-2,-7.657143E-2,5.541451E-2,-3.4868833E-2,-9.746206E-2,1.7039811E-2,8.331583E-1,3.0671972E-1,-6.993289E-1,2.9262307E-1,-5.35264E-1,6.4541824E-2,9.908482E-2,2.5371918E-2,2.4717059E-2,1.0759848E-1,-6.60974E-2,7.2312616E-2,-1.3714151E-1,1.8506505E-2,2.1226717E-2,1.0301343E-1,1.4320801E-2,-9.4566345E-2,2.9480342E-2,-6.672964E-2],"categories":[],"categories_nodes":[],"categories_segments":[],"categories_sizes":[],"default_left":[0,0,0,0,0,0,0,0,0,0,0,0,0,0,0,0,0,0,0,0,0,0,0,0,0,0,0,0,0,0,0,0,0,0,0,0,0,0,0,0,0,0,0,0,0,0,0,0,0],"id":14,"left_children":[1,3,5,7,-1,9,11,13,15,17,19,-1,21,-1,-1,-1,23,25,27,29,31,33,35,-1,-1,-1,-1,-1,-1,37,39,41,43,45,47,-1,-1,-1,-1,-1,-1,-1,-1,-1,-1,-1,-1,-1,-1],"loss_changes":[2.4887957E1,5.2405167E-1,2.7015152E0,1.5213475E0,0E0,2.5180178E0,6.6263723E0,4.4224787E-1,2.112362E0,1.196389E0,2.9897108E0,0E0,3.9589734E0,0E0,0E0,0E0,1.1918485E-1,9.325753E-1,1.4307355E0,1.1121559E0,3.0093095E0,9.5917535E-1,6.591654E-2,0E0,0E0,0E0,0E0,0E0,0E0,2.0077887E0,3.9483979E0,2.2706993E0,1.9345648E0,1.2245998E0,1.6822441E0,0E0,0E0,0E0,0E0,0E0,0E0,0E0,0E0,0E0,0E0,0E0,0E0,0E0,0E0],"parents":[2147483647,0,0,1,1,2,2,3,3,5,5,6,6,7,7,8,8,9,9,10,10,12,12,16,16,17,17,18,18,19,19,20,20,21,21,22,22,29,29,30,30,31,31,32,32,33,33,34,34],"right_children":[2,4,6,8,-1,10,12,14,16,18,20,-1,22,-1,-1,-1,24,26,28,30,32,34,36,-1,-1,-1,-1,-1,-1,38,40,42,44,46,48,-1,-1,-1,-1,-1,-1,-1,-1,-1,-1,-1,-1,-1,-1],"split_conditions":[1E0,1.5407418E-3,2.582577E-3,1.3E2,-1.0881523E-1,2.137E3,9.8730487E-1,1.6678982E3,1.8163384E3,2.2355474E3,1.2594983E2,-1.1493584E-1,1.597821E3,-1.0040561E-1,-1.3249844E-2,5.1597375E-2,3.155E3,1.0047288E2,1.15E2,4.2078496E3,1.28E2,8.8745445E1,2.667E3,-1.4954649E-2,-7.657143E-2,5.541451E-2,-3.4868833E-2,-9.746206E-2,1.7039811E-2,7.591103E1,8.015744E-3,1.6293601E3,4.983E3,3.18E3,1.6E2,9.908482E-2,2.5371918E-2,2.4717059E-2,1.0759848E-1,-6.60974E-2,7.2312616E-2,-1.3714151E-1,1.8506505E-2,2.1226717E-2,1.0301343E-1,1.4320801E-2,-9.4566345E-2,2.9480342E-2,-6.672964E-2],"split_indices":[9,9,3,7,0,5,3,6,6,6,7,0,6,0,0,0,5,7,7,5,7,7,6,0,0,0,0,0,0,7,0,6,6,5,7,0,0,0,0,0,0,0,0,0,0,0,0,0,0],"split_type":[0,0,0,0,0,0,0,0,0,0,0,0,0,0,0,0,0,0,0,0,0,0,0,0,0,0,0,0,0,0,0,0,0,0,0,0,0,0,0,0,0,0,0,0,0,0,0,0,0],"sum_hessian":[1.0863533E2,2.3372786E1,8.526254E1,1.120139E1,1.2171394E1,6.642801E1,1.8834534E1,6.662202E0,4.539188E0,6.1098557E0,6.0318153E1,3.5834842E0,1.5251049E1,5.6580787E0,1.004123E0,1.9233851E0,2.615803E0,2.8071315E0,3.3027241E0,2.259172E1,3.7726433E1,1.072705E1,4.523999E0,1.0293988E0,1.5864042E0,1.7024182E0,1.1047133E0,1.991505E0,1.3112192E0,1.4979244E1,7.612476E0,2.3932307E0,3.5333202E1,2.9116347E0,7.815415E0,3.5160623E0,1.0079371E0,4.979831E0,9.9994135E0,2.113515E0,5.4989614E0,1.0469377E0,1.346293E0,3.3022984E1,2.3102198E0,1.3427892E0,1.5688455E0,6.399184E0,1.4162304E0],"tree_param":{"num_deleted":"0","num_feature":"11","num_nodes":"49","size_leaf_vector":"1"}},{"base_weights":[-1.4864584E-2,-8.762257E-1,2.1958092E-1,-6.053063E-1,-1.06509484E-1,-7.371103E-3,3.5441586E-1,-8.7927663E-1,-1.3460098E-1,1.20484315E-1,-9.299739E-2,6.0086316E-1,1.9554941E-1,-1.6393473E-2,-9.78176E-2,4.719962E-2,-6.085713E-1,1.7777424E-1,-6.683878E-2,7.2389376E-1,5.2435428E-2,9.614059E-2,8.4807676E-1,-1.4628346E-2,-7.4706465E-2,2.841085E-1,-5.3095776E-1,1.9434685E-1,9.183639E-1,-8.1266224E-2,6.358785E-2,-5.87645E-2,5.736123E-1,2.8812278E-2,9.6562214E-2,-2.2258963E-4,5.0204378E-2,6.316499E-3,-1.05171E-1,-4.071743E-2,5.9410263E-2,9.6386336E-2,2.639294E-2,1.1113836E-2,-7.683512E-2,-5.1522072E-2,8.4625855E-2],"categories":[],"categories_nodes":[],"categories_segments":[],"categories_sizes":[],"default_left":[0,0,0,0,0,0,0,0,0,0,0,0,0,0,0,0,0,0,0,0,0,0,0,0,0,0,0,0,0,0,0,0,0,0,0,0,0,0,0,0,0,0,0,0,0,0,0],"id":15,"left_children":[1,3,5,7,-1,9,11,13,15,17,-1,19,21,-1,-1,-1,23,25,-1,27,29,31,33,-1,-1,35,37,39,41,-1,-1,43,45,-1,-1,-1,-1,-1,-1,-1,-1,-1,-1,-1,-1,-1,-1],"loss_changes":[2.1751417E1,5.342655E-1,2.5950484E0,1.40094E0,0E0,3.951993E0,1.9639974E0,3.5369444E-1,1.8728869E0,1.4509803E0,0E0,1.3355126E0,2.1115189E0,0E0,0E0,0E0,1.1690104E-1,2.281375E0,0E0,1.5256376E0,2.9434469E0,2.2871118E0,7.5562E-3,0E0,0E0,1.5757546E0,1.3153639E0,1.615701E0,9.800339E-2,0E0,0E0,2.9680932E0,2.6791198E0,0E0,0E0,0E0,0E0,0E0,0E0,0E0,0E0,0E0,0E0,0E0,0E0,0E0,0E0],"parents":[2147483647,0,0,1,1,2,2,3,3,5,5,6,6,7,7,8,8,9,9,11,11,12,12,16,16,17,17,19,19,20,20,21,21,22,22,25,25,26,26,27,27,28,28,31,31,32,32],"right_children":[2,4,6,8,-1,10,12,14,16,18,-1,20,22,-1,-1,-1,24,26,-1,28,30,32,34,-1,-1,36,38,40,42,-1,-1,44,46,-1,-1,-1,-1,-1,-1,-1,-1,-1,-1,-1,-1,-1,-1],"split_conditions":[1E0,1.5407418E-3,1E0,1.3E2,-1.06509484E-1,8.015744E-3,1.2594983E2,2.492E3,1.8163384E3,3.6641882E2,-9.299739E-2,2.365E3,3.806E3,-1.6393473E-2,-9.78176E-2,4.719962E-2,2.1601848E-2,1.88E2,-6.683878E-2,1.0800924E-2,2.33E3,6.5E3,4.6E3,-1.4628346E-2,-7.4706465E-2,3.4914534E3,8.624E3,8.4672585E1,8.015744E-3,-8.1266224E-2,6.358785E-2,5.94219E3,1.6712544E2,2.8812278E-2,9.6562214E-2,-2.2258963E-4,5.0204378E-2,6.316499E-3,-1.05171E-1,-4.071743E-2,5.9410263E-2,9.6386336E-2,2.639294E-2,1.1113836E-2,-7.683512E-2,-5.1522072E-2,8.4625855E-2],"split_indices":[9,9,1,7,0,1,7,5,6,8,0,6,6,0,0,0,2,7,0,10,5,5,6,0,0,5,5,7,4,0,0,5,7,0,0,0,0,0,0,0,0,0,0,0,0,0,0],"split_type":[0,0,0,0,0,0,0,0,0,0,0,0,0,0,0,0,0,0,0,0,0,0,0,0,0,0,0,0,0,0,0,0,0,0,0,0,0,0,0,0,0,0,0,0,0,0,0],"sum_hessian":[1.05758316E2,2.2041098E1,8.371722E1,1.0781167E1,1.125993E1,3.1553017E1,5.2164204E1,6.266059E0,4.515108E0,2.8476164E1,3.0768533E0,1.9355732E1,3.280847E1,1.0838845E0,5.182174E0,1.9822929E0,2.5328155E0,2.7270367E1,1.2057968E0,1.554788E1,3.807852E0,2.9466719E1,3.3417513E0,1.0578809E0,1.4749345E0,2.423362E1,3.0367477E0,4.7131696E0,1.083471E1,1.3754847E0,2.4323673E0,2.2910757E1,6.555961E0,1.178563E0,2.1631882E0,1.0901052E1,1.3332567E1,1.8288871E0,1.2078606E0,1.874305E0,2.8388648E0,9.6883135E0,1.1463966E0,1.9165226E1,3.7455308E0,1.1347098E0,5.4212513E0],"tree_param":{"num_deleted":"0","num_feature":"11","num_nodes":"47","size_leaf_vector":"1"}},{"base_weights":[-1.6429866E-2,-8.4868896E-1,2.0186752E-1,-1.7852444E-2,-8.9932925E-1,-3.1414654E-2,3.2282335E-1,-9.272464E-2,-2.0730197E-2,1.2635764E-1,-1.03669286E-1,5.924603E-1,3.152337E-2,3.8633636E-1,-1.22225165E-1,-2.8391665E-1,7.23771E-1,-1.10135294E-1,2.0520501E-1,1.040639E-1,1.0508436E-1,-7.4548423E-1,2.14755E-1,3.9852973E-2,-6.0003955E-2,9.0785426E-1,4.7909382E-1,-3.717747E-1,3.8639802E-1,4.9833324E-2,-8.3939336E-2,-7.390248E-4,-1.0753957E-1,7.888264E-2,-8.7386025E-3,1.0552241E-1,4.4960044E-2,-6.158776E-3,6.305783E-2,9.814366E-3,-9.947501E-2,6.809923E-2,1.724398E-2],"categories":[],"categories_nodes":[],"categories_segments":[],"categories_sizes":[],"default_left":[0,0,0,0,0,0,0,0,0,0,0,0,0,0,0,0,0,0,0,0,0,0,0,0,0,0,0,0,0,0,0,0,0,0,0,0,0,0,0,0,0,0,0],"id":16,"left_children":[1,3,5,-1,7,9,11,-1,-1,13,-1,15,17,19,21,23,25,-1,27,29,-1,31,33,-1,-1,35,37,39,41,-1,-1,-1,-1,-1,-1,-1,-1,-1,-1,-1,-1,-1,-1],"loss_changes":[1.9062761E1,5.792389E-1,2.357307E0,0E0,1.9454956E-1,4.780422E0,4.2909946E0,0E0,0E0,1.7423166E0,0E0,3.4780254E0,5.623327E0,2.3405385E0,3.1357765E0,1.1935376E0,6.9169426E-1,0E0,2.7183325E0,4.2410855E0,0E0,1.257242E0,1.798655E0,0E0,0E0,4.140978E-1,1.0918646E0,1.969835E0,1.0947952E0,0E0,0E0,0E0,0E0,0E0,0E0,0E0,0E0,0E0,0E0,0E0,0E0,0E0,0E0],"parents":[2147483647,0,0,1,1,2,2,4,4,5,5,6,6,9,9,11,11,12,12,13,13,14,14,15,15,16,16,18,18,19,19,21,21,22,22,25,25,26,26,27,27,28,28],"right_children":[2,4,6,-1,8,10,12,-1,-1,14,-1,16,18,20,22,24,26,-1,28,30,-1,32,34,-1,-1,36,38,40,42,-1,-1,-1,-1,-1,-1,-1,-1,-1,-1,-1,-1,-1,-1],"split_conditions":[1E0,1.849523E2,9.396924E-1,-1.7852444E-2,4.75E3,1.0800924E-2,1.0250216E0,-9.272464E-2,-2.0730197E-2,4.167427E3,-1.03669286E-1,2.7440298E2,1.9984592E0,3.617E3,5.25E3,7.4E1,4.191E3,-1.10135294E-1,2.479E3,3.237E3,1.0508436E-1,4.384E3,6.009223E3,3.9852973E-2,-6.0003955E-2,2.1601848E-2,4.75E3,2.4262544E3,3.704E3,4.9833324E-2,-8.3939336E-2,-7.390248E-4,-1.0753957E-1,7.888264E-2,-8.7386025E-3,1.0552241E-1,4.4960044E-2,-6.158776E-3,6.305783E-2,9.814366E-3,-9.947501E-2,6.809923E-2,1.724398E-2],"split_indices":[9,8,10,0,6,10,10,0,0,5,0,8,10,5,5,7,5,0,5,5,0,5,5,0,0,2,5,6,5,0,0,0,0,0,0,0,0,0,0,0,0,0,0],"split_type":[0,0,0,0,0,0,0,0,0,0,0,0,0,0,0,0,0,0,0,0,0,0,0,0,0,0,0,0,0,0,0,0,0,0,0,0,0,0,0,0,0,0,0],"sum_hessian":[1.0298193E2,2.0798782E1,8.218315E1,1.7791511E0,1.9019632E1,2.83145E1,5.3868652E1,1.795539E1,1.0642402E0,2.5229233E1,3.0852685E0,2.7437626E1,2.6431028E1,1.2061077E1,1.3168156E1,3.4239252E0,2.40137E1,2.803483E0,2.3627544E1,9.276967E0,2.7841098E0,4.195729E0,8.972427E0,1.0014071E0,2.422518E0,1.2156965E1,1.1856734E1,5.3952937E0,1.823225E1,6.8755054E0,2.401462E0,1.6119026E0,2.583826E0,2.538486E0,6.433941E0,8.213032E0,3.943934E0,2.7247908E0,9.131944E0,3.5556679E0,1.8396261E0,6.752314E0,1.1479937E1],"tree_param":{"num_deleted":"0","num_feature":"11","num_nodes":"43","size_leaf_vector":"1"}},{"base_weights":[-1.6716775E-2,-8.191812E-1,1.8623948E-1,-5.3646713E-1,-1.0280222E-1,-2.800255E-2,3.1453145E-1,-8.279405E-1,-7.229466E-2,8.37011E-2,-8.791621E-2,5.5578184E-1,1.6429642E-1,-9.35734E-2,-1.1625603E-2,5.043581E-2,-5.5649894E-1,1.9905801E-1,-3.0108476E-1,6.711138E-1,3.691561E-2,-1.6243462E-2,5.001462E-1,-1.1458586E-2,-6.970828E-2,2.738597E-1,-6.258948E-2,8.564688E-2,-8.165073E-2,2.8622213E-1,9.8004293E-1,-7.563466E-2,5.7815503E-2,1.358208E-1,-7.78379E-1,7.50414E-1,8.121926E-2,3.9915077E-2,-6.9426775E-2,-4.4929866E-2,6.110416E-2,-4.3795027E-2,4.5875605E-2,2.6084835E-2,1.0439714E-1,-7.1485244E-2,3.0335406E-2,-9.426251E-2,-1.6248733E-2,9.596027E-2,-1.8074427E-2,-6.2035378E-2,9.094125E-2],"categories":[],"categories_nodes":[],"categories_segments":[],"categories_sizes":[],"default_left":[0,0,0,0,0,0,0,0,0,0,0,0,0,0,0,0,0,0,0,0,0,0,0,0,0,0,0,0,0,0,0,0,0,0,0,0,0,0,0,0,0,0,0,0,0,0,0,0,0,0,0,0,0],"id":17,"left_children":[1,3,5,7,-1,9,11,13,15,17,-1,19,21,-1,-1,-1,23,25,27,29,31,33,35,-1,-1,37,-1,39,-1,41,43,-1,-1,45,47,49,51,-1,-1,-1,-1,-1,-1,-1,-1,-1,-1,-1,-1,-1,-1,-1,-1],"loss_changes":[1.6587666E1,6.621504E-1,2.24494E0,1.4046426E0,0E0,3.0580182E0,1.7559586E0,3.9397144E-1,1.7524335E0,1.3321271E0,0E0,1.1205592E0,1.9986227E0,0E0,0E0,0E0,1.2766159E-1,1.5692356E0,1.466955E0,1.5744629E0,2.385991E0,2.6923718E0,1.1456738E0,0E0,0E0,2.880744E0,0E0,1.6543196E0,0E0,1.245297E0,1.06613636E-1,0E0,0E0,2.9899511E0,2.3741078E-1,1.5531812E0,3.71655E0,0E0,0E0,0E0,0E0,0E0,0E0,0E0,0E0,0E0,0E0,0E0,0E0,0E0,0E0,0E0,0E0],"parents":[2147483647,0,0,1,1,2,2,3,3,5,5,6,6,7,7,8,8,9,9,11,11,12,12,16,16,17,17,18,18,19,19,20,20,21,21,22,22,25,25,27,27,29,29,30,30,33,33,34,34,35,35,36,36],"right_children":[2,4,6,8,-1,10,12,14,16,18,-1,20,22,-1,-1,-1,24,26,28,30,32,34,36,-1,-1,38,-1,40,-1,42,44,-1,-1,46,48,50,52,-1,-1,-1,-1,-1,-1,-1,-1,-1,-1,-1,-1,-1,-1,-1,-1],"split_conditions":[1E0,1.5407418E-3,1E0,1.3E2,-1.0280222E-1,8.015744E-3,1.2594983E2,1.666E3,1.8163384E3,2.1601848E-2,-8.791621E-2,2.365E3,2.275E3,-9.35734E-2,-1.1625603E-2,5.043581E-2,1.6E2,3.6641882E2,1.5270395E2,7.54E2,2.33E3,2.087E3,2.1601848E-2,-1.1458586E-2,-6.970828E-2,7.248074E3,-6.258948E-2,1.0621846E2,-8.165073E-2,2.929E3,6E1,-7.563466E-2,5.7815503E-2,1.3E2,8.858274E-1,5.703E3,1.0250216E0,3.9915077E-2,-6.9426775E-2,-4.4929866E-2,6.110416E-2,-4.3795027E-2,4.5875605E-2,2.6084835E-2,1.0439714E-1,-7.1485244E-2,3.0335406E-2,-9.426251E-2,-1.6248733E-2,9.596027E-2,-1.8074427E-2,-6.2035378E-2,9.094125E-2],"split_indices":[9,9,1,7,0,1,7,6,6,2,0,6,6,0,0,0,7,8,7,6,5,6,2,0,0,5,0,7,0,5,7,0,0,7,10,5,2,0,0,0,0,0,0,0,0,0,0,0,0,0,0,0,0],"split_type":[0,0,0,0,0,0,0,0,0,0,0,0,0,0,0,0,0,0,0,0,0,0,0,0,0,0,0,0,0,0,0,0,0,0,0,0,0,0,0,0,0,0,0,0,0,0,0,0,0,0,0,0,0],"sum_hessian":[9.991231E1,1.9555597E1,8.035671E1,9.824571E0,9.731027E0,3.0389421E1,4.996729E1,5.553563E0,4.271007E0,2.7660944E1,2.728478E0,1.8139349E1,3.182794E1,4.549647E0,1.003916E0,1.9304073E0,2.3405998E0,2.1652353E1,6.0085907E0,1.4600559E1,3.5387895E0,2.1319197E1,1.0508743E1,1.0029582E0,1.3376417E0,2.0464764E1,1.1875901E0,3.9092417E0,2.0993493E0,7.358802E0,7.241757E0,1.2740525E0,2.2647371E0,1.8458145E1,2.8610518E0,6.083294E0,4.4254494E0,1.864014E1,1.8246214E0,2.0087807E0,1.9004608E0,1.1199057E0,6.238896E0,1.0058852E0,6.235872E0,2.4995265E0,1.5958618E1,1.8398862E0,1.0211657E0,4.942413E0,1.1408811E0,2.5317378E0,1.8937118E0],"tree_param":{"num_deleted":"0","num_feature":"11","num_nodes":"53","size_leaf_vector":"1"}},{"base_weights":[-1.9794215E-2,-7.9331166E-1,1.6921806E-1,-5.127968E-1,-1.0086739E-1,2.581731E-1,-1.4294861E-1,-8.0285335E-1,-7.17134E-2,-3.7592116E-1,3.064788E-1,-4.4690448E-1,6.960219E-1,-1.5963173E-2,-9.019109E-2,4.616373E-2,-5.366123E-1,8.206379E-3,-6.615225E-2,3.9736637E-1,-5.7001956E-2,-1.06065504E-1,-2.0023945E-1,-1.4642364E-2,9.387526E-2,-1.3528997E-2,-6.683081E-2,4.51404E-1,-6.941593E-2,-7.6486486E-1,2.1224982E-1,-5.4367334E-1,-2.243168E-2,3.737762E-2,7.408597E-2,-1.08876005E-1,-7.988059E-3,-3.5974517E-2,8.73882E-2,8.1913E-3,-8.953623E-2,-6.889903E-2,2.07389E-2],"categories":[],"categories_nodes":[],"categories_segments":[],"categories_sizes":[],"default_left":[0,0,0,0,0,0,0,0,0,0,0,0,0,0,0,0,0,0,0,0,0,0,0,0,0,0,0,0,0,0,0,0,0,0,0,0,0,0,0,0,0,0,0],"id":18,"left_children":[1,3,5,7,-1,9,11,13,15,17,19,21,23,-1,-1,-1,25,-1,-1,27,29,-1,31,-1,-1,-1,-1,33,-1,35,37,39,41,-1,-1,-1,-1,-1,-1,-1,-1,-1,-1],"loss_changes":[1.4504143E1,6.593666E-1,2.2531362E0,1.2848659E0,0E0,2.0286083E0,4.988646E0,2.5310612E-1,1.5521508E0,6.9142634E-1,1.9584308E0,1.9182258E0,1.2149382E0,0E0,0E0,0E0,8.258152E-2,0E0,0E0,3.085609E0,2.5629792E0,0E0,6.761116E-1,0E0,0E0,0E0,0E0,7.4297905E-1,0E0,7.3126864E-1,4.0638933E0,9.0982604E-1,1.4403496E0,0E0,0E0,0E0,0E0,0E0,0E0,0E0,0E0,0E0,0E0],"parents":[2147483647,0,0,1,1,2,2,3,3,5,5,6,6,7,7,8,8,9,9,10,10,11,11,12,12,16,16,19,19,20,20,22,22,27,27,29,29,30,30,31,31,32,32],"right_children":[2,4,6,8,-1,10,12,14,16,18,20,22,24,-1,-1,-1,26,-1,-1,28,30,-1,32,-1,-1,-1,-1,34,-1,36,38,40,42,-1,-1,-1,-1,-1,-1,-1,-1,-1,-1],"split_conditions":[1E0,1.5407418E-3,2.582577E-3,1.3E2,-1.0086739E-1,1.928E3,1.6E3,2.8542627E2,1.8163384E3,1.0704687E2,1.895527E2,9.8730487E-1,2.2580301E2,-1.5963173E-2,-9.019109E-2,4.616373E-2,6.1341655E-1,8.206379E-3,-6.615225E-2,3.6641882E2,2.0584291E2,-1.06065504E-1,8.8745445E1,-1.4642364E-2,9.387526E-2,-1.3528997E-2,-6.683081E-2,1.7008597E0,-6.941593E-2,6.1715215E3,7.48965E-1,3.18E3,2.791725E3,3.737762E-2,7.408597E-2,-1.08876005E-1,-7.988059E-3,-3.5974517E-2,8.73882E-2,8.1913E-3,-8.953623E-2,-6.889903E-2,2.07389E-2],"split_indices":[9,9,3,7,0,5,6,8,6,7,7,3,8,0,0,0,2,0,0,8,7,0,7,0,0,0,0,2,0,5,2,5,5,0,0,0,0,0,0,0,0,0,0],"split_type":[0,0,0,0,0,0,0,0,0,0,0,0,0,0,0,0,0,0,0,0,0,0,0,0,0,0,0,0,0,0,0,0,0,0,0,0,0,0,0,0,0,0,0],"sum_hessian":[9.7286446E1,1.8476349E1,7.88101E1,9.49281E0,8.983538E0,6.1467327E1,1.7342772E1,5.232037E0,4.260773E0,3.8710532E0,5.7596275E1,1.3073581E1,4.269191E0,1.0467246E0,4.1853127E0,1.9875693E0,2.2732036E0,1.7605428E0,2.1105103E0,4.600068E1,1.1595596E1,2.8019083E0,1.0271672E1,1.0436743E0,3.2255166E0,1.0625474E0,1.2106563E0,4.4389553E1,1.6111249E0,2.6880383E0,8.9075575E0,2.8019972E0,7.469675E0,3.6809174E1,7.5803823E0,1.4248364E0,1.2632018E0,5.022112E0,3.8854458E0,1.284395E0,1.5176022E0,1.4028841E0,6.066791E0],"tree_param":{"num_deleted":"0","num_feature":"11","num_nodes":"43","size_leaf_vector":"1"}},{"base_weights":[-2.3489589E-2,-7.685833E-1,1.5218297E-1,-4.9092588E-1,-9.9020176E-2,7.1120566E-1,1.04911506E-1,-7.793325E-1,-7.173532E-2,1.4326117E-2,8.9721054E-2,-5.2740866E-1,1.8511418E-1,-8.860056E-2,-1.6269334E-2,4.2305645E-1,-5.1777923E-1,-3.083704E-1,-8.339235E-2,4.3533748E-1,5.5305034E-2,-9.604776E-3,7.3084556E-2,-1.2896064E-2,-6.47658E-2,4.0281903E-2,-5.1895905E-1,5.3659105E-1,-2.3458591E-1,-8.059793E-1,1.4653486E-1,-8.1892855E-2,2.3597006E-2,9.710785E-2,2.389944E-2,-7.4895695E-2,3.4999464E-2,-1.5432286E-1,9.803399E-3,3.713308E-2,-6.8675163E-3],"categories":[],"categories_nodes":[],"categories_segments":[],"categories_sizes":[],"default_left":[0,0,0,0,0,0,0,0,0,0,0,0,0,0,0,0,0,0,0,0,0,0,0,0,0,0,0,0,0,0,0,0,0,0,0,0,0,0,0,0,0],"id":19,"left_children":[1,3,5,7,-1,9,11,13,15,-1,-1,17,19,-1,-1,21,23,25,-1,27,29,-1,-1,-1,-1,-1,31,33,35,37,39,-1,-1,-1,-1,-1,-1,-1,-1,-1,-1],"loss_changes":[1.267758E1,6.506462E-1,1.9994853E0,1.1752372E0,0E0,4.996531E-1,3.827179E0,2.4601316E-1,1.3781555E0,0E0,0E0,3.1605124E-1,2.119799E0,0E0,0E0,5.5595356E-1,7.866669E-2,1.1924477E0,0E0,1.6452837E0,3.6228485E0,0E0,0E0,0E0,0E0,0E0,1.4394398E0,2.3232765E0,1.3556871E0,3.1010828E0,2.0176244E0,0E0,0E0,0E0,0E0,0E0,0E0,0E0,0E0,0E0,0E0],"parents":[2147483647,0,0,1,1,2,2,3,3,5,5,6,6,7,7,8,8,11,11,12,12,15,15,16,16,17,17,19,19,20,20,26,26,27,27,28,28,29,29,30,30],"right_children":[2,4,6,8,-1,10,12,14,16,-1,-1,18,20,-1,-1,22,24,26,-1,28,30,-1,-1,-1,-1,-1,32,34,36,38,40,-1,-1,-1,-1,-1,-1,-1,-1,-1,-1],"split_conditions":[1E0,1.5407418E-3,6.1E1,1.3E2,-9.9020176E-2,2.383E3,8.4672585E1,1.516E3,1.8163384E3,1.4326117E-2,8.9721054E-2,2.1601848E-2,1.2594983E2,-8.860056E-2,-1.6269334E-2,2.1601848E-2,6.1341655E-1,8.015744E-3,-8.339235E-2,2.859E3,1.28E2,-9.604776E-3,7.3084556E-2,-1.2896064E-2,-6.47658E-2,4.0281903E-2,3.366E3,3.34E3,2.33E3,1.6293601E3,2.1601848E-2,-8.1892855E-2,2.3597006E-2,9.710785E-2,2.389944E-2,-7.4895695E-2,3.4999464E-2,-1.5432286E-1,9.803399E-3,3.713308E-2,-6.8675163E-3],"split_indices":[9,9,7,7,0,5,7,6,6,0,0,2,7,0,0,2,2,0,0,6,7,0,0,0,0,0,5,5,5,6,2,0,0,0,0,0,0,0,0,0,0],"split_type":[0,0,0,0,0,0,0,0,0,0,0,0,0,0,0,0,0,0,0,0,0,0,0,0,0,0,0,0,0,0,0,0,0,0,0,0,0,0,0,0,0],"sum_hessian":[9.4961296E1,1.7473688E1,7.748761E1,9.183373E0,8.290315E0,4.9464736E0,7.254114E1,4.9313955E0,4.2519784E0,1.6570532E0,3.2894204E0,7.5377054E0,6.500343E1,3.8317134E0,1.0996821E0,2.0402677E0,2.2117107E0,5.566144E0,1.9715618E0,2.1399519E1,4.3603912E1,1.0155041E0,1.0247635E0,1.0528173E0,1.1588933E0,1.0630934E0,4.5030503E0,1.876271E1,2.6368067E0,3.42591E0,4.0178E1,3.1619005E0,1.34115E0,6.7072043E0,1.2055507E1,1.2530576E0,1.3837492E0,1.4975379E0,1.9283721E0,1.929653E1,2.0881474E1],"tree_param":{"num_deleted":"0","num_feature":"11","num_nodes":"41","size_leaf_vector":"1"}},{"base_weights":[-2.433481E-2,-7.4430764E-1,1.3859646E-1,-4.691519E-1,-9.724231E-2,-7.916444E-2,2.545908E-1,-7.5598156E-1,-6.824604E-2,6.0838185E-2,-9.80215E-2,5.0791186E-1,-1.1876672E-2,-1.2823845E-2,-8.635181E-2,3.9803863E-1,-4.9981067E-1,-3.715831E-1,1.8126853E-1,-2.7438897E-1,6.322243E-1,-1.0182693E-1,1.4109735E-1,-1.0146901E-2,6.98228E-2,-1.2292865E-2,-6.2797815E-2,6.720808E-2,-7.029821E-1,5.420167E-1,-6.7655064E-2,1.692882E-2,-6.883857E-2,9.35345E-1,4.607324E-1,-2.4918419E-1,3.632361E-1,-4.122941E-2,4.7425408E-2,-9.586804E-2,-1.654247E-2,1.8033756E-2,9.651747E-2,3.97802E-2,-5.4718565E-2,1.00771725E-1,2.8356392E-2,-1.0140605E-2,5.4327335E-2,-1.1573254E-1,1.3051442E-2,1.0090543E-1,1.0933607E-2],"categories":[],"categories_nodes":[],"categories_segments":[],"categories_sizes":[],"default_left":[0,0,0,0,0,0,0,0,0,0,0,0,0,0,0,0,0,0,0,0,0,0,0,0,0,0,0,0,0,0,0,0,0,0,0,0,0,0,0,0,0,0,0,0,0,0,0,0,0,0,0,0,0],"id":20,"left_children":[1,3,5,7,-1,9,11,13,15,17,-1,19,21,-1,-1,23,25,27,29,31,33,-1,35,-1,-1,-1,-1,37,39,41,43,-1,-1,45,47,49,51,-1,-1,-1,-1,-1,-1,-1,-1,-1,-1,-1,-1,-1,-1,-1,-1],"loss_changes":[1.11430235E1,6.4374256E-1,1.9799336E0,1.0839949E0,0E0,3.557472E0,3.4391434E0,2.7117443E-1,1.2489523E0,1.3661697E0,0E0,2.7112846E0,4.1100545E0,0E0,0E0,5.3039616E-1,7.511401E-2,8.849485E-1,1.8487766E0,9.0186936E-1,7.553158E-1,0E0,2.1055703E0,0E0,0E0,0E0,0E0,8.5748225E-1,3.045261E-1,1.1039107E0,3.081229E0,0E0,0E0,5.741024E-2,8.227861E-1,3.2626138E0,2.3851635E0,0E0,0E0,0E0,0E0,0E0,0E0,0E0,0E0,0E0,0E0,0E0,0E0,0E0,0E0,0E0,0E0],"parents":[2147483647,0,0,1,1,2,2,3,3,5,5,6,6,7,7,8,8,9,9,11,11,12,12,15,15,16,16,17,17,18,18,19,19,20,20,22,22,27,27,28,28,29,29,30,30,33,33,34,34,35,35,36,36],"right_children":[2,4,6,8,-1,10,12,14,16,18,-1,20,22,-1,-1,24,26,28,30,32,34,-1,36,-1,-1,-1,-1,38,40,42,44,-1,-1,46,48,50,52,-1,-1,-1,-1,-1,-1,-1,-1,-1,-1,-1,-1,-1,-1,-1,-1],"split_conditions":[1E0,1.5407418E-3,9.396924E-1,1.3E2,-9.724231E-2,1.0800924E-2,1.0250216E0,2.8542627E2,1.8163384E3,1.0621846E2,-9.80215E-2,2.7440298E2,1.9984592E0,-1.2823845E-2,-8.635181E-2,1.5270395E2,6.1341655E-1,2.929E3,4.167427E3,1.1576754E2,3.418E3,-1.0182693E-1,3.173E3,-1.0146901E-2,6.98228E-2,-1.2292865E-2,-6.2797815E-2,2.383E3,6.561601E-1,3.4325005E3,7E2,1.692882E-2,-6.883857E-2,1.4311157E2,8.8E1,1.612E1,3.704E3,-4.122941E-2,4.7425408E-2,-9.586804E-2,-1.654247E-2,1.8033756E-2,9.651747E-2,3.97802E-2,-5.4718565E-2,1.00771725E-1,2.8356392E-2,-1.0140605E-2,5.4327335E-2,-1.1573254E-1,1.3051442E-2,1.0090543E-1,1.0933607E-2],"split_indices":[9,9,10,7,0,10,10,8,6,7,0,8,10,0,0,7,2,5,5,7,5,0,5,0,0,0,0,5,1,5,6,0,0,7,7,6,5,0,0,0,0,0,0,0,0,0,0,0,0,0,0,0,0],"split_type":[0,0,0,0,0,0,0,0,0,0,0,0,0,0,0,0,0,0,0,0,0,0,0,0,0,0,0,0,0,0,0,0,0,0,0,0,0,0,0,0,0,0,0,0,0,0,0,0,0,0,0,0,0],"sum_hessian":[9.311162E1,1.6524351E1,7.6587265E1,8.875387E0,7.648963E0,2.672773E1,4.9859535E1,4.657487E0,4.2179003E0,2.3940418E1,2.787312E0,2.5095783E1,2.4763752E1,1.00183E0,3.6556568E0,2.0647368E0,2.1531634E0,4.7607713E0,1.9179647E1,3.275534E0,2.182025E1,2.521131E0,2.224262E1,1.0235533E0,1.0411837E0,1.0435842E0,1.1095792E0,2.391495E0,2.3692763E0,7.350141E0,1.1829505E1,1.8664073E0,1.4091268E0,6.274893E0,1.5545357E1,8.023742E0,1.4218879E1,1.0921012E0,1.2993938E0,1.0746839E0,1.2945924E0,4.731895E0,2.6182463E0,6.0893264E0,5.7401786E0,5.156257E0,1.118636E0,1.9610718E0,1.3584285E1,1.761847E0,6.261895E0,3.173237E0,1.1045641E1],"tree_param":{"num_deleted":"0","num_feature":"11","num_nodes":"53","size_leaf_vector":"1"}},{"base_weights":[-2.5674682E-2,-7.20825E-1,1.2659563E-1,-4.485428E-1,-9.5518336E-2,2.0788924E-1,-1.5937954E-1,-7.3349315E-1,-6.529572E-2,1.1752063E-1,5.287748E-1,-4.3288958E-1,6.426589E-1,-8.480594E-2,-1.3141769E-2,3.7471113E-1,-4.8265064E-1,2.721072E-1,-2.9263675E-1,-1.7502649E-2,6.3445884E-1,-9.989363E-2,-2.1161272E-1,8.807211E-2,-1.2195258E-2,-9.67008E-3,6.528604E-2,-1.1717994E-2,-6.0919363E-2,3.8889477E-1,-6.082195E-1,-7.3854196E-1,5.665315E-1,9.8118074E-2,3.7965107E-1,-8.202373E-2,-6.3980795E-2,4.5030393E-2,-6.975174E-2,-8.695684E-2,1.3994427E-2,-1.1962951E-2,-1.259977E-1,8.304156E-2,3.6307813E-3,6.1231554E-2,-5.5202306E-3,-3.4221794E-2,8.011774E-2],"categories":[],"categories_nodes":[],"categories_segments":[],"categories_sizes":[],"default_left":[0,0,0,0,0,0,0,0,0,0,0,0,0,0,0,0,0,0,0,0,0,0,0,0,0,0,0,0,0,0,0,0,0,0,0,0,0,0,0,0,0,0,0,0,0,0,0,0,0],"id":21,"left_children":[1,3,5,7,-1,9,11,13,15,17,19,21,23,-1,-1,25,27,29,31,-1,33,-1,35,-1,-1,-1,-1,-1,-1,37,39,41,43,-1,45,47,-1,-1,-1,-1,-1,-1,-1,-1,-1,-1,-1,-1,-1],"loss_changes":[9.804924E0,6.3330936E-1,1.8029721E0,9.9852145E-1,0E0,1.6693835E0,4.098862E0,2.6089597E-1,1.132826E0,3.1152391E0,1.065742E0,1.4902139E0,9.868721E-1,0E0,0E0,4.6783385E-1,7.186693E-2,3.8646998E0,5.623702E0,0E0,6.325135E-1,0E0,5.5989826E-1,0E0,0E0,0E0,0E0,0E0,0E0,2.4334025E0,1.0061466E0,2.8760343E0,6.985668E-1,0E0,8.622354E-1,2.4846678E0,0E0,0E0,0E0,0E0,0E0,0E0,0E0,0E0,0E0,0E0,0E0,0E0,0E0],"parents":[2147483647,0,0,1,1,2,2,3,3,5,5,6,6,7,7,8,8,9,9,10,10,11,11,12,12,15,15,16,16,17,17,18,18,20,20,22,22,29,29,30,30,31,31,32,32,34,34,35,35],"right_children":[2,4,6,8,-1,10,12,14,16,18,20,22,24,-1,-1,26,28,30,32,-1,34,-1,36,-1,-1,-1,-1,-1,-1,38,40,42,44,-1,46,48,-1,-1,-1,-1,-1,-1,-1,-1,-1,-1,-1,-1,-1],"split_conditions":[1E0,1.5407418E-3,2.582577E-3,1.3E2,-9.5518336E-2,1.7336739E0,1.6E3,1.516E3,1.8163384E3,2.1601848E-2,2.98E3,9.8730487E-1,2.816E3,-8.480594E-2,-1.3141769E-2,1.5270395E2,6.1341655E-1,2.3843027E2,5.25E3,-1.7502649E-2,1.31E2,-9.989363E-2,1.6E2,8.807211E-2,-1.2195258E-2,-9.67008E-3,6.528604E-2,-1.1717994E-2,-6.0919363E-2,3.6641882E2,1.5E4,3.704E3,9.703E3,9.8118074E-2,2.0270875E0,1.3E2,-6.3980795E-2,4.5030393E-2,-6.975174E-2,-8.695684E-2,1.3994427E-2,-1.1962951E-2,-1.259977E-1,8.304156E-2,3.6307813E-3,6.1231554E-2,-5.5202306E-3,-3.4221794E-2,8.011774E-2],"split_indices":[9,9,3,7,0,2,6,6,6,2,5,3,6,0,0,7,2,7,5,0,7,0,7,0,0,0,0,0,0,8,5,5,5,0,2,7,0,0,0,0,0,0,0,0,0,0,0,0,0],"split_type":[0,0,0,0,0,0,0,0,0,0,0,0,0,0,0,0,0,0,0,0,0,0,0,0,0,0,0,0,0,0,0,0,0,0,0,0,0,0,0,0,0,0,0,0,0,0,0,0,0],"sum_hessian":[9.076761E1,1.5638819E1,7.512879E1,8.582E0,7.0568194E0,5.871192E1,1.6416872E1,4.398072E0,4.1839275E0,4.687664E1,1.183528E1,1.2585311E1,3.831562E0,3.3517265E0,1.0463452E0,2.0864315E0,2.097496E0,3.4289608E1,1.2587031E1,1.4595168E0,1.0375764E1,2.5493696E0,1.0035941E1,2.806044E0,1.025518E0,1.0163118E0,1.0701197E0,1.0348215E0,1.0626745E0,3.0766273E1,3.5233343E0,8.378841E0,4.2081895E0,3.187627E0,7.1881366E0,8.619034E0,1.4169074E0,2.9674446E1,1.0918276E0,2.490931E0,1.0324031E0,4.393473E0,3.9853683E0,2.4317727E0,1.7764165E0,4.416846E0,2.771291E0,7.1308002E0,1.4882336E0],"tree_param":{"num_deleted":"0","num_feature":"11","num_nodes":"49","size_leaf_vector":"1"}},{"base_weights":[-2.6639532E-2,-6.978738E-1,1.1555621E-1,-4.289888E-1,-9.383525E-2,6.4978546E-1,7.069294E-2,-7.111398E-1,-6.2899806E-2,3.058026E-3,8.275038E-2,-4.876348E-1,1.4398465E-1,-8.280657E-2,-1.2528837E-2,3.5273704E-1,-4.662499E-1,-2.8350624E-1,-7.632255E-2,3.826977E-1,2.3823434E-2,-1.0119886E-2,6.241442E-2,-1.1170125E-2,-5.912397E-2,3.688697E-2,-4.7747847E-1,4.8585713E-1,-2.7012515E-1,-8.027437E-1,1.1342997E-1,-7.465246E-2,2.1220604E-2,9.1666095E-2,2.0535616E-2,-7.310055E-2,2.9449914E-2,-1.4430071E-1,5.14205E-3,4.1705673E-3,8.124597E-2],"categories":[],"categories_nodes":[],"categories_segments":[],"categories_sizes":[],"default_left":[0,0,0,0,0,0,0,0,0,0,0,0,0,0,0,0,0,0,0,0,0,0,0,0,0,0,0,0,0,0,0,0,0,0,0,0,0,0,0,0,0],"id":22,"left_children":[1,3,5,7,-1,9,11,13,15,-1,-1,17,19,-1,-1,21,23,25,-1,27,29,-1,-1,-1,-1,-1,31,33,35,37,39,-1,-1,-1,-1,-1,-1,-1,-1,-1,-1],"loss_changes":[8.643052E0,6.206589E-1,1.7488482E0,9.172313E-1,0E0,5.996766E-1,2.9430728E0,2.4988508E-1,1.0279436E0,0E0,0E0,2.5473273E-1,1.7931291E0,0E0,0E0,4.458209E-1,6.888026E-2,9.862494E-1,0E0,1.5435433E0,3.2654986E0,0E0,0E0,0E0,0E0,0E0,1.1549594E0,2.0433068E0,1.1271994E0,2.4344223E0,1.9487524E0,0E0,0E0,0E0,0E0,0E0,0E0,0E0,0E0,0E0,0E0],"parents":[2147483647,0,0,1,1,2,2,3,3,5,5,6,6,7,7,8,8,11,11,12,12,15,15,16,16,17,17,19,19,20,20,26,26,27,27,28,28,29,29,30,30],"right_children":[2,4,6,8,-1,10,12,14,16,-1,-1,18,20,-1,-1,22,24,26,-1,28,30,-1,-1,-1,-1,-1,32,34,36,38,40,-1,-1,-1,-1,-1,-1,-1,-1,-1,-1],"split_conditions":[1E0,1.5407418E-3,6.1E1,1.3E2,-9.383525E-2,1.0800924E-2,8.4672585E1,1.516E3,1.8163384E3,3.058026E-3,8.275038E-2,2.1601848E-2,1.2594983E2,-8.280657E-2,-1.2528837E-2,2.1601848E-2,6.1341655E-1,8.015744E-3,-7.632255E-2,2.859E3,1.28E2,-1.0119886E-2,6.241442E-2,-1.1170125E-2,-5.912397E-2,3.688697E-2,3.366E3,3.34E3,2.33E3,1.6293601E3,4.983E3,-7.465246E-2,2.1220604E-2,9.1666095E-2,2.0535616E-2,-7.310055E-2,2.9449914E-2,-1.4430071E-1,5.14205E-3,4.1705673E-3,8.124597E-2],"split_indices":[9,9,7,7,0,10,7,6,6,0,0,2,7,0,0,2,2,0,0,6,7,0,0,0,0,0,5,5,5,6,6,0,0,0,0,0,0,0,0,0,0],"split_type":[0,0,0,0,0,0,0,0,0,0,0,0,0,0,0,0,0,0,0,0,0,0,0,0,0,0,0,0,0,0,0,0,0,0,0,0,0,0,0,0,0],"sum_hessian":[8.870884E1,1.4824067E1,7.388477E1,8.312999E0,6.511068E0,4.6793733E0,6.92054E1,4.1624193E0,4.1505795E0,1.3049046E0,3.3744688E0,7.3744383E0,6.183096E1,3.1252363E0,1.0371832E0,2.1059551E0,2.0446246E0,5.401958E0,1.9724802E0,1.9971191E1,4.1859768E1,1.0226605E0,1.0832947E0,1.0265043E0,1.0181203E0,1.0314106E0,4.3705473E0,1.7466833E1,2.5043583E0,3.3157158E0,3.8544052E1,3.0847652E0,1.2857823E0,5.9936385E0,1.1473194E1,1.2166111E0,1.2877471E0,1.5011251E0,1.8145907E0,3.5918297E1,2.625753E0],"tree_param":{"num_deleted":"0","num_feature":"11","num_nodes":"41","size_leaf_vector":"1"}},{"base_weights":[-2.6728267E-2,-6.7553586E-1,1.0553556E-1,-4.1050065E-1,-9.218213E-2,-8.523796E-2,2.2267857E-1,2.3943335E-2,-5.400674E-1,5.625635E-3,-8.0962345E-2,1.3758443E-1,5.941039E-1,-7.5942475E-1,7.5171776E-3,8.042789E-2,-5.31354E-1,2.448545E-1,-3.488587E-1,-7.4215285E-3,7.988634E-1,-8.655539E-2,-2.8414374E-2,-3.9319474E-2,5.4580134E-1,-7.597861E-2,-1.2194653E-3,4.9156082E-1,2.3554362E-2,6.69574E-2,-6.217929E-1,9.911925E-2,2.3039345E-2,-4.2962927E-2,2.2849541E-2,9.006354E-2,-3.4652337E-2,2.4146468E-3,7.3287845E-2,-1.3286354E-2,8.833816E-2,-9.8425165E-2,-1.2557024E-2],"categories":[],"categories_nodes":[],"categories_segments":[],"categories_sizes":[],"default_left":[0,0,0,0,0,0,0,0,0,0,0,0,0,0,0,0,0,0,0,0,0,0,0,0,0,0,0,0,0,0,0,0,0,0,0,0,0,0,0,0,0,0,0],"id":23,"left_children":[1,3,5,7,-1,9,11,-1,13,15,-1,17,19,21,-1,23,25,27,29,-1,31,-1,-1,33,35,-1,-1,37,39,-1,41,-1,-1,-1,-1,-1,-1,-1,-1,-1,-1,-1,-1],"loss_changes":[7.64011E0,6.053195E-1,1.6756179E0,8.924061E-1,0E0,1.908402E0,1.378617E0,0E0,1.1182249E0,1.11497E0,0E0,2.1149275E0,1.1966178E0,5.096841E-2,0E0,1.3755691E0,3.9339834E-1,1.7602937E0,2.4842868E0,0E0,4.76501E-1,0E0,0E0,2.215836E0,1.9079115E0,0E0,0E0,1.7076044E0,2.5595238E0,0E0,1.0249448E0,0E0,0E0,0E0,0E0,0E0,0E0,0E0,0E0,0E0,0E0,0E0,0E0],"parents":[2147483647,0,0,1,1,2,2,3,3,5,5,6,6,8,8,9,9,11,11,12,12,13,13,15,15,16,16,17,17,18,18,20,20,23,23,24,24,27,27,28,28,30,30],"right_children":[2,4,6,8,-1,10,12,-1,14,16,-1,18,20,22,-1,24,26,28,30,-1,32,-1,-1,34,36,-1,-1,38,40,-1,42,-1,-1,-1,-1,-1,-1,-1,-1,-1,-1,-1,-1],"split_conditions":[1E0,1.5407418E-3,1E0,2.492E3,-9.218213E-2,8.015744E-3,6.5E3,2.3943335E-2,1.6E2,3.8670425E3,-8.0962345E-2,5.726E3,1.6198491E2,4.86E3,7.5171776E-3,1.56E3,1.7634825E2,2.1601848E-2,1.45E2,-7.4215285E-3,2.65E2,-8.655539E-2,-2.8414374E-2,3.4914534E3,4.416E3,-7.597861E-2,-1.2194653E-3,1.0800924E-2,5.25E3,6.69574E-2,1.01E3,9.911925E-2,2.3039345E-2,-4.2962927E-2,2.2849541E-2,9.006354E-2,-3.4652337E-2,2.4146468E-3,7.3287845E-2,-1.3286354E-2,8.833816E-2,-9.8425165E-2,-1.2557024E-2],"split_indices":[9,9,1,5,0,1,5,0,7,6,0,5,7,5,0,6,7,2,7,0,7,0,0,5,5,0,0,10,5,0,6,0,0,0,0,0,0,0,0,0,0,0,0],"split_type":[0,0,0,0,0,0,0,0,0,0,0,0,0,0,0,0,0,0,0,0,0,0,0,0,0,0,0,0,0,0,0,0,0,0,0,0,0,0,0,0,0,0,0],"sum_hessian":[8.7200485E1,1.4070669E1,7.3129814E1,8.061844E0,6.008826E0,2.7924942E1,4.5204872E1,1.199075E0,6.862769E0,2.5694212E1,2.2307303E0,3.7893772E1,7.3111E0,4.8862634E0,1.9765056E0,2.3298859E1,2.3953524E0,3.1454166E1,6.439605E0,1.8641635E0,5.4469366E0,3.3230846E0,1.5631785E0,1.9258799E1,4.04006E0,1.3415658E0,1.0537866E0,1.4295852E1,1.7158316E1,1.0538824E0,5.385723E0,3.5143275E0,1.9326092E0,7.591234E0,1.1667565E1,2.8839428E0,1.1561172E0,5.242186E0,9.053665E0,1.5232694E1,1.925622E0,2.544004E0,2.841719E0],"tree_param":{"num_deleted":"0","num_feature":"11","num_nodes":"43","size_leaf_vector":"1"}},{"base_weights":[-2.5371158E-2,-6.5157837E-1,9.807338E-2,-1.8313527E-3,-7.197694E-1,6.1755997E-1,5.4861076E-2,-9.118955E-2,-4.4275647E-1,3.8037181E-3,7.887524E-2,-4.4792742E-1,1.2236157E-1,4.7336735E-2,-8.5643254E-2,-2.4800175E-1,-7.382319E-2,3.4997964E-1,1.0199558E-2,-4.194563E-2,6.302365E-2,3.8059223E-2,-4.6322227E-1,4.4637892E-1,-2.6002526E-1,-7.668779E-1,9.564284E-2,-6.854672E-2,3.302297E-3,8.803431E-2,1.7803825E-2,-6.937095E-2,2.731438E-2,-1.3384268E-1,2.819062E-3,2.7509143E-3,7.713602E-2],"categories":[],"categories_nodes":[],"categories_segments":[],"categories_sizes":[],"default_left":[0,0,0,0,0,0,0,0,0,0,0,0,0,0,0,0,0,0,0,0,0,0,0,0,0,0,0,0,0,0,0,0,0,0,0,0,0],"id":24,"left_children":[1,3,5,-1,7,9,11,-1,13,-1,-1,15,17,19,-1,21,-1,23,25,-1,-1,-1,27,29,31,33,35,-1,-1,-1,-1,-1,-1,-1,-1,-1,-1],"loss_changes":[6.7533736E0,6.078253E-1,1.608346E0,0E0,2.8582478E-1,5.1768756E-1,2.3841996E0,0E0,1.5103843E0,0E0,0E0,3.008728E-1,1.561356E0,1.4251267E0,0E0,1.0480471E0,0E0,1.3041656E0,2.868152E0,0E0,0E0,0E0,6.0178626E-1,1.917855E0,9.731296E-1,1.9829748E0,1.7656621E0,0E0,0E0,0E0,0E0,0E0,0E0,0E0,0E0,0E0,0E0],"parents":[2147483647,0,0,1,1,2,2,4,4,5,5,6,6,8,8,11,11,12,12,13,13,15,15,17,17,18,18,22,22,23,23,24,24,25,25,26,26],"right_children":[2,4,6,-1,8,10,12,-1,14,-1,-1,16,18,20,-1,22,-1,24,26,-1,-1,-1,28,30,32,34,36,-1,-1,-1,-1,-1,-1,-1,-1,-1,-1],"split_conditions":[1E0,1.849523E2,6.1E1,-1.8313527E-3,1.3E2,1.0800924E-2,8.4672585E1,-9.118955E-2,1.6198491E2,3.8037181E-3,7.887524E-2,8.097495E1,1.2594983E2,4.3042817E3,-8.5643254E-2,8.015744E-3,-7.382319E-2,2.859E3,1.28E2,-4.194563E-2,6.302365E-2,3.8059223E-2,3.173E3,3.34E3,2.33E3,1.6293601E3,4.983E3,-6.854672E-2,3.302297E-3,8.803431E-2,1.7803825E-2,-6.937095E-2,2.731438E-2,-1.3384268E-1,2.819062E-3,2.7509143E-3,7.713602E-2],"split_indices":[9,8,7,0,7,10,7,0,7,0,0,7,7,5,0,0,0,6,7,0,0,0,5,5,5,6,6,0,0,0,0,0,0,0,0,0,0],"split_type":[0,0,0,0,0,0,0,0,0,0,0,0,0,0,0,0,0,0,0,0,0,0,0,0,0,0,0,0,0,0,0,0,0,0,0,0,0],"sum_hessian":[8.5537E1,1.3380803E1,7.2156204E1,1.424118E0,1.1956685E1,4.520514E0,6.763569E1,5.7067833E0,6.249902E0,1.3095611E0,3.2109528E0,7.338412E0,6.0297276E1,3.2660704E0,2.9838314E0,5.443729E0,1.8946826E0,1.9204323E1,4.1092953E1,1.9693717E0,1.2966988E0,1.1924782E0,4.2512507E0,1.681524E1,2.3890812E0,3.2807126E0,3.781224E1,2.672884E0,1.5783668E0,5.553444E0,1.1261797E1,1.1514091E0,1.237672E0,1.5110544E0,1.7696581E0,3.529418E1,2.51806E0],"tree_param":{"num_deleted":"0","num_feature":"11","num_nodes":"37","size_leaf_vector":"1"}},{"base_weights":[-2.5214562E-2,-6.272588E-1,8.937491E-2,-3.5988355E-1,-8.932747E-2,-6.1280098E-2,1.20704904E-1,2.6628276E-2,-4.945057E-1,-1.11926965E-1,2.4846265E-1,-7.2279626E-1,9.8892925E-3,1.608998E-2,-9.2370816E-2,9.235532E-2,1.8575345E-1,-8.327832E-2,-2.5344118E-2,3.8044065E-1,-1.14743195E-1,-4.676701E-2,4.01135E-1,-3.267947E-2,7.077433E-2,-8.532054E-2,4.917319E-3,-1.5726807E-2,8.265944E-2,6.845409E-2,-6.934491E-3],"categories":[],"categories_nodes":[],"categories_segments":[],"categories_sizes":[],"default_left":[0,0,0,0,0,0,0,0,0,0,0,0,0,0,0,0,0,0,0,0,0,0,0,0,0,0,0,0,0,0,0],"id":25,"left_children":[1,3,5,7,-1,-1,9,-1,11,13,15,17,-1,19,-1,-1,21,-1,-1,23,25,27,29,-1,-1,-1,-1,-1,-1,-1,-1],"loss_changes":[5.9328766E0,6.5621996E-1,1.6675923E0,8.5073614E-1,0E0,0E0,2.1136408E0,0E0,1.0699756E0,2.6720066E0,1.7594373E0,6.993699E-2,0E0,1.1433175E0,0E0,0E0,2.1716123E0,0E0,0E0,1.6957967E0,2.1895483E0,2.21137E0,3.0369782E0,0E0,0E0,0E0,0E0,0E0,0E0,0E0,0E0],"parents":[2147483647,0,0,1,1,2,2,3,3,6,6,8,8,9,9,10,10,11,11,13,13,16,16,19,19,20,20,21,21,22,22],"right_children":[2,4,6,8,-1,-1,10,-1,12,14,16,18,-1,20,-1,-1,22,-1,-1,24,26,28,30,-1,-1,-1,-1,-1,-1,-1,-1],"split_conditions":[1E0,1.5407418E-3,1.4737117E3,2.492E3,-8.932747E-2,-6.1280098E-2,9.396924E-1,2.6628276E-2,1.6E2,1.0800924E-2,6.1E1,4.86E3,9.8892925E-3,3.237E3,-9.2370816E-2,9.235532E-2,1.89E2,-8.327832E-2,-2.5344118E-2,2.383E3,3.617E3,1.1417E4,2.925E3,-3.267947E-2,7.077433E-2,-8.532054E-2,4.917319E-3,-1.5726807E-2,8.265944E-2,6.845409E-2,-6.934491E-3],"split_indices":[9,9,5,5,0,0,10,0,7,10,7,5,0,5,0,0,6,0,0,5,5,5,6,0,0,0,0,0,0,0,0],"split_type":[0,0,0,0,0,0,0,0,0,0,0,0,0,0,0,0,0,0,0,0,0,0,0,0,0,0,0,0,0,0,0],"sum_hessian":[8.418614E1,1.2745949E1,7.144019E1,7.530167E0,5.215781E0,2.2586737E0,6.918152E1,1.1594111E0,6.370756E0,2.4568703E1,4.4612816E1,4.4432864E0,1.9274698E0,2.2068678E1,2.5000253E0,2.6250887E0,4.198773E1,2.9724255E0,1.4708607E0,5.326724E0,1.6741953E1,2.0566992E1,2.1420736E1,1.6857368E0,3.6409872E0,2.2773054E0,1.4464648E1,1.8984879E1,1.5821124E0,1.3084165E1,8.336573E0],"tree_param":{"num_deleted":"0","num_feature":"11","num_nodes":"31","size_leaf_vector":"1"}},{"base_weights":[-2.4717914E-2,-6.0412997E-1,8.212608E-2,-3.4110662E-1,-8.771271E-2,1.5926225E-1,-1.8836704E-1,-6.3257533E-1,-8.458556E-3,6.887731E-2,4.804768E-1,-4.2393374E-1,5.6888145E-1,-1.03889825E-2,-7.60542E-2,3.8459963E-1,-4.8991974E-2,2.0976862E-1,-2.9889125E-1,-1.8450683E-2,5.859766E-1,-9.480162E-2,-2.224707E-1,8.007719E-2,-6.1797383E-3,-1.5230104E-2,7.371902E-2,3.2404506E-1,-5.9290916E-1,-7.054241E-1,5.0018966E-1,9.486657E-2,3.321737E-1,-8.2279295E-2,-6.304238E-2,3.8380485E-2,-6.5304674E-2,-9.855148E-2,-4.7533885E-3,-1.193083E-2,-1.18003786E-1,7.768211E-2,-1.3696009E-3,-1.6274916E-2,6.462926E-2,3.995384E-2,-2.4334352E-2],"categories":[],"categories_nodes":[],"categories_segments":[],"categories_sizes":[],"default_left":[0,0,0,0,0,0,0,0,0,0,0,0,0,0,0,0,0,0,0,0,0,0,0,0,0,0,0,0,0,0,0,0,0,0,0,0,0,0,0,0,0,0,0,0,0,0,0],"id":26,"left_children":[1,3,5,7,-1,9,11,13,15,17,19,21,23,-1,-1,25,-1,27,29,-1,31,-1,33,-1,-1,-1,-1,35,37,39,41,-1,43,45,-1,-1,-1,-1,-1,-1,-1,-1,-1,-1,-1,-1,-1],"loss_changes":[5.233353E0,6.454983E-1,1.5234665E0,8.02974E-1,0E0,1.5996468E0,3.1560793E0,2.2069347E-1,1.117036E0,2.3972607E0,9.6275926E-1,1.1655388E0,6.789688E-1,0E0,0E0,7.2974163E-1,0E0,3.2341056E0,4.54087E0,0E0,6.747556E-1,0E0,5.6141245E-1,0E0,0E0,0E0,0E0,1.9835014E0,9.137727E-1,2.351624E0,7.118031E-1,0E0,1.3279476E0,8.058135E-1,0E0,0E0,0E0,0E0,0E0,0E0,0E0,0E0,0E0,0E0,0E0,0E0,0E0],"parents":[2147483647,0,0,1,1,2,2,3,3,5,5,6,6,7,7,8,8,9,9,10,10,11,11,12,12,15,15,17,17,18,18,20,20,22,22,27,27,28,28,29,29,30,30,32,32,33,33],"right_children":[2,4,6,8,-1,10,12,14,16,18,20,22,24,-1,-1,26,-1,28,30,-1,32,-1,34,-1,-1,-1,-1,36,38,40,42,-1,44,46,-1,-1,-1,-1,-1,-1,-1,-1,-1,-1,-1,-1,-1],"split_conditions":[1E0,1.5407418E-3,2.582577E-3,1.3E2,-8.771271E-2,1.7336739E0,1.6E3,2.764E3,1.6198491E2,2.1601848E-2,2.98E3,9.8730487E-1,2.667E3,-1.03889825E-2,-7.60542E-2,4.3042817E3,-4.8991974E-2,2.3843027E2,5.25E3,-1.8450683E-2,4.6028096E3,-9.480162E-2,8.015744E-3,8.007719E-2,-6.1797383E-3,-1.5230104E-2,7.371902E-2,3.6641882E2,2.8E2,3.704E3,9.703E3,9.486657E-2,6.1715215E3,8.015744E-3,-6.304238E-2,3.8380485E-2,-6.5304674E-2,-9.855148E-2,-4.7533885E-3,-1.193083E-2,-1.18003786E-1,7.768211E-2,-1.3696009E-3,-1.6274916E-2,6.462926E-2,3.995384E-2,-2.4334352E-2],"split_indices":[9,9,3,7,0,2,6,5,7,2,5,3,6,0,0,5,0,7,5,0,5,0,4,0,0,0,0,8,7,5,5,0,5,0,0,0,0,0,0,0,0,0,0,0,0,0,0],"split_type":[0,0,0,0,0,0,0,0,0,0,0,0,0,0,0,0,0,0,0,0,0,0,0,0,0,0,0,0,0,0,0,0,0,0,0,0,0,0,0,0,0,0,0,0,0,0,0],"sum_hessian":[8.2734695E1,1.21564245E1,7.057828E1,7.3369823E0,4.819442E0,5.5237488E1,1.5340789E1,3.429976E0,3.907006E0,4.405539E1,1.1182097E1,1.2036584E1,3.3042042E0,1.0215132E0,2.4084628E0,2.2617376E0,1.6452686E0,3.2163315E1,1.1892076E1,1.4285858E0,9.753511E0,2.313258E0,9.723327E0,2.2187185E0,1.0854856E0,1.1217163E0,1.1400213E0,2.8676907E1,3.4864078E0,7.959753E0,3.9323225E0,2.888288E0,6.8652234E0,8.130874E0,1.5924529E0,2.7596289E1,1.0806172E0,1.5578791E0,1.9285285E0,4.1214375E0,3.8383152E0,2.2236443E0,1.7086782E0,2.8525918E0,4.0126314E0,1.6661203E0,6.464753E0],"tree_param":{"num_deleted":"0","num_feature":"11","num_nodes":"47","size_leaf_vector":"1"}},{"base_weights":[-2.6228921E-2,-5.814807E-1,7.352541E-2,-3.2369953E-1,-8.6102076E-2,-5.731055E-2,1.0312285E-1,2.6119933E-2,-4.582229E-1,-1.20173216E-1,2.263019E-1,-6.9034714E-1,1.0290457E-2,-4.0786993E-3,-8.79534E-2,1.6696562E-1,9.1529004E-2,-2.287106E-2,-8.061089E-2,-3.8273436E-1,1.09660394E-1,3.7064832E-1,-5.9008278E-2,6.826643E-3,-6.190866E-2,3.7257247E-2,-2.4301376E-2,-3.0571887E-2,4.9249347E-2,-8.663231E-2,7.031242E-3],"categories":[],"categories_nodes":[],"categories_segments":[],"categories_sizes":[],"default_left":[0,0,0,0,0,0,0,0,0,0,0,0,0,0,0,0,0,0,0,0,0,0,0,0,0,0,0,0,0,0,0],"id":27,"left_children":[1,3,5,7,-1,-1,9,-1,11,13,15,17,-1,19,-1,21,-1,-1,-1,23,25,27,29,-1,-1,-1,-1,-1,-1,-1,-1],"loss_changes":[4.5947843E0,6.312909E-1,1.4094242E0,7.6270616E-1,0E0,0E0,1.9062083E0,0E0,9.83744E-1,2.1950912E0,1.6612763E0,8.745623E-2,0E0,1.0169269E0,0E0,1.9586234E0,0E0,0E0,0E0,6.2339866E-1,1.7767705E0,1.9857333E0,2.2335744E0,0E0,0E0,0E0,0E0,0E0,0E0,0E0,0E0],"parents":[2147483647,0,0,1,1,2,2,3,3,6,6,8,8,9,9,10,10,11,11,13,13,15,15,19,19,20,20,21,21,22,22],"right_children":[2,4,6,8,-1,-1,10,-1,12,14,16,18,-1,20,-1,22,-1,-1,-1,24,26,28,30,-1,-1,-1,-1,-1,-1,-1,-1],"split_conditions":[1E0,1.5407418E-3,1.4737117E3,2.492E3,-8.6102076E-2,-5.731055E-2,9.396924E-1,2.6119933E-2,1.6E2,1.0800924E-2,1.1417E4,1.0800924E-2,1.0290457E-2,1.0621846E2,-8.79534E-2,1.0250216E0,9.1529004E-2,-2.287106E-2,-8.061089E-2,2.9067666E3,1.6712544E2,2.7440298E2,1.9984592E0,6.826643E-3,-6.190866E-2,3.7257247E-2,-2.4301376E-2,-3.0571887E-2,4.9249347E-2,-8.663231E-2,7.031242E-3],"split_indices":[9,9,5,5,0,0,10,0,7,10,5,10,0,7,0,10,0,0,0,5,7,8,10,0,0,0,0,0,0,0,0],"split_type":[0,0,0,0,0,0,0,0,0,0,0,0,0,0,0,0,0,0,0,0,0,0,0,0,0,0,0,0,0,0,0],"sum_hessian":[8.118329E1,1.1628378E1,6.955491E1,7.172315E0,4.4560623E0,2.240574E0,6.731434E1,1.1650573E0,6.007258E0,2.394031E1,4.3374027E1,4.0864935E0,1.9207646E0,2.1637623E1,2.3026867E0,4.1078632E1,2.295394E0,1.4158897E0,2.6706035E0,4.451811E0,1.7185812E1,2.1268204E1,1.9810429E1,1.7753338E0,2.6764772E0,9.813561E0,7.3722506E0,3.0161824E0,1.8252022E1,1.9483523E0,1.7862076E1],"tree_param":{"num_deleted":"0","num_feature":"11","num_nodes":"31","size_leaf_vector":"1"}},{"base_weights":[-2.8025635E-2,-5.593266E-1,6.507662E-2,-3.067053E-1,-8.449193E-2,5.5375695E-1,2.5409782E-2,-5.979224E-1,5.711738E-3,2.9909036E-3,7.4845165E-2,-4.184098E-1,9.2199296E-2,-9.497108E-3,-7.321636E-2,3.9020494E-1,-4.731367E-2,-1.5696451E-1,-7.5126696E-1,3.3033404E-1,-1.7445335E-2,-1.2830715E-2,7.0723765E-2,-5.2700885E-2,2.0166073E-2,-9.67528E-2,-1.7054062E-2,4.5796096E-1,-2.2498456E-1,-7.945352E-1,6.8786405E-2,-2.533776E-2,4.7411066E-2,-1.3863827E-2,7.289061E-2,-6.6728435E-2,1.6009886E-2,-1.2764499E-1,-3.4308422E-3,1.5023402E-4,7.396983E-2],"categories":[],"categories_nodes":[],"categories_segments":[],"categories_sizes":[],"default_left":[0,0,0,0,0,0,0,0,0,0,0,0,0,0,0,0,0,0,0,0,0,0,0,0,0,0,0,0,0,0,0,0,0,0,0,0,0,0,0,0,0],"id":28,"left_children":[1,3,5,7,-1,9,11,13,15,-1,-1,17,19,-1,-1,21,-1,23,25,27,29,-1,-1,-1,31,-1,-1,33,35,37,39,-1,-1,-1,-1,-1,-1,-1,-1,-1,-1],"loss_changes":[4.0255523E0,6.159227E-1,1.3334655E0,7.3179626E-1,0E0,5.050082E-1,1.9755809E0,2.1086073E-1,1.0781022E0,0E0,0E0,6.416224E-1,1.5101671E0,0E0,0E0,6.2329507E-1,0E0,4.139001E-1,2.8403902E-1,1.3940164E0,2.7619996E0,0E0,0E0,0E0,7.563904E-1,0E0,0E0,2.5484805E0,8.0082434E-1,1.46387E0,1.6820885E0,0E0,0E0,0E0,0E0,0E0,0E0,0E0,0E0,0E0,0E0],"parents":[2147483647,0,0,1,1,2,2,3,3,5,5,6,6,7,7,8,8,11,11,12,12,15,15,17,17,18,18,19,19,20,20,24,24,27,27,28,28,29,29,30,30],"right_children":[2,4,6,8,-1,10,12,14,16,-1,-1,18,20,-1,-1,22,-1,24,26,28,30,-1,-1,-1,32,-1,-1,34,36,38,40,-1,-1,-1,-1,-1,-1,-1,-1,-1,-1],"split_conditions":[1E0,1.5407418E-3,6.1E1,1.3E2,-8.449193E-2,2.383E3,8.8E1,9.303321E1,1.6198491E2,2.9909036E-3,7.4845165E-2,3.859E3,1.2594983E2,-9.497108E-3,-7.321636E-2,4.3042817E3,-4.731367E-2,2.8221603E2,4.616E3,2.417E3,1.28E2,-1.2830715E-2,7.0723765E-2,-5.2700885E-2,3.173E3,-9.67528E-2,-1.7054062E-2,9.396924E-1,2.33E3,1.6293601E3,4.983E3,-2.533776E-2,4.7411066E-2,-1.3863827E-2,7.289061E-2,-6.6728435E-2,1.6009886E-2,-1.2764499E-1,-3.4308422E-3,1.5023402E-4,7.396983E-2],"split_indices":[9,9,7,7,0,5,7,7,7,0,0,5,7,0,0,5,0,8,5,6,7,0,0,0,5,0,0,10,5,6,6,0,0,0,0,0,0,0,0,0,0],"split_type":[0,0,0,0,0,0,0,0,0,0,0,0,0,0,0,0,0,0,0,0,0,0,0,0,0,0,0,0,0,0,0,0,0,0,0,0,0,0,0,0,0],"sum_hessian":[7.964547E1,1.1128943E1,6.8516525E1,7.0058436E0,4.1231003E0,4.1710143E0,6.434551E1,3.1529686E0,3.852875E0,1.4427512E0,2.7282631E0,7.727996E0,5.6617516E1,1.0239768E0,2.1289918E0,2.2396543E0,1.6132208E0,5.152495E0,2.575501E0,1.7215275E1,3.940224E1,1.0756685E0,1.1639857E0,1.0285307E0,4.1239643E0,1.3913138E0,1.184187E0,1.4140687E1,3.0745869E0,3.1152008E0,3.628704E1,2.8490057E0,1.2749586E0,4.5688233E0,9.571864E0,1.0899079E0,1.9846789E0,1.4910026E0,1.6241982E0,3.3890488E1,2.3965518E0],"tree_param":{"num_deleted":"0","num_feature":"11","num_nodes":"41","size_leaf_vector":"1"}},{"base_weights":[-2.8972317E-2,-5.3774446E-1,5.7723377E-2,2.3816256E-3,-6.3175464E-1,-1.19029365E-1,1.6813107E-1,-7.3367786E-1,2.8268155E-3,-4.3097172E-2,-7.4714206E-2,8.945671E-2,5.175359E-1,-8.0898166E-1,-1.0928695E-2,3.0885773E-2,-5.4319E-1,3.3177295E-1,-1.11564256E-1,-1.328938E-2,7.295644E-1,-3.0824304E-2,-8.9889355E-2,-6.8628624E-2,4.4943622E-1,-7.3917225E-2,-4.9946955E-3,7.285727E-2,6.5090555E-1,-2.094542E-1,5.2217077E-2,9.337075E-2,1.715574E-2,-4.2457547E-2,1.7907951E-2,8.286871E-2,-3.710183E-2,4.3232672E-2,-3.102245E-2,7.330604E-3,9.356699E-2,2.0507413E-3,-5.9872504E-2],"categories":[],"categories_nodes":[],"categories_segments":[],"categories_sizes":[],"default_left":[0,0,0,0,0,0,0,0,0,0,0,0,0,0,0,0,0,0,0,0,0,0,0,0,0,0,0,0,0,0,0,0,0,0,0,0,0,0,0,0,0,0,0],"id":29,"left_children":[1,3,5,-1,7,9,11,13,-1,15,-1,17,19,21,-1,23,25,27,29,-1,31,-1,-1,33,35,-1,-1,37,39,41,-1,-1,-1,-1,-1,-1,-1,-1,-1,-1,-1,-1,-1],"loss_changes":[3.5414042E0,6.318686E-1,1.3646078E0,0E0,6.964669E-1,1.2591928E0,1.1309129E0,3.2245016E-1,0E0,9.497865E-1,0E0,1.7985343E0,1.1535497E0,6.696367E-2,0E0,9.852506E-1,2.8243637E-1,1.3282491E0,1.3819864E0,0E0,5.155568E-1,0E0,0E0,1.7847813E0,1.7182422E0,0E0,0E0,1.554925E0,1.137248E0,1.6668298E0,0E0,0E0,0E0,0E0,0E0,0E0,0E0,0E0,0E0,0E0,0E0,0E0,0E0],"parents":[2147483647,0,0,1,1,2,2,4,4,5,5,6,6,7,7,9,9,11,11,12,12,13,13,15,15,16,16,17,17,18,18,20,20,23,23,24,24,27,27,28,28,29,29],"right_children":[2,4,6,-1,8,10,12,14,-1,16,-1,18,20,22,-1,24,26,28,30,-1,32,-1,-1,34,36,-1,-1,38,40,42,-1,-1,-1,-1,-1,-1,-1,-1,-1,-1,-1,-1,-1],"split_conditions":[1E0,2.492E3,1E0,2.3816256E-3,4E0,8.015744E-3,6.5E3,1E0,2.8268155E-3,3.8670425E3,-7.4714206E-2,3.717E3,1.6198491E2,1.0800924E-2,-1.0928695E-2,1.56E3,1.7634825E2,2.98E3,3.416E3,-1.328938E-2,2.65E2,-3.0824304E-2,-8.9889355E-2,3.4914534E3,4.416E3,-7.3917225E-2,-4.9946955E-3,2.1601848E-2,1.0800924E-2,1.7173695E2,5.2217077E-2,9.337075E-2,1.715574E-2,-4.2457547E-2,1.7907951E-2,8.286871E-2,-3.710183E-2,4.3232672E-2,-3.102245E-2,7.330604E-3,9.356699E-2,2.0507413E-3,-5.9872504E-2],"split_indices":[9,5,1,0,2,1,5,3,0,6,0,5,7,10,0,6,7,5,6,0,7,0,0,5,5,0,0,2,10,7,0,0,0,0,0,0,0,0,0,0,0,0,0],"split_type":[0,0,0,0,0,0,0,0,0,0,0,0,0,0,0,0,0,0,0,0,0,0,0,0,0,0,0,0,0,0,0,0,0,0,0,0,0,0,0,0,0,0,0],"sum_hessian":[7.8585014E1,1.0683925E1,6.790109E1,1.6391692E0,9.044756E0,2.6076645E1,4.1824444E1,7.7381983E0,1.3065574E0,2.4217606E1,1.8590395E0,3.5162945E1,6.6615005E0,6.6415687E0,1.09663E0,2.1913933E1,2.3036728E0,1.5648893E1,1.9514051E1,1.729432E0,4.9320683E0,1.6851095E0,4.956459E0,1.8379955E1,3.5339785E0,1.2918004E0,1.0118724E0,9.317668E0,6.3312254E0,1.7483027E1,2.0310247E0,3.1180582E0,1.8140101E0,7.249169E0,1.1130786E1,2.409955E0,1.1240233E0,4.740661E0,4.577007E0,2.5058768E0,3.8253489E0,1.1585949E1,5.897077E0],"tree_param":{"num_deleted":"0","num_feature":"11","num_nodes":"43","size_leaf_vector":"1"}},{"base_weights":[-2.7048292E-2,-5.14709E-1,5.4075595E-2,-2.6647994E-1,-8.164555E-2,5.282368E-1,1.5715843E-2,-5.6685734E-1,3.882998E-2,-3.4556308E-4,7.058825E-2,-3.953157E-1,7.87564E-2,-9.563856E-3,-7.0106454E-2,4.0376356E-1,-4.3847095E-2,-1.4401276E-1,-7.0922506E-1,3.0302757E-1,-2.2319462E-2,-1.0616812E-2,6.961235E-2,-4.97559E-2,3.3419084E-2,-1.6369624E-2,-9.051359E-2,4.2452517E-1,-2.270232E-1,-7.601797E-1,6.014711E-2,4.0786196E-2,-1.8683935E-2,-1.2963893E-2,6.866757E-2,-6.309635E-2,1.3205034E-2,-1.1923821E-1,-5.17193E-3,-2.2627716E-4,6.9669895E-2],"categories":[],"categories_nodes":[],"categories_segments":[],"categories_sizes":[],"default_left":[0,0,0,0,0,0,0,0,0,0,0,0,0,0,0,0,0,0,0,0,0,0,0,0,0,0,0,0,0,0,0,0,0,0,0,0,0,0,0,0,0],"id":30,"left_children":[1,3,5,7,-1,9,11,13,15,-1,-1,17,19,-1,-1,21,-1,23,25,27,29,-1,-1,-1,31,-1,-1,33,35,37,39,-1,-1,-1,-1,-1,-1,-1,-1,-1,-1],"loss_changes":[3.1263108E0,6.262679E-1,1.2295458E0,7.250076E-1,0E0,4.806533E-1,1.6892942E0,1.8136883E-1,1.0022256E0,0E0,0E0,5.822557E-1,1.2833833E0,0E0,0E0,5.517734E-1,0E0,3.9759713E-1,2.3685646E-1,1.2275418E0,2.4646118E0,0E0,0E0,0E0,4.8699105E-1,0E0,0E0,2.215511E0,6.528997E-1,1.1844325E0,1.4588808E0,0E0,0E0,0E0,0E0,0E0,0E0,0E0,0E0,0E0,0E0],"parents":[2147483647,0,0,1,1,2,2,3,3,5,5,6,6,7,7,8,8,11,11,12,12,15,15,17,17,18,18,19,19,20,20,24,24,27,27,28,28,29,29,30,30],"right_children":[2,4,6,8,-1,10,12,14,16,-1,-1,18,20,-1,-1,22,-1,24,26,28,30,-1,-1,-1,32,-1,-1,34,36,38,40,-1,-1,-1,-1,-1,-1,-1,-1,-1,-1],"split_conditions":[1E0,1.5407418E-3,6.1E1,1.3E2,-8.164555E-2,1.0800924E-2,8.8E1,9.4E1,1.6198491E2,-3.4556308E-4,7.058825E-2,3.859E3,1.2594983E2,-9.563856E-3,-7.0106454E-2,4.3042817E3,-4.3847095E-2,2.213E3,7.591103E1,2.417E3,1.28E2,-1.0616812E-2,6.961235E-2,-4.97559E-2,7.093776E1,-1.6369624E-2,-9.051359E-2,9.396924E-1,2.33E3,1.6293601E3,4.983E3,4.0786196E-2,-1.8683935E-2,-1.2963893E-2,6.866757E-2,-6.309635E-2,1.3205034E-2,-1.1923821E-1,-5.17193E-3,-2.2627716E-4,6.9669895E-2],"split_indices":[9,9,7,7,0,10,7,7,7,0,0,5,7,0,0,5,0,5,7,6,7,0,0,0,7,0,0,10,5,6,6,0,0,0,0,0,0,0,0,0,0],"split_type":[0,0,0,0,0,0,0,0,0,0,0,0,0,0,0,0,0,0,0,0,0,0,0,0,0,0,0,0,0,0,0,0,0,0,0,0,0,0,0,0,0],"sum_hessian":[7.732166E1,1.0265836E1,6.705583E1,6.6655807E0,3.6002545E0,4.0629907E0,6.2992836E1,2.9281125E0,3.7374682E0,1.263097E0,2.7998939E0,7.6756854E0,5.5317154E1,1.0287294E0,1.899383E0,2.205365E0,1.5321034E0,5.073123E0,2.6025622E0,1.6564703E1,3.875245E1,1.0357233E0,1.1696416E0,1.0923358E0,3.9807873E0,1.1726875E0,1.4298748E0,1.3637758E1,2.926944E0,3.0695918E0,3.5682858E1,1.1588985E0,2.8218887E0,4.541946E0,9.095813E0,1.02108E0,1.9058641E0,1.4822633E0,1.5873284E0,3.340423E1,2.2786283E0],"tree_param":{"num_deleted":"0","num_feature":"11","num_nodes":"41","size_leaf_vector":"1"}},{"base_weights":[-2.7992506E-2,-4.9435362E-1,4.7667913E-2,9.944311E-3,-5.812339E-1,-5.7025995E-2,7.6943494E-2,-8.258233E-2,-2.8788078E-1,6.0354984E-1,3.7479874E-2,1.8333432E-1,-7.638108E-2,-3.2626255E-4,8.423594E-2,-3.706691E-1,1.0229047E-1,-2.7776599E-2,6.0820527E-2,-1.3454738E-1,-6.6239053E-1,3.682194E-1,2.8746724E-2,-4.75448E-2,3.4586736E-3,-8.7888986E-2,-1.2896083E-2,-1.9138867E-2,6.5726325E-2,-2.0800626E-2,1.865683E-2],"categories":[],"categories_nodes":[],"categories_segments":[],"categories_sizes":[],"default_left":[0,0,0,0,0,0,0,0,0,0,0,0,0,0,0,0,0,0,0,0,0,0,0,0,0,0,0,0,0,0,0],"id":31,"left_children":[1,3,5,-1,7,-1,9,-1,11,13,15,17,-1,-1,-1,19,21,-1,-1,23,25,27,29,-1,-1,-1,-1,-1,-1,-1,-1],"loss_changes":[2.753452E0,6.194775E-1,1.2645884E0,0E0,4.5422387E-1,0E0,1.3345939E0,0E0,1.4676871E0,6.529325E-1,1.6732324E0,9.0970206E-1,0E0,0E0,0E0,5.0930476E-1,1.0481238E0,0E0,0E0,3.6563978E-1,3.0603993E-1,2.0090365E0,1.66382E0,0E0,0E0,0E0,0E0,0E0,0E0,0E0,0E0],"parents":[2147483647,0,0,1,1,2,2,4,4,6,6,8,8,9,9,10,10,11,11,15,15,16,16,19,19,20,20,21,21,22,22],"right_children":[2,4,6,-1,8,-1,10,-1,12,14,16,18,-1,-1,-1,20,22,-1,-1,24,26,28,30,-1,-1,-1,-1,-1,-1,-1,-1],"split_conditions":[1E0,1.849523E2,1.4737117E3,9.944311E-3,1.3E2,-5.7025995E-2,6.1E1,-8.258233E-2,1.6198491E2,1.0800924E-2,8.8E1,4.3042817E3,-7.638108E-2,-3.2626255E-4,8.423594E-2,3.859E3,3.237E3,-2.7776599E-2,6.0820527E-2,2.213E3,4.616E3,1.625E3,9.396924E-1,-4.75448E-2,3.4586736E-3,-8.7888986E-2,-1.2896083E-2,-1.9138867E-2,6.5726325E-2,-2.0800626E-2,1.865683E-2],"split_indices":[9,8,5,0,7,0,7,0,7,10,7,5,0,0,0,5,5,0,0,5,5,6,10,0,0,0,0,0,0,0,0],"split_type":[0,0,0,0,0,0,0,0,0,0,0,0,0,0,0,0,0,0,0,0,0,0,0,0,0,0,0,0,0,0,0],"sum_hessian":[7.6366615E1,9.887498E0,6.647912E1,1.2435648E0,8.643933E0,2.1712348E0,6.4307884E1,3.7239196E0,4.920014E0,3.4867349E0,6.0821148E1,2.7811768E0,2.138837E0,1.2632269E0,2.2235081E0,7.687753E0,5.3133396E1,1.4997622E0,1.2814146E0,5.0563335E0,2.6314194E0,1.0642839E1,4.2490555E1,1.0761712E0,3.9801624E0,1.4110897E0,1.2203298E0,3.739934E0,6.9029055E0,1.6868147E1,2.562241E1],"tree_param":{"num_deleted":"0","num_feature":"11","num_nodes":"31","size_leaf_vector":"1"}},{"base_weights":[-2.7989432E-2,-4.7357735E-1,4.2375293E-2,8.734818E-3,-5.7725704E-1,-1.2628886E-1,1.4866465E-1,-7.535238E-1,-9.765598E-2,-5.5155776E-2,-7.221682E-2,7.1470745E-2,4.938009E-1,-2.5095975E-2,-8.5619055E-2,4.0293373E-2,-5.9623796E-2,1.7102398E-2,-5.3568937E-2,2.9897904E-1,-1.1026544E-1,-1.1000731E-2,7.9493004E-1,-7.464362E-2,4.181426E-1,4.890518E-2,6.12528E-1,4.673202E-2,-2.0378207E-1,-2.5258154E-2,1.9683285E-2,2.3145134E-2,8.9327894E-2,-4.045007E-2,1.576445E-2,7.96286E-2,-3.482148E-2,3.833454E-2,-2.9426275E-2,7.3269242E-3,8.986557E-2,-2.9527366E-2,4.195261E-2],"categories":[],"categories_nodes":[],"categories_segments":[],"categories_sizes":[],"default_left":[0,0,0,0,0,0,0,0,0,0,0,0,0,0,0,0,0,0,0,0,0,0,0,0,0,0,0,0,0,0,0,0,0,0,0,0,0,0,0,0,0,0,0],"id":32,"left_children":[1,3,5,-1,7,9,11,13,15,17,-1,19,21,-1,-1,-1,-1,23,-1,25,27,29,31,33,35,37,39,-1,41,-1,-1,-1,-1,-1,-1,-1,-1,-1,-1,-1,-1,-1,-1],"loss_changes":[2.417895E0,6.6175866E-1,1.2192675E0,0E0,6.8754506E-1,1.0803411E0,1.0713649E0,1.1714649E-1,1.1309146E0,8.6652184E-1,0E0,1.4848244E0,1.1371214E0,0E0,0E0,0E0,0E0,8.566176E-1,0E0,1.2138643E0,1.1890908E0,2.3849559E-1,5.166793E-2,1.5276445E0,1.5315189E0,1.2503369E0,1.0067446E0,0E0,1.1575439E0,0E0,0E0,0E0,0E0,0E0,0E0,0E0,0E0,0E0,0E0,0E0,0E0,0E0,0E0],"parents":[2147483647,0,0,1,1,2,2,4,4,5,5,6,6,7,7,8,8,9,9,11,11,12,12,17,17,19,19,20,20,21,21,22,22,23,23,24,24,25,25,26,26,28,28],"right_children":[2,4,6,-1,8,10,12,14,16,18,-1,20,22,-1,-1,-1,-1,24,-1,26,28,30,32,34,36,38,40,-1,42,-1,-1,-1,-1,-1,-1,-1,-1,-1,-1,-1,-1,-1,-1],"split_conditions":[1E0,2.492E3,1E0,8.734818E-3,1.6E2,8.015744E-3,6.5E3,1.0800924E-2,1.8163384E3,3.8670425E3,-7.221682E-2,3.717E3,2.1601848E-2,-2.5095975E-2,-8.5619055E-2,4.0293373E-2,-5.9623796E-2,1.56E3,-5.3568937E-2,2.98E3,1.849523E2,9.382712E3,1.6712544E2,3.4914534E3,4.416E3,2.1601848E-2,1.0800924E-2,4.673202E-2,3.416E3,-2.5258154E-2,1.9683285E-2,2.3145134E-2,8.9327894E-2,-4.045007E-2,1.576445E-2,7.96286E-2,-3.482148E-2,3.833454E-2,-2.9426275E-2,7.3269242E-3,8.986557E-2,-2.9527366E-2,4.195261E-2],"split_indices":[9,5,1,0,7,1,5,10,6,6,0,5,2,0,0,0,0,6,0,5,8,5,7,5,5,2,10,0,6,0,0,0,0,0,0,0,0,0,0,0,0,0,0],"split_type":[0,0,0,0,0,0,0,0,0,0,0,0,0,0,0,0,0,0,0,0,0,0,0,0,0,0,0,0,0,0,0,0,0,0,0,0,0,0,0,0,0,0,0],"sum_hessian":[7.547675E1,9.511897E0,6.596486E1,1.5084474E0,8.003449E0,2.5427435E1,4.0537422E1,5.4348454E0,2.5686047E0,2.369179E1,1.7356453E0,3.4114403E1,6.42302E0,1.5062089E0,3.9286363E0,1.3774492E0,1.1911554E0,2.1433266E1,2.2585254E0,1.48629465E1,1.9251457E1,2.7598984E0,3.6631217E0,1.810521E1,3.3280563E0,8.911485E0,5.951462E0,2.1256487E0,1.7125809E1,1.1767572E0,1.5831412E0,1.0426643E0,2.6204574E0,7.175037E0,1.0930172E1,2.2023156E0,1.1257406E0,4.45384E0,4.457645E0,2.4985566E0,3.4529054E0,1.539269E1,1.733119E0],"tree_param":{"num_deleted":"0","num_feature":"11","num_nodes":"43","size_leaf_vector":"1"}},{"base_weights":[-2.4773361E-2,-4.5373642E-1,4.1402802E-2,-2.0863467E-1,-7.780429E-2,1.1162957E-1,-2.0187427E-1,3.1432882E-2,-3.5414907E-1,2.0458868E-2,4.3797657E-1,-3.9786842E-1,4.8935398E-1,-7.326927E-2,2.9253054E-2,1.4647095E-1,-3.0465895E-1,8.546896E-2,2.2418906E-1,1.9163378E-2,-5.174735E-1,-7.5405794E-3,7.536986E-2,6.397942E-2,-4.8088443E-2,2.60146E-1,-6.0561013E-1,-6.7212874E-1,4.2863384E-1,-3.0225018E-2,6.271548E-1,-8.973428E-2,-3.2323006E-1,3.2089453E-2,-6.411568E-2,7.857843E-3,-8.830483E-2,-1.2860606E-2,-1.08864486E-1,7.314163E-2,-8.364028E-3,5.1389437E-2,-2.9524911E-2,7.4494965E-2,1.7261555E-2,-7.726819E-2,-8.0979625E-3],"categories":[],"categories_nodes":[],"categories_segments":[],"categories_sizes":[],"default_left":[0,0,0,0,0,0,0,0,0,0,0,0,0,0,0,0,0,0,0,0,0,0,0,0,0,0,0,0,0,0,0,0,0,0,0,0,0,0,0,0,0,0,0,0,0,0,0],"id":33,"left_children":[1,3,5,7,-1,9,11,-1,13,15,17,19,21,-1,23,25,27,-1,29,-1,31,-1,-1,-1,-1,33,35,37,39,41,43,-1,45,-1,-1,-1,-1,-1,-1,-1,-1,-1,-1,-1,-1,-1,-1],"loss_changes":[2.1620827E0,6.464355E-1,1.1557162E0,6.5629053E-1,0E0,1.5415987E0,2.2558265E0,0E0,9.027911E-1,1.7564261E0,8.1782436E-1,9.737816E-1,6.255292E-1,0E0,1.54684E0,2.789644E0,3.5205097E0,0E0,9.256807E-1,0E0,4.90808E-1,0E0,0E0,0E0,0E0,1.7084043E0,8.9375913E-1,1.7572412E0,7.770239E-1,1.0711048E0,5.7140708E-2,0E0,8.69995E-1,0E0,0E0,0E0,0E0,0E0,0E0,0E0,0E0,0E0,0E0,0E0,0E0,0E0,0E0],"parents":[2147483647,0,0,1,1,2,2,3,3,5,5,6,6,8,8,9,9,10,10,11,11,12,12,14,14,15,15,16,16,18,18,20,20,25,25,26,26,27,27,28,28,29,29,30,30,32,32],"right_children":[2,4,6,8,-1,10,12,-1,14,16,18,20,22,-1,24,26,28,-1,30,-1,32,-1,-1,-1,-1,34,36,38,40,42,44,-1,46,-1,-1,-1,-1,-1,-1,-1,-1,-1,-1,-1,-1,-1,-1],"split_conditions":[1E0,1.5407418E-3,2.582577E-3,2.492E3,-7.780429E-2,1.7336739E0,1.6E3,3.1432882E-2,4.3042817E3,2.1601848E-2,1.2453521E2,8.015744E-3,2.423E3,-7.326927E-2,5.333E3,2.3843027E2,5.25E3,8.546896E-2,6.5E3,1.9163378E-2,9.8730487E-1,-7.5405794E-3,7.536986E-2,6.397942E-2,-4.8088443E-2,3.6641882E2,8.015744E-3,3.704E3,9.703E3,1.0800924E-2,1.2194865E4,-8.973428E-2,2.929E3,3.2089453E-2,-6.411568E-2,7.857843E-3,-8.830483E-2,-1.2860606E-2,-1.08864486E-1,7.314163E-2,-8.364028E-3,5.1389437E-2,-2.9524911E-2,7.4494965E-2,1.7261555E-2,-7.726819E-2,-8.0979625E-3],"split_indices":[9,9,3,5,0,2,6,0,5,2,7,0,5,0,5,7,5,0,5,0,3,0,0,0,0,8,1,5,5,10,5,0,5,0,0,0,0,0,0,0,0,0,0,0,0,0,0],"split_type":[0,0,0,0,0,0,0,0,0,0,0,0,0,0,0,0,0,0,0,0,0,0,0,0,0,0,0,0,0,0,0,0,0,0,0,0,0,0,0,0,0,0,0,0,0,0,0],"sum_hessian":[7.450241E1,9.174638E0,6.5327774E1,6.1613717E0,3.0132663E0,5.1113876E1,1.4213895E1,1.088673E0,5.0726986E0,4.07831E1,1.0330776E1,1.1404588E1,2.809307E0,2.094103E0,2.9785953E0,2.978734E1,1.0995761E1,2.4864194E0,7.844357E0,1.8220347E0,9.582553E0,1.1235785E0,1.6857284E0,1.240174E0,1.7384212E0,2.6444433E1,3.3429065E0,7.3805895E0,3.6151714E0,5.3755045E0,2.468853E0,2.0174587E0,7.565094E0,2.5377907E1,1.0665257E0,1.1712545E0,2.1716518E0,3.7699068E0,3.6106825E0,2.003317E0,1.6118544E0,1.4531016E0,3.9224026E0,1.4533125E0,1.0155404E0,1.8826247E0,5.6824694E0],"tree_param":{"num_deleted":"0","num_feature":"11","num_nodes":"47","size_leaf_vector":"1"}},{"base_weights":[-2.4811907E-2,-4.336162E-1,3.710747E-2,-1.9535848E-1,-7.617416E-2,-1.243101E-1,1.3892545E-1,-5.0003344E-1,8.1673056E-2,-5.766076E-3,-4.2406252E-1,7.229451E-2,4.9719596E-1,-8.069568E-3,-6.3627414E-2,4.0321108E-2,-3.7856143E-2,-1.8024328E-1,3.300638E-1,-6.12733E-2,-7.939081E-1,1.2384182E-1,-7.544837E-2,1.9801866E-2,8.533526E-2,4.6612233E-1,-4.9279138E-1,-1.8981399E-1,7.5657666E-1,-4.172092E-2,3.1906467E-2,-1.0505774E-1,-8.039301E-3,3.083649E-2,4.68183E-1,2.4090605E-2,-1.7581506E-2,5.774315E-2,2.3345242E-3,-5.2958764E-3,-8.924321E-2,2.6444254E-2,-7.457086E-2,1.976637E-2,8.832922E-2,1.0559296E-2,-7.411299E-2,-5.528402E-3,7.742165E-2],"categories":[],"categories_nodes":[],"categories_segments":[],"categories_sizes":[],"default_left":[0,0,0,0,0,0,0,0,0,0,0,0,0,0,0,0,0,0,0,0,0,0,0,0,0,0,0,0,0,0,0,0,0,0,0,0,0,0,0,0,0,0,0,0,0,0,0,0,0],"id":34,"left_children":[1,3,5,7,-1,9,11,13,15,17,19,21,23,-1,-1,-1,-1,25,27,29,31,33,-1,35,-1,37,39,41,43,-1,-1,-1,-1,45,47,-1,-1,-1,-1,-1,-1,-1,-1,-1,-1,-1,-1,-1,-1],"loss_changes":[1.8980601E0,6.219214E-1,1.0936046E0,6.364304E-1,0E0,9.164157E-1,9.3399036E-1,1.4866674E-1,8.267694E-1,1.2046794E0,9.327862E-1,1.6033753E0,1.0375047E0,0E0,0E0,0E0,0E0,2.9587395E0,1.703623E0,7.796876E-1,5.6355333E-1,1.0811303E0,0E0,2.0123835E-1,0E0,2.2885168E-1,1.6387353E0,1.1997331E0,1.13325596E-1,0E0,0E0,0E0,0E0,1.6944007E0,1.1969272E0,0E0,0E0,0E0,0E0,0E0,0E0,0E0,0E0,0E0,0E0,0E0,0E0,0E0,0E0],"parents":[2147483647,0,0,1,1,2,2,3,3,5,5,6,6,7,7,8,8,9,9,10,10,11,11,12,12,17,17,18,18,19,19,20,20,21,21,23,23,25,25,26,26,27,27,28,28,33,33,34,34],"right_children":[2,4,6,8,-1,10,12,14,16,18,20,22,24,-1,-1,-1,-1,26,28,30,32,34,-1,36,-1,38,40,42,44,-1,-1,-1,-1,46,48,-1,-1,-1,-1,-1,-1,-1,-1,-1,-1,-1,-1,-1,-1],"split_conditions":[1E0,1.5407418E-3,1E0,1.3E2,-7.617416E-2,2.1601848E-2,1E0,1.2521857E-1,1.6198491E2,1.2722683E2,1.5270395E2,8.015744E-3,1.01E3,-8.069568E-3,-6.3627414E-2,4.0321108E-2,-3.7856143E-2,8.015744E-3,3.7059173E-2,1.0621846E2,1.7336739E0,6.083E3,-7.544837E-2,5.7912446E3,8.533526E-2,4.133E3,1.0250216E0,1.88E2,4.167427E3,-4.172092E-2,3.1906467E-2,-1.0505774E-1,-8.039301E-3,2.1647357E2,2.1601848E-2,2.4090605E-2,-1.7581506E-2,5.774315E-2,2.3345242E-3,-5.2958764E-3,-8.924321E-2,2.6444254E-2,-7.457086E-2,1.976637E-2,8.832922E-2,1.0559296E-2,-7.411299E-2,-5.528402E-3,7.742165E-2],"split_indices":[9,9,1,7,0,2,4,10,7,7,7,4,6,0,0,0,0,0,10,7,2,5,0,5,0,5,10,7,5,0,0,0,0,7,2,0,0,0,0,0,0,0,0,0,0,0,0,0,0],"split_type":[0,0,0,0,0,0,0,0,0,0,0,0,0,0,0,0,0,0,0,0,0,0,0,0,0,0,0,0,0,0,0,0,0,0,0,0,0,0,0,0,0,0,0,0,0,0,0,0,0],"sum_hessian":[7.334822E1,8.858657E0,6.448956E1,6.056385E0,2.8022716E0,2.4858744E1,3.9630817E1,2.500931E0,3.555454E0,1.8544233E1,6.3145094E0,3.442944E1,5.20138E0,1.0037556E0,1.4971755E0,2.16606E0,1.3893942E0,1.2508731E1,6.0355024E0,3.776114E0,2.5383956E0,3.3209152E1,1.2202861E0,2.6734598E0,2.5279198E0,3.9169383E0,8.591793E0,2.970146E0,3.0653565E0,1.9005541E0,1.8755598E0,1.5194238E0,1.0189718E0,2.7004803E1,6.2043495E0,1.1462938E0,1.527166E0,2.8870525E0,1.0298858E0,4.6293664E0,3.9624264E0,1.9230192E0,1.0471267E0,